27 500
a -0.1595773 -0.1654659 0.11472696 -0.111644074 0.15694162 0.1555412 -0.02004333 -0.15644573 -0.15612978 0.10998304 -0.09245512 -0.16554892 0.17074211 0.1593132 0.15733962 -0.16257557 -0.10914706 -0.15928346 -0.1571249 0.15537052 0.17158638 0.15711278 -0.17413126 0.165203 -0.15625462 0.1608179 -0.1564666 0.1682345 -0.15560712 -0.1578249 0.16980237 -0.15815741 -0.110128865 0.15453966 -0.16399342 0.15913892 0.20155744 0.1597742 0.16165665 0.15648061 -0.15784582 0.15672529 0.17327298 -0.15887003 -0.15667582 0.15626033 0.17484473 -0.15946472 -0.16103023 -0.011500265 0.10733804 -0.15545097 0.028389415 -0.15745127 -0.12967171 0.11979653 0.16516232 0.16249956 -0.11577507 0.15553387 -0.20488353 -0.15587236 0.15676473 -0.15966496 0.15726826 0.17550053 -0.16023295 0.15997483 -0.1618738 -0.15631339 0.1713057 0.1562064 -0.15617819 -0.101399176 -0.1561402 0.15519485 0.15759233 0.15946886 0.09852268 -0.1570128 -0.1576959 -0.16126306 0.16524288 -0.1585371 -0.15590811 0.1558008 -0.15581526 0.15608895 -0.16858484 0.1582085 -0.15824258 -0.1574014 0.15612702 -0.09739229 0.16297345 -0.15723398 0.16668934 -0.15940154 -0.15377517 -0.16098872 -0.15797715 0.1599085 -0.1553701 0.15682895 0.025037244 0.16119587 -0.15564331 -0.16108675 0.16421814 0.15851252 -0.15780441 0.15733656 -0.15814686 0.11264861 -0.15512638 0.15546364 -0.023337256 -0.16300404 0.16050975 0.15913565 -0.15518405 -0.16811137 -0.15830155 0.16212912 0.13594508 0.110764824 -0.17565583 0.08762008 0.15785624 0.15954131 -0.15850623 -0.1752553 -0.14955664 -0.17647225 0.15698169 0.2292508 -0.15548274 0.15583411 -0.15811835 0.10227728 0.11402999 0.1562455 0.16614367 -0.16205937 -0.11231533 0.15485801 0.15642336 -0.15808105 -0.15490152 0.15566605 -0.16123888 0.1593678 -0.1301854 -0.15794419 0.15754937 -0.15524925 -0.15676633 -0.15587907 0.16019562 -0.09715394 0.1104718 -0.16056263 -0.11544652 0.16927814 0.15918991 -0.19102089 -0.15460396 -0.15760076 0.15265238 -0.1576556 -0.18535434 -0.11506333 -0.16994748 0.15761428 -0.16185719 -0.17587301 -0.15728964 -0.16355759 -0.10973737 0.07320468 0.16016361 -0.10625768 -0.15743718 0.15820263 -0.15830092 -0.15964031 0.114642866 -0.15626177 0.15546086 0.1784234 -0.15854025 -0.17995307 -0.014224503 -0.14187752 0.15961443 0.16933696 -0.1584223 0.156502 -0.15821697 -0.121183634 -0.15689799 0.15974347 -0.15845306 0.20474228 -0.1604762 -0.157947 0.18850762 0.15816766 0.15966716 0.15957853 0.15803905 -0.15656856 -0.18571497 -0.16258062 -0.15626091 -0.15920028 -0.220205 -0.19621146 -0.16747183 0.15606949 -0.16931361 -0.15532939 -0.15570039 0.15785815 -0.15804173 -0.15569021 -0.11419234 -0.1567054 0.15771401 -0.15798147 -0.17011347 0.16927756 -0.16337065 0.016643617 0.069561385 -0.15773986 -0.15558735 -0.04531879 -0.1592824 -0.15445551 -0.15710054 -0.18623848 -0.16133982 0.15967408 -0.15854688 0.0933804 0.15871368 -0.15883838 -0.118338756 0.1047878 -0.15656957 -0.15571763 -0.15579343 -0.15891385 0.16652618 0.15574288 -0.0732233 0.15642217 -0.15924263 -0.110228755 0.1806614 0.15699586 -0.1983818 0.15892982 0.15853038 -0.16033404 0.15646453 -0.15539734 0.17473158 -0.16401649 -0.16016752 -0.16897063 0.16134015 0.1276455 0.16223143 0.1554979 -0.16634388 0.013752371 -0.16085732 0.03457576 0.16020076 0.15604098 0.11426605 -0.15978692 0.16393587 -0.15657383 0.12626621 -0.15555485 0.18553457 0.15997003 0.15878972 -0.15816471 0.1461782 0.010451585 -0.16454662 0.1240707 0.1582224 -0.16048755 0.16705772 -0.16006227 -0.17358904 0.16315599 0.11560703 -0.16096717 0.17662996 0.041627713 0.112424314 -0.15597661 -0.17453478 -0.15697217 -0.15573491 -0.16321063 0.15540251 0.15620814 -0.15897657 -0.10683934 0.15524466 -0.15611929 -0.16366315 -0.15892185 -0.07570676 0.1572472 -0.15906917 -0.15423517 0.15756239 -0.053798486 -0.15504187 0.1565851 -0.18094099 -0.19618133 0.15757014 -0.15642898 0.16943914 0.16596146 0.16167518 0.15752143 0.15577409 0.15625349 -0.15514784 -0.15962787 -0.15192959 0.15471368 0.15601633 0.15714557 0.15756947 0.15466109 -0.16032392 -0.16128547 0.19606453 -0.118014455 0.15656023 0.16044667 0.15699011 0.18081324 0.20066527 -0.1600879 0.16672176 -0.15852173 -0.15855399 0.00797332 -0.08214816 -0.11485787 0.15497915 -0.15695229 -0.15935077 0.15497757 0.1626552 -0.13867037 -0.1596878 -0.15620595 -0.15490258 -0.15879357 -0.157842 -0.1562599 -0.14875081 -0.17617138 0.15652664 -0.15897723 0.15540531 0.18352489 0.055815663 -0.11791115 0.15665005 -0.15663698 0.15628704 -0.16942064 0.08866821 -0.15871203 -0.15898788 -0.15587501 -0.16259389 0.15838642 -0.051655225 -0.15556957 0.16748786 -0.10881669 -0.15955049 -0.15837301 -0.090710215 -0.16360413 -0.1600619 -0.15747814 0.067542285 0.16233708 -0.15827061 0.08751324 0.15450326 -0.16263449 -0.14870067 0.15635915 0.15788603 0.14991397 -0.15477027 0.15841345 -0.15812165 0.1548794 -0.15808776 0.1934568 0.15791686 0.1577773 -0.15715992 -0.13095415 0.15774177 0.1623344 -0.15622304 -0.24203265 -0.17897688 0.15875849 -0.18763311 -0.1637089 -0.16187675 -0.1258994 -0.15757488 -0.1599545 0.15584604 -0.1148518 0.15703937 -0.15905848 0.18259463 -0.029016986 0.09697866 0.16872093 0.15862885 0.10915896 0.079137385 -0.15568517 0.14054908 -0.15239407 -0.16624767 0.16007084 0.15973505 -0.18170998 -0.17062208 0.07045787 -0.15497212 0.023832163 0.15951277 0.07602927 0.15585138 0.072281435 -0.15518051 0.15610237 0.15699527 0.1625446 0.15697546 0.15615907 -0.15875715 -0.15940131 -0.15932631 -0.16647455 -0.16905291 0.15991373 0.15477525 0.15755245 0.15570554 -0.1668878 -0.16455331 -0.11455156 -0.15636286 -0.086886905 0.15745178 0.17313473 0.15948792 0.112122275 0.1904169 0.10276953 -0.16289273 0.15649807 -0.19192946 0.15985063 -0.15719242 -0.126791 -0.14892423 -0.15677166 0.16164315 -0.16551892 0.0025067155 -0.17637572 -0.15855892 -0.15971608
n -0.16412967 -0.16258538 -0.08408426 0.08628126 0.16158658 0.16206925 -0.110437915 -0.16225493 -0.15976913 -0.08746509 0.09916306 -0.16521932 0.26796576 0.16109747 0.16362537 -0.24318086 0.088593565 -0.16415033 -0.16310684 0.16046973 0.16919374 0.16368453 -0.3110572 0.16339436 -0.15778813 0.16110146 -0.16532408 0.20312853 -0.1580628 -0.16189817 0.20508584 -0.15862958 0.089786045 0.15954629 -0.16836758 0.21628729 0.16705151 0.15991008 0.18094864 0.16216867 -0.16301934 0.16368392 0.16246201 -0.1609984 -0.1593868 0.1588524 0.1743006 -0.16182321 -0.16079265 0.10976634 -0.08941062 -0.15857762 -0.11383403 -0.16330338 0.039727215 -0.08100907 0.164092 0.16107853 0.084275395 0.16135454 -0.31168848 -0.16029729 0.15800025 -0.16244549 0.16031098 0.1487867 -0.1676056 0.1592778 -0.17642176 -0.16186571 0.18025465 0.16025166 -0.16127473 0.09766335 -0.16432537 0.159794 0.16212432 0.16243882 -0.095577754 -0.16675487 -0.16104195 -0.16820307 0.16243547 -0.16639425 -0.15858336 0.15904923 -0.16210665 0.15999107 -0.14184812 0.16037144 -0.16073824 -0.16489954 0.16091712 0.09813974 0.161088 -0.15930538 0.16499019 -0.15996289 -0.16063035 -0.16686378 -0.16079837 0.17336594 -0.16480146 0.16429886 -0.10568217 0.17570327 -0.1610647 -0.17359792 0.16451228 0.16282381 -0.16021766 0.16407612 -0.16030204 -0.082987264 -0.16081075 0.16665342 -0.111809365 -0.17994167 0.17261127 0.16640423 -0.16021703 -0.17935331 -0.16328897 0.17965497 -0.023927363 -0.08700592 -0.17502476 -0.10443582 0.16015087 0.16776407 -0.15983318 -0.2318678 -0.04924972 -0.2799613 0.16283159 0.22173361 -0.16081291 0.1615975 -0.1634575 -0.094200045 -0.083520725 0.15905835 0.176933 -0.16572289 0.0856607 0.1588088 0.15999661 -0.1592028 -0.1593308 0.15879364 -0.16259955 0.16635826 0.053724065 -0.16000608 0.164071 -0.15747699 -0.15778887 -0.15881391 0.16443397 0.09766158 -0.08791029 -0.16435048 0.08234516 0.16695267 0.16199125 -0.14913677 -0.15957594 -0.16318062 0.13541669 -0.15997566 -0.16870764 0.078057066 -0.17572185 0.16308613 -0.16474544 -0.14297299 -0.16386126 -0.16907594 0.0883565 -0.113697164 0.1618005 0.091961294 -0.16109112 0.1658382 -0.1617427 -0.16166498 -0.08748511 -0.16906315 0.15959825 0.32050216 -0.16058783 -0.18654905 0.10639792 -0.026560418 0.16206533 0.16372333 -0.16005759 0.15915644 -0.16034696 0.07892235 -0.16162615 0.1663846 -0.16414212 0.15767185 -0.16182266 -0.16484988 0.16753192 0.16147065 0.16265595 0.16607895 0.16699295 -0.16075103 -0.19290784 -0.16291241 -0.15833011 -0.16573772 -0.20351149 -0.19683874 -0.16265291 0.16410369 -0.16271871 -0.1615262 -0.16128792 0.16695392 -0.16349801 -0.1593684 0.08260008 -0.1596519 0.1662554 -0.1603731 -0.18658175 0.23758706 -0.26228103 0.11274004 -0.120190814 -0.16139193 -0.16100918 0.10582743 -0.16236158 -0.15978378 -0.16132532 -0.18294653 -0.16365948 0.16428187 -0.16187602 -0.09733739 0.17768647 -0.16537762 -0.12315956 -0.08970368 -0.16204588 -0.15991202 -0.16146944 -0.1667398 0.16436963 0.15963255 0.09716026 0.16189906 -0.0021854532 0.086333014 0.16332774 0.1607415 -0.15788117 0.16198957 0.16089475 -0.16206044 0.16099718 -0.1598933 0.17023657 -0.17580956 -0.16963267 -0.16467713 0.16134283 -0.053438127 0.1693957 0.16002822 -0.172127 0.11109215 -0.1645262 0.112427406 0.16344346 0.15878989 -0.08345508 -0.16347352 0.19442336 -0.16411404 -0.06876628 -0.1639567 0.14452022 0.16302048 0.16094494 -0.15859212 0.017895944 -0.11156426 -0.17085865 -0.07425793 0.15927987 -0.1634554 0.1636738 -0.16681485 -0.14885053 0.17461687 0.12590243 -0.16558896 0.16489843 -0.10770514 -0.08561145 -0.16319369 -0.17900725 -0.1647473 -0.16043752 -0.16648157 0.16083018 0.16285567 -0.16928285 0.09195253 0.16001718 -0.15972078 -0.16387525 -0.16567722 0.10460218 0.16120842 -0.1617007 -0.15958661 0.16138613 0.1052962 -0.15998298 0.160793 -0.24944554 -0.1668305 0.16465002 -0.16169737 0.16753222 0.19065501 0.16682114 0.16130334 0.16281885 0.15966375 -0.16077596 -0.16082677 -0.16124023 0.15984692 0.15929636 0.1632276 0.16263531 0.15970238 -0.16155183 -0.16377148 0.15214315 0.08176636 0.15978922 0.1653251 0.16142458 0.17550287 0.16809653 -0.16284715 0.28377748 -0.16539848 -0.17347975 -0.107631885 0.10053576 0.084758565 0.15940581 -0.15998048 -0.16703781 0.15937077 0.17611 0.028792478 -0.1635564 -0.15907298 -0.15954217 -0.16462465 -0.16294542 -0.16290218 -0.05588539 -0.17607974 0.16308124 -0.16963007 0.16130744 0.20702532 -0.1061426 0.078230426 0.16032189 -0.15907465 0.15987983 -0.16626929 -0.10393551 -0.16115181 -0.1621782 -0.1607691 -0.1626554 0.16312186 0.10994631 -0.16162094 0.16674745 0.08665004 -0.1646846 -0.16028889 0.10121006 -0.16056326 -0.16819464 -0.16468441 -0.10469079 0.18606165 -0.16147022 -0.105651625 0.15905975 -0.16986279 -0.050456304 0.1606575 0.16391213 0.1074808 -0.16324547 0.1608482 -0.16140205 0.15999451 -0.16136996 0.15762867 0.16201217 0.16044995 -0.1637922 -0.13440552 0.16134569 0.17802793 -0.16029671 -0.25443333 -0.1912167 0.16338 -0.15216078 -0.168051 -0.1728569 0.05681896 -0.15887895 -0.16151135 0.16039585 0.084828384 0.16327727 -0.16113693 0.21409976 0.106937945 0.122347064 0.21776004 0.17510213 -0.08959688 -0.100658126 -0.16781561 0.0019725813 -0.07570542 -0.1615716 0.1615803 0.16072777 -0.16492517 -0.20934449 -0.10440293 -0.16018446 0.11519099 0.18006723 -0.106881164 0.16195318 -0.110685356 -0.15943515 0.1627243 0.1636277 0.17228423 0.16083759 0.16195694 -0.1600388 -0.16079417 -0.16319856 -0.18223661 -0.27575508 0.16119678 0.15904203 0.16240048 0.16047296 -0.16839136 -0.16759229 0.08376778 -0.15985659 0.10143851 0.16605103 0.16259396 0.16014902 -0.08627256 0.16120256 -0.093149446 -0.18787836 0.15826468 -0.17108785 0.16824916 -0.15973273 0.053274006 -0.11274742 -0.1582898 0.16581006 -0.19936687 -0.10818147 -0.16695525 -0.16207977 -0.1633701
r -0.16636129 -0.16728096 -0.040005796 0.04191928 0.16106834 0.16304363 -0.077496104 -0.16372332 -0.16222607 -0.042724617 0.06642855 -0.16838892 0.21583647 0.16331369 0.16493496 -0.15876806 0.05009724 -0.16891602 -0.16136822 0.16109064 0.17592286 0.1656201 -0.26298988 0.16692899 -0.16226982 0.16341743 -0.16705415 0.19051479 -0.16070794 -0.16407424 0.19922426 -0.16185392 0.051697165 0.16206603 -0.16985063 0.14825311 0.17512535 0.16482566 0.18477966 0.16259427 -0.16484615 0.16641676 0.1685539 -0.1612247 -0.16085699 0.16116889 0.17097345 -0.16364709 -0.16314517 0.07277972 -0.05516649 -0.16154458 -0.08061943 -0.16568856 -0.052790172 -0.025009224 0.16794801 0.16418657 0.045345552 0.16001233 -0.1625283 -0.16059144 0.16216524 -0.16324143 0.16162828 0.14734077 -0.17387542 0.1639677 -0.17357478 -0.16428089 0.17722905 0.16160129 -0.16085885 0.0615941 -0.16519953 0.1619013 0.16433743 0.16352414 -0.060416147 -0.16677298 -0.1629112 -0.16875854 0.16822577 -0.16688961 -0.16183954 0.16190903 -0.16381395 0.16109453 -0.13540737 0.16232441 -0.16225004 -0.1676628 0.16304177 0.05224508 0.16496594 -0.16281141 0.16886397 -0.16281816 -0.16060178 -0.16829664 -0.16278318 0.17349838 -0.16673969 0.16335613 -0.070190884 0.18156461 -0.15941827 -0.17042235 0.16829205 0.16384163 -0.16292335 0.16355166 -0.16208942 -0.036236238 -0.16163875 0.16600095 -0.07725782 -0.17797266 0.17680547 0.1686082 -0.1620824 -0.17692663 -0.1674437 0.17385095 -0.018312711 -0.048804924 -0.17459695 -0.07725152 0.16241446 0.16885337 -0.16360265 -0.20240575 -0.013548842 -0.2486759 0.16370252 0.19300799 -0.16170235 0.16437033 -0.16231215 -0.045958612 -0.018936016 0.1617519 0.17562945 -0.16574891 0.040028878 0.1620146 0.16248344 -0.16328707 -0.16242504 0.1606178 -0.16453362 0.16701287 0.020618884 -0.16589469 0.16426212 -0.16146162 -0.16333707 -0.1620713 0.16512926 0.058806397 -0.04918211 -0.16611823 0.044373833 0.16905448 0.1623349 -0.14665014 -0.16123572 -0.16331042 0.08207834 -0.16217375 -0.17621505 0.046373792 -0.17173664 0.16463335 -0.16750444 -0.14041302 -0.16425768 -0.17406982 0.04479536 -0.07825172 0.16400507 0.050668687 -0.16308874 0.16502704 -0.16580817 -0.16518989 -0.039633315 -0.16768521 0.16138938 0.25334093 -0.16149831 -0.17729224 0.0782595 -0.012058385 0.16422102 0.16736478 -0.16364132 0.16239308 -0.16173054 0.044461712 -0.16201515 0.16778141 -0.16537148 0.15619639 -0.16323954 -0.16560906 0.17198338 0.16315559 0.1636597 0.16929865 0.16735587 -0.162132 -0.1902911 -0.16506924 -0.16283189 -0.1664408 -0.18171404 -0.19752945 -0.16818026 0.16595003 -0.16827258 -0.16460936 -0.16252293 0.17102093 -0.16522284 -0.16110964 0.010199045 -0.16285577 0.16466428 -0.16457795 -0.18522817 0.21125658 -0.18306147 0.043534357 -0.079702534 -0.1631429 -0.16204219 0.07050371 -0.16540013 -0.16119055 -0.16182388 -0.18105882 -0.16518079 0.16574879 -0.1619793 -0.06179874 0.17267013 -0.167242 -0.11083568 -0.053918436 -0.16237049 -0.16247413 -0.16298182 -0.16960004 0.16828465 0.16162993 0.05234105 0.16291189 0.07584052 0.04366389 0.17158355 0.16281748 -0.15878513 0.16438133 0.16281505 -0.16630745 0.16265047 -0.16235371 0.17039515 -0.17372997 -0.17387572 -0.16830105 0.16441935 -0.02779961 0.16902888 0.1611017 -0.16989368 0.081139565 -0.16533792 0.081890106 0.16476142 0.16184849 -0.044429075 -0.16601847 0.13473034 -0.16286969 0.0017002046 -0.16476811 0.13796228 0.16400172 0.16404949 -0.16282476 -0.01186651 -0.07906726 -0.1768899 -0.06803641 0.16273758 -0.16370907 0.16873139 -0.16695577 -0.14745042 0.17382863 0.11460145 -0.16726005 0.17093007 -0.07572425 -0.04549667 -0.16668199 -0.17790458 -0.16787615 -0.16088948 -0.17484924 0.16115813 0.16379061 -0.17027275 0.044764772 0.16183953 -0.16308226 -0.16453648 -0.16696303 0.058305185 0.16494465 -0.1652545 -0.16058305 0.16230938 0.06804099 -0.16124469 0.16315815 -0.21536194 -0.17149155 0.16384692 -0.16381946 0.17153095 0.17653914 0.16478872 0.16202502 0.1639108 0.1600199 -0.16097882 -0.16261227 -0.16526759 0.16261175 0.1624348 0.16378297 0.16578628 0.16327393 -0.16152798 -0.16531396 0.15268132 0.042650674 0.16236378 0.17012091 0.16132511 0.17867512 0.17385526 -0.16385926 0.20396551 -0.16572712 -0.17732921 -0.07647884 0.0671028 0.047587585 0.16194387 -0.1633085 -0.1656224 0.16224122 0.18275005 0.031114941 -0.16406466 -0.1613015 -0.16139372 -0.16561964 -0.16334487 -0.16226149 -0.015399981 -0.17112489 0.16379282 -0.17500831 0.16287853 0.18819031 -0.071186766 0.03721647 0.16010106 -0.16237336 0.16148868 -0.17036888 -0.06786928 -0.16319543 -0.16406196 -0.15936306 -0.16561861 0.16963181 0.07838242 -0.16276997 0.17051956 0.04439716 -0.16601332 -0.16273873 0.06681644 -0.16533256 -0.16701743 -0.16582108 -0.07211203 0.17792834 -0.16519709 -0.07305343 0.16128379 -0.16915631 -0.01317754 0.16165315 0.16462767 0.060457513 -0.16459258 0.1621317 -0.16156404 0.16160487 -0.16414496 0.15994886 0.16296236 0.16358612 -0.16557854 -0.114291616 0.16179512 0.17788787 -0.16127081 -0.19550453 -0.17795609 0.16346864 -0.15494134 -0.16758937 -0.17088757 0.032986086 -0.16264573 -0.1638589 0.16167952 0.029927121 0.16560644 -0.16324916 0.22047858 0.07129017 0.10105943 0.20269275 0.17024878 -0.048424646 -0.03625602 -0.16679558 -0.008330935 -0.07956567 -0.16541383 0.16541997 0.1638266 -0.17224482 -0.18246718 -0.0666226 -0.16055234 0.08431507 0.23766153 -0.06956871 0.16126311 -0.08713369 -0.1613653 0.16301525 0.16315708 0.17581661 0.16019423 0.16293296 -0.16336147 -0.16358747 -0.16582689 -0.18249942 -0.18023118 0.16444835 0.16132474 0.16426894 0.1605703 -0.16744077 -0.16636992 0.011385453 -0.16177364 0.06735871 0.16797297 0.16708618 0.16465463 -0.036254607 0.16248743 -0.04929431 -0.18780075 0.16187328 -0.17689884 0.16681513 -0.16264883 -0.043223653 -0.069413565 -0.16186117 0.1661087 -0.19895086 -0.07254893 -0.17049164 -0.16198686 -0.16474359
c -0.15411182 -0.155789 0.03788654 -0.018049702 0.15332685 0.15145333 -0.1296776 -0.1541886 -0.15435497 0.0036878507 0.06397838 -0.1562302 0.18156804 0.15511513 0.1526321 -0.17574507 0.0130039705 -0.15559782 -0.15170749 0.15338762 0.16129394 0.15677612 -0.2050842 0.15570942 -0.15251066 0.15421684 -0.15647413 0.18143527 -0.15318356 -0.1550317 0.18162228 -0.15322745 0.02343965 0.15333036 -0.15950763 0.16972163 0.16258942 0.15602362 0.16297062 0.15407619 -0.15751289 0.15475899 0.15835987 -0.15247788 -0.15173647 0.15168478 0.16649644 -0.15409315 -0.15398517 0.13256764 -0.011526139 -0.1531115 -0.13802743 -0.15313873 -0.120014854 0.04288155 0.15644325 0.15398419 -0.032729402 0.15326783 -0.18597735 -0.1514609 0.1532334 -0.15497911 0.15345082 0.15732616 -0.15889409 0.15349081 -0.16452548 -0.15235119 0.16180106 0.15431069 -0.15399203 0.07368794 -0.15400551 0.15309371 0.15498504 0.15535614 -0.053258225 -0.15757723 -0.15143687 -0.15717012 0.15697953 -0.15829153 -0.15044735 0.1536858 -0.15538222 0.15067431 -0.1612428 0.15420213 -0.15500692 -0.15567923 0.15411761 0.077139996 0.1543763 -0.1535083 0.15914746 -0.15271178 -0.15347911 -0.15668184 -0.1524989 0.16311567 -0.15561175 0.15531677 -0.11892848 0.1664506 -0.15192498 -0.16058603 0.15609296 0.1523145 -0.15466721 0.15545183 -0.15365686 0.036642615 -0.15392019 0.15975873 -0.12648907 -0.16491053 0.16096286 0.1553789 -0.15406345 -0.15454948 -0.15483761 0.15537298 0.13471998 0.0055196336 -0.1615388 -0.06418473 0.15313667 0.15497245 -0.15309975 -0.19055302 -0.14683175 -0.18093726 0.15213133 0.22111513 -0.15215035 0.15452269 -0.1535276 -0.055940717 0.012526098 0.15245894 0.1653431 -0.1539404 -0.025445603 0.1526355 0.15188538 -0.15290833 -0.15220423 0.1514543 -0.15344884 0.15776889 -0.12101981 -0.15512137 0.15656316 -0.15315522 -0.15334652 -0.15279214 0.15506978 0.06082457 0.007350043 -0.15626891 -0.032637328 0.15845299 0.15393059 -0.16241269 -0.15359259 -0.15245232 0.15968743 -0.15301272 -0.16248026 -0.036521822 -0.16332732 0.15541895 -0.15669811 -0.15712327 -0.15519015 -0.16204713 -0.004413213 -0.13186589 0.15317829 0.013247069 -0.15237407 0.15952945 -0.15632346 -0.15570806 0.03376309 -0.15754583 0.15428458 0.20992236 -0.15340552 -0.16810974 0.12323302 -0.14418663 0.15661073 0.15759294 -0.15325117 0.15391842 -0.15419047 -0.052956484 -0.15476914 0.15789182 -0.15901576 0.15979473 -0.15415753 -0.15048377 0.16169994 0.1545051 0.15527952 0.15497705 0.15740617 -0.15199637 -0.18011174 -0.15606155 -0.15351996 -0.15672351 -0.20897248 -0.16920736 -0.15493907 0.15285069 -0.1584399 -0.1544013 -0.15349197 0.15905677 -0.15518561 -0.15172842 -0.03740133 -0.15460347 0.1538899 -0.1532263 -0.1763264 0.17435579 -0.17578375 0.11262453 -0.10955908 -0.1519167 -0.15282951 0.12296549 -0.15528572 -0.15403773 -0.15371129 -0.17298283 -0.15466946 0.15801626 -0.15361652 -0.061936036 0.16314098 -0.15290296 -0.14807075 -0.026113924 -0.15185668 -0.1534532 -0.1538432 -0.15919492 0.15846986 0.15337844 0.070670865 0.15438405 -0.13721253 -0.018528981 0.15953657 0.15350148 -0.16292943 0.15376341 0.15436906 -0.15713982 0.15298186 -0.15250997 0.16120072 -0.1651958 -0.16134489 -0.1551597 0.15494862 0.11042799 0.15814488 0.15354331 -0.16118482 0.12809378 -0.1555267 0.13102709 0.15434422 0.15372707 0.019827604 -0.15605643 0.16779707 -0.1543841 0.08831401 -0.15327884 0.15585396 0.15374613 0.15338299 -0.1525983 0.14537165 -0.123936675 -0.15993726 0.095073685 0.1520942 -0.154804 0.15862784 -0.1575882 -0.1608174 0.16677403 0.148141 -0.15394606 0.15724178 -0.12912717 0.01605386 -0.15862466 -0.172054 -0.16070972 -0.15384893 -0.16269915 0.15232405 0.15372694 -0.1567889 0.021258779 0.15271907 -0.15450287 -0.1553689 -0.15529753 0.105143175 0.15452296 -0.15633775 -0.15228982 0.15417142 0.115604974 -0.15145302 0.15311787 -0.19929399 -0.16211924 0.15445805 -0.15545075 0.15938133 0.16577037 0.15543802 0.15365507 0.15302461 0.15328093 -0.15167338 -0.15292364 -0.15826872 0.15333802 0.15309002 0.15529384 0.15656817 0.15361638 -0.15388751 -0.15329924 0.16081409 -0.055850986 0.1516663 0.15716355 0.15177847 0.15797143 0.16440555 -0.15608172 0.18088591 -0.15212332 -0.15759982 -0.12899688 0.0933782 -0.032671493 0.15362485 -0.15288459 -0.15851666 0.15373641 0.1638506 -0.121701896 -0.15523998 -0.15167935 -0.15226464 -0.15408011 -0.15411669 -0.15159456 -0.14792655 -0.15734261 0.15288378 -0.15949136 0.15352659 0.16622807 -0.11338066 -0.06339241 0.15293315 -0.15210024 0.15378675 -0.15926684 -0.09499433 -0.15456435 -0.15481587 -0.1525356 -0.1569868 0.15921488 0.13025868 -0.15464713 0.1567032 -0.008508731 -0.15481663 -0.15365504 0.07534878 -0.15608476 -0.15881047 -0.15245596 -0.10456475 0.16153197 -0.15377195 -0.08480068 0.15224822 -0.14942317 -0.14969559 0.15263332 0.15656047 0.15393764 -0.15477419 0.1539647 -0.15366176 0.1530195 -0.15330918 0.16211751 0.15404832 0.15384012 -0.15652563 -0.15154868 0.15248978 0.1637047 -0.15294753 -0.1914781 -0.17336266 0.15338117 -0.16193002 -0.15694974 -0.16309741 -0.093160205 -0.15170339 -0.15303388 0.15226214 -0.026600141 0.15577158 -0.15284793 0.17461793 0.117262 0.14582871 0.1712674 0.14955369 -0.008974621 -0.08602233 -0.15403494 0.13800535 -0.1635331 -0.15687867 0.15632434 0.15512693 -0.16298208 -0.16321598 -0.12169463 -0.15366206 0.13737899 0.19337581 -0.11898398 0.15351258 -0.08305999 -0.15292391 0.1545994 0.15186922 0.16474442 0.15202507 0.1531249 -0.15223615 -0.15508024 -0.15504828 -0.16640955 -0.17685756 0.15411976 0.15360662 0.15484889 0.15222079 -0.1549452 -0.15802269 -0.044723596 -0.15338352 0.08844525 0.15837242 0.15615676 0.15361747 0.026948886 0.16214482 -0.032200903 -0.15851094 0.15398125 -0.16439293 0.15588236 -0.15446381 -0.10566426 -0.15677218 -0.15266483 0.15797308 -0.17224793 -0.12519433 -0.15808116 -0.15369377 -0.15486291
h -0.15501018 -0.16254175 0.12307927 -0.1213485 0.15852663 0.1580767 0.09156065 -0.15961564 -0.15930346 0.121858485 -0.08867329 -0.15767974 0.17216235 0.16076575 0.157375 -0.16213973 -0.12260947 -0.15720761 -0.15864551 0.15863046 0.16060339 0.15839611 -0.17266494 0.15550365 -0.15781066 0.1630096 -0.15546504 0.17000392 -0.15843366 -0.15840888 0.16669875 -0.15420161 -0.11977765 0.15785338 -0.1587247 0.15670292 0.16405569 0.16065931 0.16380166 0.15920459 -0.1609931 0.15930802 0.16395956 -0.16084665 -0.1572235 0.15682882 0.17636019 -0.16090621 -0.16237892 -0.096012995 0.11368795 -0.15767634 0.07624821 -0.15461135 -0.13453583 0.12694044 0.15750283 0.16219407 -0.12517782 0.15872839 -0.16474196 -0.15736207 0.15783137 -0.1620059 0.15895998 0.16116968 -0.1624348 0.15771747 -0.16371563 -0.15928021 0.16829367 0.16021094 -0.15794392 -0.117720775 -0.15858394 0.15850005 0.1587752 0.16193102 0.109133095 -0.1605384 -0.15929325 -0.16174181 0.16991578 -0.16118404 -0.15792549 0.15966487 -0.15959679 0.15664725 -0.16527927 0.15584546 -0.15894212 -0.15560164 0.15605178 -0.1136181 0.15676324 -0.16012543 0.16475067 -0.15945636 -0.15825522 -0.15590708 -0.16024867 0.16236693 -0.15621097 0.15730385 0.08521943 0.16285545 -0.15797302 -0.16512221 0.16345233 0.15908226 -0.16015202 0.16019964 -0.15952924 0.123854406 -0.15997006 0.16562603 0.0914621 -0.15936612 0.1616139 0.15646757 -0.15853643 -0.16904283 -0.15503332 0.15946177 0.13190633 0.121411234 -0.15893734 0.021400226 0.15762357 0.16280384 -0.1573074 -0.16925775 -0.1361636 -0.17191125 0.15436228 0.20722261 -0.15816319 0.1590122 -0.15910226 0.118903086 0.124183856 0.15807705 0.1694047 -0.16131485 -0.12230944 0.15769748 0.15771852 -0.15981463 -0.15781042 0.1573703 -0.16356799 0.16156021 -0.12864058 -0.15897518 0.1599151 -0.15696034 -0.15950057 -0.15800408 0.164078 -0.109766684 0.12144877 -0.15748295 -0.12226843 0.15771571 0.16202258 -0.16975567 -0.15800524 -0.15533264 0.14823249 -0.15779887 -0.17733257 -0.11862055 -0.16600879 0.15909094 -0.15584303 -0.16112769 -0.15461263 -0.15992218 -0.113993205 0.051142607 0.1552885 -0.12055387 -0.15439788 0.16216864 -0.15886734 -0.15808396 0.12657261 -0.1566734 0.15950063 0.17688987 -0.16036472 -0.17813803 -0.07787358 -0.13689482 0.16088128 0.16952763 -0.15938984 0.15798318 -0.16016147 -0.112978704 -0.15984198 0.15994231 -0.16274217 0.11509309 -0.16150892 -0.15939987 0.16695972 0.159081 0.16025577 0.15563694 0.16030045 -0.15775418 -0.16555 -0.16384546 -0.1600349 -0.16012903 -0.10659773 -0.1806552 -0.1535671 0.15872583 -0.16339312 -0.15820512 -0.15397869 0.16082339 -0.1585229 -0.15760238 -0.12620911 -0.15779668 0.15669169 -0.15860069 -0.16778149 0.17009151 -0.16153339 -0.008482008 0.10639383 -0.15802115 -0.15870844 -0.08611574 -0.15437561 -0.15846016 -0.15915036 -0.17656142 -0.16116847 0.16169299 -0.16031745 0.10462346 0.16186196 -0.16247433 -0.13784955 0.11885448 -0.15737651 -0.15831281 -0.15692656 -0.16044874 0.16688792 0.15766594 -0.10949506 0.15842544 -0.098109506 -0.122422755 0.16352583 0.15971547 -0.18813525 0.15667737 0.15954417 -0.16504869 0.15774873 -0.15774274 0.17286947 -0.16304772 -0.16066003 -0.1519174 0.16048238 0.12554207 0.16399796 0.15851225 -0.16673608 -0.07223242 -0.16116603 -0.077300645 0.16041829 0.15719278 0.121577576 -0.1645205 0.15400848 -0.15864092 0.12843595 -0.15714344 0.16145986 0.1619188 0.16009915 -0.158875 0.12680823 0.078451864 -0.1699437 0.08444522 0.15849054 -0.16284709 0.16797473 -0.15713738 -0.16755861 0.16319545 0.15822531 -0.1557499 0.15324044 0.086019374 0.12016338 -0.16155721 -0.17896196 -0.16131881 -0.15870662 -0.16900769 0.15911712 0.1596103 -0.15618804 -0.11956545 0.1591516 -0.15787193 -0.16354239 -0.15959409 -0.0986034 0.15798219 -0.16400033 -0.15837808 0.1599607 -0.098093025 -0.15727998 0.15859395 -0.18031883 -0.16148794 0.15825617 -0.16123039 0.15602107 0.16772735 0.1592028 0.1591511 0.15839651 0.1583968 -0.15832226 -0.16057503 -0.16230963 0.15875332 0.15910791 0.16049972 0.15945464 0.15838258 -0.16214353 -0.16498946 0.1696516 -0.12386252 0.15759595 0.15896858 0.15749633 0.15092815 0.17319573 -0.16292518 0.16822667 -0.15573564 -0.16018496 0.087026924 -0.09880117 -0.11780464 0.15708555 -0.15877235 -0.16445054 0.15866221 0.16353184 -0.123847365 -0.16117115 -0.15686981 -0.15762827 -0.15948184 -0.15692037 -0.15774871 -0.13451503 -0.16990727 0.159428 -0.15944554 0.15822686 0.16773933 0.09944357 -0.12441378 0.15962903 -0.15926284 0.15879382 -0.17038727 0.06836868 -0.16088954 -0.15872131 -0.1575988 -0.16847472 0.15979853 -0.07527063 -0.15921098 0.15516311 -0.12161171 -0.16141644 -0.1596633 -0.08882912 -0.1621174 -0.15673472 -0.15553536 0.0546961 0.16284792 -0.15960515 0.043866612 0.15731747 -0.16462088 -0.13606787 0.15791833 0.15917559 0.14550048 -0.15887575 0.15400048 -0.15953234 0.15760224 -0.1592605 0.16755022 0.15916447 0.15981421 -0.15954962 3.4758104e-05 0.15810472 0.16145077 -0.15704277 -0.1527026 -0.17974105 0.15952986 -0.16501683 -0.16306642 -0.16289823 -0.12707682 -0.15655817 -0.16076244 0.1548342 -0.12136826 0.15965249 -0.16071525 0.17326659 -0.08296484 0.0031524182 0.16884287 0.1595899 0.12318663 0.10971963 -0.15919733 0.13392453 -0.14306687 -0.16393243 0.1620499 0.16054365 -0.16736314 -0.17206804 0.096414864 -0.15867805 -0.03164135 0.15989403 0.093976 0.15991797 -0.09103442 -0.15762326 0.15846145 0.15892303 0.16253863 0.15814057 0.15891567 -0.16040179 -0.15517588 -0.16307686 -0.16479623 -0.16231593 0.16027172 0.15786636 0.16114308 0.15882711 -0.1641622 -0.16824909 -0.12623368 -0.15827508 -0.09229815 0.15998517 0.15336044 0.15903988 0.121200696 0.167056 0.112920396 -0.16343546 0.15921497 -0.16448036 0.16187243 -0.15855971 -0.13379377 -0.14599583 -0.1587824 0.16103376 -0.16491841 0.0935836 -0.17586146 -0.15918794 -0.15816544
i -0.16203223 -0.16128564 0.12096583 -0.120759115 0.1584494 0.16046344 0.082907096 -0.16269839 -0.16015323 0.11905156 -0.10595029 -0.16919845 0.17371133 0.16252165 0.15832296 -0.16513363 -0.118437074 -0.1623904 -0.15943897 0.15944096 0.19235325 0.15901059 -0.17631437 0.16624407 -0.1580506 0.16367935 -0.16158712 0.17970166 -0.15789005 -0.1591052 0.16857572 -0.16037337 -0.11937576 0.15948842 -0.16347711 0.16027081 0.2144173 0.16012162 0.16533084 0.1608868 -0.16248699 0.16265105 0.17313574 -0.16303132 -0.15801983 0.15803733 0.17752832 -0.16266352 -0.16107816 -0.08585258 0.118370235 -0.16008507 0.08012064 -0.16094637 -0.13464542 0.12676378 0.16755179 0.1635828 -0.12152378 0.15918112 -0.21828008 -0.1579124 0.15864356 -0.16303176 0.1586408 0.11385769 -0.16237687 0.16248392 -0.16748287 -0.15943511 0.17101534 0.1596426 -0.15818064 -0.1138144 -0.16016398 0.159556 0.15933725 0.15971793 0.10837321 -0.16197164 -0.16046034 -0.16257651 0.16255262 -0.16272923 -0.15901507 0.16019161 -0.15897875 0.15901536 -0.03421477 0.16139528 -0.15971728 -0.16174649 0.15911786 -0.109584756 0.1613975 -0.16239074 0.16722256 -0.16138832 -0.15934715 -0.1623064 -0.15974738 0.17334883 -0.16463435 0.15962514 0.09122445 0.16470836 -0.15810212 -0.17501822 0.1612189 0.16046119 -0.15936898 0.16712552 -0.16019943 0.12142741 -0.15972035 0.16958345 0.08251942 -0.1655732 0.16235971 0.16133693 -0.15778603 -0.17249523 -0.15982354 0.16385348 0.13179585 0.12041889 -0.16882725 0.092842475 0.15853937 0.16792217 -0.16165994 -0.17362952 -0.14433473 -0.17711419 0.15916228 0.21344405 -0.16052797 0.16152859 -0.16021305 0.11703329 0.12310004 0.15782528 0.16505466 -0.16508272 -0.12032015 0.15949914 0.1590691 -0.16103576 -0.15877661 0.15868966 -0.1643105 0.16217189 -0.1272782 -0.1600395 0.16403662 -0.15900315 -0.16030467 -0.15786351 0.16233627 -0.10723236 0.11966617 -0.16162722 -0.1219112 0.16851126 0.16096765 -0.12589447 -0.15957639 -0.16134454 0.15113589 -0.15881522 -0.21312754 -0.124204375 -0.17560811 0.15875804 -0.1658048 -0.067564994 -0.15942201 -0.16622503 -0.12027011 0.089166366 0.16125365 -0.114912756 -0.16058199 0.16535875 -0.15996104 -0.1658977 0.12273244 -0.16315883 0.16064768 0.17832448 -0.16185503 -0.17572717 -0.08645861 -0.13877586 0.16254914 0.17534412 -0.16038875 0.15766732 -0.15955748 -0.12438207 -0.16173749 0.16507408 -0.16216826 0.17329416 -0.16312516 -0.16031891 0.20333317 0.16070336 0.1618408 0.15952122 0.16063882 -0.15729912 -0.18304543 -0.16400519 -0.16036803 -0.1606465 -0.26679212 -0.20456779 -0.16487768 0.16074467 -0.16612129 -0.15786366 -0.16029444 0.16102523 -0.16003668 -0.15825708 -0.122941494 -0.15850918 0.16158977 -0.15954417 -0.16818479 0.17347886 -0.16572748 -0.09108642 0.09904142 -0.1591011 -0.1575202 -0.0915253 -0.16157691 -0.15899563 -0.16141002 -0.17999344 -0.16172233 0.16502601 -0.16113047 0.11100648 0.17340381 -0.16535729 0.038521446 0.11842677 -0.15871534 -0.15759645 -0.15827227 -0.16260238 0.16341569 0.15912051 -0.11548516 0.15926588 -0.08140282 -0.12012278 0.18478024 0.16189623 -0.20939447 0.16175295 0.1610992 -0.17089097 0.15901794 -0.15751354 0.17688963 -0.16323669 -0.16151284 -0.16369472 0.16128927 0.12746282 0.16817144 0.1580017 -0.17106673 -0.08122835 -0.1613475 -0.07777785 0.16438644 0.15896687 0.12166282 -0.16434976 0.1612012 -0.15808356 0.12756363 -0.15999265 0.051913045 0.16162997 0.16125248 -0.15929408 0.13994059 0.08298655 -0.18775196 0.11675987 0.15989774 -0.16498454 0.17431603 -0.16086972 -0.1098519 0.16372469 -0.03372679 -0.16587646 0.17297411 0.088691935 0.12081061 -0.16435121 -0.19632198 -0.16747136 -0.15915857 -0.19012591 0.16022786 0.15896623 -0.16260041 -0.11600906 0.15864319 -0.15890394 -0.16402353 -0.1608444 -0.098681755 0.16030076 -0.16309628 -0.15948668 0.1613538 -0.09458196 -0.1583917 0.15826172 -0.17992118 -0.2053109 0.15881993 -0.16242345 0.1704024 0.16819486 0.1613478 0.15886994 0.15944913 0.15750581 -0.15907879 -0.16220213 -0.16807742 0.1593181 0.15848319 0.16049324 0.16176657 0.15895316 -0.1656027 -0.1638216 0.16728374 -0.12627287 0.15793443 0.1710894 0.15837117 0.18059273 0.21164772 -0.16050938 0.17709334 -0.16037819 -0.16232717 0.084548995 -0.10096844 -0.12052613 0.15876345 -0.15864515 -0.1637355 0.16070488 0.16461733 -0.12931894 -0.16409458 -0.15887494 -0.15910482 -0.16287823 -0.1582171 -0.1590013 -0.14226122 -0.17925729 0.1592141 -0.16212693 0.1595114 0.17743178 0.0970118 -0.12310411 0.15934668 -0.16031444 0.15911584 -0.19302812 0.09989469 -0.16181779 -0.16298519 -0.1587821 -0.16583368 0.15981844 -0.0879899 -0.15947941 0.16615163 -0.120401405 -0.16296373 -0.16149952 -0.10075963 -0.16075906 -0.16378027 -0.16193433 0.09585241 0.17407675 -0.15983588 0.09996909 0.15939781 -0.16779742 -0.14569624 0.15883856 0.1640243 0.14857894 -0.15860802 0.16068341 -0.1599854 0.15740651 -0.16127919 0.17799044 0.15914091 0.16117334 -0.16183308 0.017274244 0.1597354 0.16365641 -0.15839182 -0.19536602 -0.18514134 0.1609987 -0.15608035 -0.16312015 -0.16164836 -0.1269734 -0.15989113 -0.16165797 0.16095482 -0.12225139 0.15844707 -0.1619898 0.1861651 -0.09026707 -0.049811907 0.172344 0.16431537 0.12123098 0.10552481 -0.16123362 0.13482763 -0.1467987 -0.16787048 0.16435614 0.1653374 -0.20759654 -0.1792021 0.09472713 -0.15834488 -0.07338122 0.16211522 0.092342556 0.15979438 0.08133143 -0.15937078 0.15965691 0.15849972 0.16512157 0.15896924 0.1596916 -0.16118547 -0.16001393 -0.16500746 -0.16624473 -0.1712541 0.16065213 0.1596099 0.16026856 0.15912099 -0.17302693 -0.1670386 -0.122351974 -0.15951829 -0.10048498 0.1606625 0.1674894 0.16017592 0.12099467 0.19566354 0.11841254 -0.17198913 0.15984093 -0.1951672 0.16293217 -0.15894428 -0.13181797 -0.14967948 -0.16084978 0.16431257 -0.16775666 0.0869456 -0.18129714 -0.15950386 -0.16416876
s -0.16382743 -0.16259651 -0.06527124 0.07452563 0.16083932 0.16023563 -0.12127311 -0.16044894 -0.16003631 -0.07752143 0.09646638 -0.16558503 0.18818416 0.16271679 0.15988602 -0.18280116 0.081005275 -0.16458255 -0.16150239 0.16120096 0.17445636 0.15945013 -0.21598834 0.16412744 -0.16117413 0.1617828 -0.16390543 0.19419464 -0.16030262 -0.16104996 0.17587641 -0.1610587 0.08282689 0.15958694 -0.16239333 0.18118201 0.17516911 0.16235012 0.17058027 0.16225523 -0.16278824 0.16302523 0.16550037 -0.15961696 -0.16078572 0.1602714 0.17062305 -0.16198125 -0.16301216 0.12041212 -0.084139675 -0.16162966 -0.12219313 -0.1606762 0.014218059 -0.062150054 0.16323262 0.16165331 0.06254767 0.16109714 -0.19755203 -0.15752117 0.15916258 -0.15971856 0.1586021 0.15915689 -0.16848367 0.16254382 -0.15951766 -0.16205217 0.16515447 0.1612818 -0.1605027 0.0936554 -0.16314147 0.16175178 0.16052829 0.16023865 -0.093294054 -0.15927683 -0.158424 -0.1617691 0.16731001 -0.16574714 -0.16083774 0.1616202 -0.16103923 0.15842551 -0.15413785 0.16015805 -0.16174112 -0.16206098 0.16068251 0.09733762 0.16205753 -0.16144447 0.16616166 -0.16167487 -0.15924764 -0.15968823 -0.1609325 0.16389151 -0.16240853 0.16072336 -0.11708299 0.1735763 -0.16095322 -0.16718474 0.16326557 0.16220888 -0.16234185 0.16486584 -0.15961318 -0.06890985 -0.16149665 0.16523753 -0.12191095 -0.16825101 0.16866677 0.16081081 -0.16085953 -0.17428504 -0.16303737 0.16780265 0.16812381 -0.07622111 -0.168462 -0.09623725 0.15935567 0.16341808 -0.16192934 -0.19003347 -0.16371104 -0.19025002 0.15956213 0.20413797 -0.16050483 0.16348861 -0.16133939 -0.09062891 -0.07078265 0.16089757 0.16222894 -0.16170612 0.07026189 0.15972286 0.1586178 -0.16159382 -0.15903187 0.15864357 -0.16180773 0.15981017 -0.06495827 -0.16419744 0.16021857 -0.16088992 -0.1614613 -0.15999894 0.16347234 0.09384075 -0.07742122 -0.1631553 0.070213914 0.16455758 0.16248137 -0.15691417 -0.1603025 -0.16102198 0.17345797 -0.16001035 -0.17670399 0.024138277 -0.16674377 0.16138306 -0.16346656 -0.1544982 -0.15990621 -0.1685463 0.078296 -0.11070818 0.1605859 0.083406374 -0.16218373 0.16690685 -0.16009054 -0.16270599 -0.0719255 -0.16322413 0.1597018 0.22205026 -0.16120577 -0.16290691 0.12038622 -0.1603423 0.16273342 0.16433081 -0.15881138 0.16022699 -0.15913767 0.03808429 -0.16081798 0.16659008 -0.1630302 0.16528334 -0.16140874 -0.1604243 0.17498943 0.15986274 0.16067621 0.16159362 0.15804139 -0.1600934 -0.18135777 -0.16230473 -0.16191825 -0.15857136 -0.20850468 -0.18519479 -0.16351683 0.1611302 -0.16590466 -0.16002646 -0.16073352 0.16555138 -0.16141677 -0.16039337 0.06851701 -0.1614078 0.1624976 -0.16287939 -0.16701329 0.1821315 -0.18314049 0.12324127 -0.10897937 -0.16018818 -0.16016454 0.11448109 -0.16205391 -0.15932822 -0.16213958 -0.17408611 -0.16055521 0.16385542 -0.1613829 -0.0950291 0.16441116 -0.1636845 -0.13865937 -0.08523415 -0.15919617 -0.16008118 -0.15976359 -0.16631411 0.16316749 0.16065435 0.10112162 0.16021937 -0.15899375 0.07214513 0.16869146 0.15991935 -0.16363265 0.16309294 0.15916257 -0.16606665 0.1611018 -0.15894757 0.16723311 -0.15850997 -0.1671827 -0.16398571 0.16152237 0.08760947 0.16766487 0.15985574 -0.16032404 0.122326985 -0.16057096 0.12350207 0.16200006 0.16079779 -0.07213376 -0.16223717 0.17696504 -0.16236009 -0.022950994 -0.16200995 0.15469906 0.16178805 0.16211766 -0.16070287 0.15895171 -0.1228262 -0.17255497 0.040255006 0.16273548 -0.1624369 0.16680355 -0.1589958 -0.15993275 0.15812092 0.13832627 -0.16462974 0.16471478 -0.11809131 -0.072315246 -0.16612524 -0.18191358 -0.16841826 -0.15921508 -0.17436801 0.16146669 0.16098094 -0.16474053 0.08520732 0.16122468 -0.1609746 -0.16012785 -0.16288415 0.10756381 0.16263111 -0.1639596 -0.16038904 0.16052116 0.11359806 -0.16106191 0.16216938 -0.17450698 -0.17447749 0.15944831 -0.16036089 0.1657123 0.17267974 0.16340493 0.1587266 0.16116937 0.15799423 -0.16067943 -0.16030331 -0.16522497 0.1618326 0.15880254 0.16289975 0.16140383 0.16027647 -0.16158679 -0.16263431 0.16121194 0.06619029 0.15986334 0.16698737 0.15876967 0.17065355 0.17634001 -0.16358265 0.1981288 -0.16254371 -0.16652432 -0.11984806 0.105233446 0.059596293 0.15832527 -0.16119213 -0.1647328 0.16153091 0.17079696 -0.17038926 -0.16147304 -0.160846 -0.15974921 -0.16065338 -0.15978496 -0.16034961 -0.16187938 -0.16689545 0.1613391 -0.16590272 0.16057742 0.17643055 -0.112406276 0.045564394 0.16124701 -0.16153412 0.15846516 -0.17142779 -0.09955951 -0.16191708 -0.16265264 -0.16022186 -0.1643685 0.16551489 0.11749056 -0.16191621 0.16459095 0.07724229 -0.1644004 -0.1606578 0.09936965 -0.16266757 -0.15809597 -0.16314287 -0.10976785 0.16559003 -0.16162346 -0.08944264 0.15897763 -0.16422527 -0.16898245 0.16069773 0.16388847 0.16901629 -0.16059677 0.16049105 -0.16048668 0.16023982 -0.16174941 0.16691874 0.15997459 0.16296901 -0.15978384 -0.14654028 0.1590106 0.16854145 -0.16068375 -0.20850411 -0.1739351 0.16128846 -0.16316105 -0.16081735 -0.16185293 -0.06212485 -0.15901272 -0.16082308 0.16087504 0.0650138 0.1616598 -0.16191933 0.18300693 0.11608384 0.13348234 0.17868428 0.16769493 -0.07907013 -0.105958834 -0.16425619 0.15887919 -0.18154903 -0.16290715 0.16439106 0.16169688 -0.17534389 -0.1813887 -0.11277199 -0.16099334 0.124840334 0.15356404 -0.112879254 0.16159679 -0.10220374 -0.15885499 0.16072258 0.1619591 0.17215392 0.15997206 0.16057813 -0.16126369 -0.16087574 -0.16294661 -0.16430274 -0.18728328 0.16280483 0.1593331 0.16382234 0.16086899 -0.16577916 -0.16401266 0.067504354 -0.15915732 0.102617174 0.16281466 0.16416247 0.1607813 -0.071191646 0.17130157 -0.08790469 -0.17639549 0.1622005 -0.17200164 0.16363145 -0.15978746 0.026001044 -0.17076722 -0.1607512 0.1650871 -0.18064171 -0.1191124 -0.16649716 -0.16120057 -0.16064934
m -0.15926985 -0.15970343 -0.008482413 -0.0024356463 0.15393043 0.15538462 -0.115434036 -0.15458427 -0.15516606 -0.012268753 0.091981314 -0.15812066 0.20244758 0.15665087 0.15700035 -0.1977474 0.025985576 -0.15772475 -0.15690064 0.15450038 0.16209787 0.1560939 -0.18538958 0.15734018 -0.15669885 0.1560793 -0.15888873 0.17284779 -0.15340246 -0.15619981 0.16497102 -0.1540575 0.017156053 0.15562207 -0.15747567 0.19170031 0.16550781 0.15724637 0.16971569 0.15703064 -0.15633167 0.15721346 0.15818334 -0.1562282 -0.15528552 0.15482588 0.1721602 -0.15590191 -0.15611078 0.115790576 -0.03183771 -0.15643464 -0.122229934 -0.15880808 -0.104352385 0.029046215 0.15824094 0.15627131 0.0074730273 0.15615176 -0.21053086 -0.15593532 0.15332365 -0.15466812 0.15448771 0.14766963 -0.16308084 0.15697438 -0.15920846 -0.15490068 0.15629739 0.15611169 -0.15631522 0.06560826 -0.15802102 0.1547204 0.15547842 0.15717302 -0.08102181 -0.15876849 -0.15372527 -0.15187015 0.1609315 -0.16123109 -0.15505847 0.15387975 -0.15618059 0.1544702 -0.1444508 0.1556663 -0.15490589 -0.1575724 0.15431377 0.06989913 0.15693237 -0.15731987 0.15731125 -0.15470783 -0.15592752 -0.15804838 -0.15617518 0.16201076 -0.15532717 0.15644331 -0.1092824 0.17022437 -0.15549992 -0.1624799 0.1567806 0.15573737 -0.15431748 0.1578661 -0.15621603 0.013129046 -0.15502238 0.16128492 -0.11550046 -0.16525686 0.16583097 0.15858212 -0.15548079 -0.16652356 -0.15705313 0.16472502 0.078912646 -0.0077757346 -0.16758582 -0.101381466 0.15320416 0.15850192 -0.15544827 -0.17445295 -0.10197666 -0.1902458 0.15600874 0.20235229 -0.15423611 0.15669826 -0.15770523 -0.031985957 0.0012690051 0.15400344 0.15674752 -0.15774113 -0.0015240406 0.15571102 0.15571925 -0.1569446 -0.15523362 0.15571551 -0.15668237 0.15872836 -0.055422913 -0.15961064 0.1575809 -0.15342292 -0.15400578 -0.15477358 0.15576491 0.0856729 -0.009478437 -0.16105142 -0.015537908 0.15812124 0.15674438 -0.15345542 -0.1539904 -0.15697624 0.16543548 -0.15629426 -0.16198084 -0.008934055 -0.16413705 0.15937498 -0.15907237 -0.14834656 -0.15503715 -0.16447279 0.0131716775 -0.118887186 0.15650639 0.055846404 -0.15434788 0.15879782 -0.1565858 -0.15497285 -0.010637858 -0.15823661 0.15444797 0.18667635 -0.15519144 -0.16425194 0.11397963 -0.107410945 0.15714708 0.15984541 -0.15606712 0.15580663 -0.15674962 -0.017328938 -0.15640949 0.16056937 -0.15950535 0.16079353 -0.15744556 -0.15646888 0.1599151 0.1544596 0.15658551 0.1573162 0.15622723 -0.15344398 -0.17578831 -0.15655915 -0.15626948 -0.15671541 -0.21447787 -0.17697695 -0.15799914 0.15693124 -0.15838276 -0.1548185 -0.15641128 0.16119184 -0.15822631 -0.15406972 -0.005412217 -0.15537517 0.15706272 -0.15735652 -0.16657041 0.18761174 -0.20282492 0.10278332 -0.076869935 -0.15705536 -0.15335189 0.11291508 -0.15731885 -0.15458123 -0.15551637 -0.17252703 -0.15858816 0.15871735 -0.15602235 -0.06452577 0.1612805 -0.15803981 -0.13499689 -0.02282237 -0.15445589 -0.15395379 -0.15433551 -0.16361512 0.15898451 0.15354185 0.04054418 0.15497299 -0.095528245 0.0027515902 0.16004373 0.15596944 -0.16083829 0.15647453 0.15459493 -0.15604693 0.15686128 -0.15548792 0.16371316 -0.1582477 -0.16350953 -0.15872647 0.15707546 0.03532728 0.1625657 0.15549347 -0.15923752 0.11675783 -0.15821636 0.11913844 0.15655114 0.15614161 0.00593719 -0.15610942 0.1851501 -0.15596421 0.059847947 -0.1567023 0.14592661 0.15759297 0.15509738 -0.1555265 0.107638165 -0.116144985 -0.15990433 0.027642105 0.15658502 -0.15713702 0.16197017 -0.15656458 -0.15055387 0.16054533 0.13170366 -0.15889744 0.15701878 -0.11247365 -0.0047384356 -0.1552073 -0.1809879 -0.16185145 -0.15482907 -0.1626535 0.15419875 0.15519464 -0.16157022 0.042127077 0.15468715 -0.1568831 -0.1567821 -0.1558595 0.10661304 0.15583067 -0.15820663 -0.15414003 0.15759884 0.1058544 -0.15625192 0.15448032 -0.16905661 -0.16216178 0.15657037 -0.15739542 0.16280754 0.17451537 0.15914658 0.15473229 0.15601073 0.15270862 -0.15659297 -0.15513481 -0.15646376 0.15507214 0.1558809 0.15481745 0.15743437 0.15488291 -0.15483394 -0.15717554 0.15415266 -0.023357365 0.15574847 0.15843278 0.15635902 0.16571467 0.16666089 -0.15563871 0.21233562 -0.15666518 -0.16546741 -0.11640135 0.09941668 -0.003402121 0.15380478 -0.1542325 -0.15991038 0.15470819 0.1709726 0.014102819 -0.15593639 -0.15398818 -0.15370856 -0.15661171 -0.15543583 -0.15647912 -0.13614821 -0.16034412 0.15583399 -0.16468899 0.15509205 0.16086273 -0.107037954 -0.025785195 0.15502656 -0.15583333 0.15602724 -0.15821928 -0.10670045 -0.15591975 -0.1544752 -0.1537861 -0.15886778 0.16035248 0.11544208 -0.1553246 0.15990923 0.008559757 -0.15680315 -0.15635198 0.096862555 -0.15611304 -0.15700974 -0.15883721 -0.10858157 0.16166264 -0.157669 -0.10403804 0.15358002 -0.15597764 -0.123092055 0.15442838 0.16034836 0.15671736 -0.15764964 0.1548916 -0.15502532 0.15350556 -0.15686272 0.15760314 0.15505426 0.15581374 -0.15849419 -0.13713269 0.15549827 0.16771455 -0.15588772 -0.2080416 -0.1724261 0.15775761 -0.15565787 -0.15562837 -0.15966652 -0.048628706 -0.15682931 -0.15465714 0.15619539 -0.00987701 0.15508729 -0.15690126 0.18630555 0.109308235 0.12844674 0.18934047 0.16163822 -0.01905018 -0.09454985 -0.15859425 0.085828096 -0.15417458 -0.15609424 0.15706961 0.15811245 -0.16087793 -0.18378273 -0.1090574 -0.15712428 0.12014456 0.1792126 -0.1092248 0.15669669 -0.11016307 -0.15504102 0.15585624 0.1577257 0.16274802 0.15384181 0.15533186 -0.15478317 -0.15585457 -0.1561521 -0.16483524 -0.2078101 0.15691894 0.15461464 0.158265 0.15657079 -0.16127582 -0.16178763 -0.0037842894 -0.15681899 0.097710654 0.16019394 0.15911101 0.1566297 -0.0043901633 0.1578557 -0.034389094 -0.17661701 0.15619373 -0.16891694 0.15955183 -0.15524377 -0.07876444 -0.15614519 -0.15552431 0.1625555 -0.17849565 -0.114166245 -0.16571486 -0.15550731 -0.15632746
o -0.15604463 -0.16247928 0.11821324 -0.1164812 0.15140636 0.15332775 0.055908144 -0.15583372 -0.15451881 0.11311501 -0.088290386 -0.16427693 0.16236837 0.15828925 0.15383095 -0.15716149 -0.11107731 -0.15697682 -0.15305582 0.15345259 0.18132679 0.15433495 -0.17334884 0.16433963 -0.15252486 0.15511274 -0.15392655 0.1750719 -0.15114158 -0.15463267 0.172843 -0.1554878 -0.11373681 0.15306865 -0.16364238 0.15460323 0.196198 0.15668277 0.15626836 0.1544654 -0.15743825 0.15638067 0.16897972 -0.15586455 -0.15265785 0.15260719 0.16593222 -0.15615685 -0.15612178 -0.065608025 0.11139054 -0.15218624 0.0080120955 -0.15437853 -0.1342096 0.118502855 0.1646551 0.15774928 -0.12095096 0.15172218 -0.18885407 -0.15238072 0.15323178 -0.15356568 0.15197457 0.1831268 -0.15532006 0.15594393 -0.15796605 -0.1547538 0.16675442 0.15296924 -0.15257904 -0.10209825 -0.1523219 0.15225582 0.15296362 0.15346436 0.098168835 -0.15683274 -0.15365109 -0.15606998 0.15979849 -0.15570319 -0.15128012 0.15314852 -0.15279758 0.15160532 -0.19316213 0.15516853 -0.15279892 -0.15389672 0.1532175 -0.09857607 0.16001976 -0.15557092 0.16485646 -0.15722367 -0.15281558 -0.15715225 -0.15411638 0.16275266 -0.15902956 0.15358111 0.071483016 0.15700479 -0.1524341 -0.16285852 0.1589421 0.1535431 -0.15489654 0.15767369 -0.15348397 0.11737102 -0.15310664 0.1569085 0.056828495 -0.15962979 0.1546853 0.15605812 -0.15205936 -0.16185625 -0.15455371 0.1564067 0.15022714 0.11319832 -0.16857801 0.08164808 0.15461743 0.16205974 -0.15652473 -0.17585687 -0.15670939 -0.1708572 0.15327492 0.23334062 -0.15419234 0.15479589 -0.1541784 0.1101334 0.11825632 0.15276399 0.16045706 -0.16010183 -0.11646719 0.15223101 0.1519539 -0.15343213 -0.15144125 0.15220845 -0.15259592 0.15393297 -0.14206961 -0.15476544 0.15533045 -0.15138656 -0.15372092 -0.15300721 0.15514436 -0.094114415 0.11244045 -0.15698661 -0.11934979 0.16688854 0.15592991 -0.19565791 -0.15265916 -0.15481013 0.15157379 -0.1518874 -0.1915779 -0.12741648 -0.1641083 0.15446427 -0.16085002 -0.1863506 -0.15370928 -0.15885822 -0.11603292 0.053033754 0.15585688 -0.10557728 -0.15347305 0.15841594 -0.15415557 -0.15729012 0.11204798 -0.15609357 0.15317817 0.18138409 -0.15467225 -0.17367436 -0.051708598 -0.14715372 0.15358604 0.16245362 -0.15371731 0.15222615 -0.15489095 -0.1308359 -0.15564834 0.15628278 -0.15546687 0.19827928 -0.1578808 -0.15521896 0.18580067 0.15231444 0.15522237 0.15591247 0.15583299 -0.15287295 -0.17866722 -0.15973696 -0.1533326 -0.15347172 -0.24664031 -0.19078363 -0.16457723 0.15402879 -0.16569163 -0.153105 -0.15430386 0.15385838 -0.15214966 -0.15150535 -0.11817693 -0.15202878 0.15545656 -0.15484047 -0.16678348 0.16235511 -0.15813245 -0.04616521 0.020620085 -0.15331098 -0.15256153 -0.07527309 -0.15583587 -0.1526367 -0.15587594 -0.1791622 -0.15492326 0.15960447 -0.15528984 0.09878051 0.16594356 -0.15826544 -0.056631252 0.11051744 -0.15243213 -0.1522433 -0.15177555 -0.15440159 0.15989606 0.15188386 -0.10103284 0.15244018 -0.16791679 -0.11602641 0.1766108 0.15486681 -0.20599522 0.15574662 0.15404898 -0.16517605 0.15238409 -0.15297805 0.16947886 -0.16269931 -0.15510501 -0.16531241 0.15936546 0.14399762 0.16087607 0.15261635 -0.1634153 -0.037916806 -0.15467684 -0.049953945 0.15702558 0.15234713 0.11792419 -0.15419094 0.16080101 -0.15154104 0.13317192 -0.15314355 0.20172335 0.15475248 0.15444285 -0.1533642 0.15421395 0.021029545 -0.17580862 0.15441927 0.15381698 -0.15759721 0.16278423 -0.15591748 -0.19176161 0.16132244 0.094358005 -0.157552 0.17252079 0.061318528 0.11691315 -0.15695861 -0.17617358 -0.1591622 -0.15308091 -0.17371587 0.153317 0.15242572 -0.15583919 -0.1088189 0.1509874 -0.15240045 -0.15998091 -0.153543 -0.07240868 0.15388651 -0.15129177 -0.1517785 0.1541939 -0.06725439 -0.15155706 0.15335488 -0.18101905 -0.19248123 0.15325242 -0.15501082 0.16078405 0.16032131 0.15774825 0.15390517 0.15254675 0.152423 -0.15226668 -0.15556791 -0.16059315 0.15314901 0.15327944 0.15541287 0.15543789 0.15293615 -0.15925908 -0.15660259 0.19426076 -0.124583825 0.15203129 0.16897759 0.15146884 0.1787582 0.18807966 -0.15625852 0.1641236 -0.15412305 -0.15488252 0.051647335 -0.08579263 -0.12257417 0.15207648 -0.15168354 -0.1568085 0.15450896 0.15724584 -0.15611695 -0.1561231 -0.15249573 -0.15179445 -0.15578495 -0.15323944 -0.15192142 -0.15108408 -0.1707043 0.1529243 -0.15431762 0.15345615 0.18261807 0.070329316 -0.12455094 0.15254827 -0.15323666 0.15422505 -0.1747066 0.08568397 -0.15776414 -0.15690549 -0.15216927 -0.15406872 0.15475482 -0.022066014 -0.15307213 0.16581129 -0.11438145 -0.15752913 -0.15795685 -0.08272129 -0.1600155 -0.15768524 -0.15431094 0.07127782 0.16845979 -0.15399803 0.087118834 0.1527014 -0.1615194 -0.15392041 0.15191346 0.15751632 0.15078205 -0.15254366 0.15583555 -0.15325662 0.15297972 -0.15331829 0.18756802 0.15265416 0.15308669 -0.15516785 -0.15102383 0.154022 0.15606208 -0.15129964 -0.20261732 -0.17487827 0.15538336 -0.18451938 -0.15573084 -0.15971476 -0.14087823 -0.15431947 -0.15533304 0.15406035 -0.12076678 0.15316315 -0.1549949 0.17398962 -0.077221714 0.06745508 0.16224189 0.15859707 0.11668341 0.08891485 -0.1531606 0.15027022 -0.15583695 -0.16471927 0.15431899 0.15714397 -0.18871382 -0.16791555 0.07367203 -0.15148334 -0.034160044 0.16067874 0.074234866 0.15286651 0.04856832 -0.15264869 0.15269469 0.15308914 0.15940318 0.15285186 0.1526446 -0.15471077 -0.15514904 -0.15490615 -0.16309218 -0.16284144 0.15392573 0.15302067 0.15403646 0.15403305 -0.16738337 -0.15824516 -0.11797 -0.15300687 -0.079950795 0.15320757 0.16819394 0.15279649 0.11808004 0.19156766 0.1078843 -0.16050501 0.15253896 -0.18724406 0.15504919 -0.15263905 -0.13202223 -0.15078028 -0.15352978 0.16045162 -0.15946756 0.066507936 -0.17179275 -0.1546671 -0.1560835
g -0.15904462 -0.16345263 0.03161774 -0.012491836 0.15667203 0.15773937 -0.11684547 -0.15843476 -0.15880577 -0.0018436572 0.04306163 -0.16467156 0.17532799 0.15974043 0.15930706 -0.15671316 0.01041153 -0.16062889 -0.15793061 0.15677746 0.17117018 0.15960367 -0.20387264 0.16248493 -0.15810768 0.15970108 -0.15977073 0.18477307 -0.15532784 -0.15882802 0.19054703 -0.15899375 0.023655746 0.15784688 -0.16471379 0.15085818 0.16946895 0.16044761 0.17310971 0.1591386 -0.16108729 0.1577083 0.16032864 -0.15847208 -0.15542874 0.15598784 0.17460823 -0.1593427 -0.15578495 0.120894395 -0.014678736 -0.1563337 -0.12436319 -0.15933114 -0.07406102 0.026760852 0.16405545 0.158136 -0.034814153 0.15545431 -0.17771117 -0.15758541 0.15875737 -0.15935037 0.15607049 0.15378787 -0.16590486 0.15684576 -0.17227985 -0.15833682 0.17106554 0.15824652 -0.15667254 0.055938173 -0.15970376 0.1555444 0.15960148 0.15987805 -0.03603842 -0.16278203 -0.15728138 -0.16163737 0.16231862 -0.16504127 -0.15826547 0.15825272 -0.15866458 0.15705395 -0.1583125 0.16038066 -0.15783997 -0.1596926 0.1573299 0.06688842 0.16008328 -0.15938601 0.1632854 -0.15801616 -0.1570788 -0.16106588 -0.15848163 0.1715831 -0.16204067 0.16063623 -0.11360077 0.17362851 -0.15457022 -0.16963635 0.16126099 0.15880218 -0.15666242 0.16435094 -0.15791626 0.021158574 -0.15943556 0.16517492 -0.117980324 -0.17365725 0.16710967 0.15920128 -0.15879978 -0.16300854 -0.15942529 0.16619697 0.10027623 0.002574181 -0.17349625 -0.026275894 0.15778099 0.15812215 -0.15831465 -0.20602988 -0.11778923 -0.16934177 0.15831852 0.20508654 -0.15638974 0.15900852 -0.16139644 -0.057113275 0.012181529 0.1555205 0.17226186 -0.16149887 -0.01607973 0.15744343 0.1583081 -0.15569343 -0.1584273 0.15646558 -0.1597624 0.16155043 -0.09711898 -0.16235712 0.16243893 -0.15741971 -0.15736662 -0.15693404 0.16092029 0.042825226 0.00045561837 -0.16322324 -0.019484814 0.16558872 0.15751529 -0.155565 -0.15770644 -0.16042218 0.13623685 -0.15747865 -0.16963886 -0.009003042 -0.17365913 0.15851648 -0.16386552 -0.14970906 -0.15772462 -0.16845328 -0.0035494172 -0.0943094 0.15660484 -0.00016605713 -0.15891491 0.16376969 -0.1600078 -0.16291286 0.02308373 -0.16293798 0.15656957 0.21220322 -0.15569374 -0.17598741 0.10999942 -0.115647696 0.1592291 0.16259302 -0.15573576 0.15839201 -0.15642671 -0.04924925 -0.15758607 0.16528706 -0.16182631 0.16364995 -0.15761608 -0.15886472 0.16818662 0.15688016 0.1588944 0.16045485 0.16348524 -0.15791461 -0.19171831 -0.1569325 -0.15826842 -0.16076097 -0.19583604 -0.17855482 -0.16317266 0.15774238 -0.15924609 -0.15932672 -0.15758024 0.16472755 -0.15691832 -0.15491043 -0.015132988 -0.15938145 0.1592979 -0.15823375 -0.18183191 0.18001027 -0.16019513 0.11624839 -0.06609536 -0.15956214 -0.15558268 0.10970895 -0.1600401 -0.15897788 -0.15748903 -0.18008988 -0.15921149 0.16292231 -0.15942684 -0.059897535 0.16715486 -0.1607436 -0.13469107 -0.034453318 -0.15942368 -0.15558137 -0.15628953 -0.16598094 0.16250211 0.15640053 0.07887999 0.15873733 -0.11176007 -0.0116289165 0.16255821 0.1593377 -0.1647352 0.15825689 0.15775847 -0.16260336 0.15725389 -0.15865569 0.16625598 -0.16867398 -0.16660778 -0.16161288 0.16242294 0.08840933 0.1632206 0.1545223 -0.16692711 0.11615916 -0.16046214 0.12301613 0.16135064 0.15618126 0.012022894 -0.16109617 0.14846945 -0.15617758 0.06797438 -0.15817785 0.15389577 0.16053675 0.15747884 -0.15644628 0.11433049 -0.11734527 -0.16998732 0.07750348 0.15808931 -0.15888287 0.16545103 -0.161467 -0.15801936 0.17267951 0.13473259 -0.16279322 0.16456747 -0.1132608 0.0117015 -0.1605113 -0.1829472 -0.16665898 -0.155982 -0.16897969 0.15676947 0.15880091 -0.1629938 0.017846968 0.1583319 -0.15818734 -0.16045143 -0.16313168 0.09006125 0.15813819 -0.16167437 -0.15698692 0.15661134 0.10040479 -0.15588404 0.15889047 -0.20617974 -0.16878317 0.15955253 -0.15984952 0.16725622 0.1720126 0.15990128 0.15807554 0.15735991 0.15770644 -0.15801549 -0.1555332 -0.16190206 0.15819086 0.15755859 0.16090493 0.15894942 0.15983349 -0.15678394 -0.15865134 0.15961869 -0.039151516 0.15653917 0.1653554 0.1564467 0.16762148 0.16706648 -0.1609249 0.16484505 -0.15872543 -0.16716757 -0.11682174 0.07951636 -0.03103654 0.15660897 -0.15760055 -0.16514586 0.15976296 0.17263623 -0.09811786 -0.16531615 -0.15765528 -0.15724993 -0.15898071 -0.15844285 -0.15895507 -0.122025855 -0.1668209 0.15773529 -0.166797 0.16002886 0.16977057 -0.100315884 -0.045184 0.15691416 -0.15747707 0.15871014 -0.16836253 -0.059605137 -0.15846443 -0.16069351 -0.15540968 -0.16102695 0.16496815 0.10895743 -0.15813805 0.1642815 0.003567147 -0.16160306 -0.15816252 0.052123036 -0.16006863 -0.16748798 -0.16162911 -0.09164904 0.15388757 -0.15862033 -0.043777574 0.15759924 -0.1592823 -0.12231546 0.15736562 0.16055728 0.13086192 -0.15612727 0.15864891 -0.15977941 0.15500173 -0.15722984 0.16176444 0.15683475 0.1609334 -0.15980032 -0.1504578 0.15756556 0.170456 -0.15780194 -0.17486937 -0.17151573 0.16016391 -0.16010283 -0.161643 -0.16936833 -0.058409046 -0.15655178 -0.16004586 0.15964566 -0.019663937 0.15972714 -0.15791614 0.1753011 0.1115226 0.13648129 0.17807336 0.16074911 -0.008902289 -0.081916004 -0.15826505 0.10936109 -0.13908154 -0.16409162 0.16164453 0.16008158 -0.16705887 -0.17238806 -0.103543766 -0.1585218 0.12553337 0.1725106 -0.094726145 0.15999106 -0.040698715 -0.15870689 0.16044323 0.15759648 0.17303783 0.15683599 0.15800448 -0.15847535 -0.15812638 -0.16083011 -0.17306443 -0.16582748 0.15884648 0.15913242 0.16206782 0.15930255 -0.1623629 -0.16337717 -0.02549731 -0.15641803 0.06785666 0.16412808 0.16154608 0.15783668 0.01845548 0.16861053 -0.03627442 -0.16986085 0.15806575 -0.17127277 0.15718837 -0.158745 -0.06590907 -0.13203517 -0.15851139 0.1671582 -0.17707793 -0.11478545 -0.16488433 -0.1563327 -0.1601185
t -0.15491423 -0.15480423 0.09589773 -0.09588598 0.15090315 0.15215959 -0.13441819 -0.15390253 -0.15143318 0.086088255 0.08611139 -0.16055016 0.17704679 0.15215127 0.1501972 -0.16557215 -0.071618244 -0.15444465 -0.15130833 0.15035987 0.165092 0.15014385 -0.18370375 0.15587036 -0.15127997 0.15213256 -0.15255491 0.17420176 -0.1508712 -0.15235195 0.17291798 -0.15261768 -0.07411809 0.15095311 -0.15536588 0.1662808 0.16511114 0.15282474 0.16357349 0.15301645 -0.15406387 0.15353884 0.15541302 -0.15109998 -0.15091714 0.15011254 0.15884261 -0.14930966 -0.15159091 0.13178763 0.05604986 -0.15071917 -0.13398638 -0.15324533 -0.1325643 0.111767694 0.15800041 0.15176305 -0.09707671 0.14947344 -0.18661813 -0.15078041 0.15079269 -0.15245555 0.15093331 0.15706839 -0.15988652 0.15315656 -0.15692422 -0.15279743 0.16208377 0.14998892 -0.15076104 -0.00025509903 -0.15449451 0.15052924 0.15078461 0.15311019 -0.05475495 -0.15505226 -0.1526605 -0.15773907 0.15676318 -0.15709752 -0.15051895 0.15210585 -0.15081112 0.15125386 -0.1630475 0.1524608 -0.15217891 -0.15294905 0.15211602 0.0496143 0.15352663 -0.15358211 0.15387492 -0.15302044 -0.15169273 -0.1556431 -0.14980227 0.15950581 -0.1548711 0.1519082 -0.12807035 0.16157243 -0.14896181 -0.16063982 0.1553627 0.15224081 -0.15010066 0.157045 -0.1518847 0.10322984 -0.15220813 0.1551037 -0.13351546 -0.1623374 0.15920739 0.1539898 -0.15014684 -0.15686816 -0.15416135 0.1578302 0.13676742 0.09087847 -0.16332349 -0.11247 0.15188144 0.15471841 -0.15263207 -0.18167141 -0.14567797 -0.17911805 0.15196812 0.21652706 -0.15299734 0.15325806 -0.15250532 0.039567415 0.10802494 0.15099512 0.15700853 -0.15582128 -0.09861827 0.1503254 0.15007728 -0.14969584 -0.15089792 0.15088665 -0.15504488 0.15348664 -0.12852456 -0.15291424 0.15513505 -0.15108134 -0.15194282 -0.1507118 0.15179971 0.07315988 0.08671716 -0.15337794 -0.10549646 0.16072857 0.15294802 -0.16171366 -0.14931324 -0.15311886 0.1580742 -0.15143481 -0.16355096 -0.08142168 -0.16072513 0.1527293 -0.15746963 -0.15592733 -0.15123752 -0.1604297 -0.08451684 -0.1300429 0.15274598 -0.014470708 -0.1502272 0.15234286 -0.15336539 -0.15497567 0.07144474 -0.1516887 0.15035307 0.18764488 -0.15131943 -0.16712199 0.13484514 -0.14326951 0.15231581 0.1585204 -0.15132819 0.14877151 -0.15164448 -0.115295924 -0.15166694 0.1555194 -0.14985621 0.16846386 -0.15299661 -0.15279628 0.1597834 0.15190595 0.1534613 0.15333872 0.15267946 -0.14971417 -0.17884494 -0.15137464 -0.15184598 -0.15260062 -0.18493074 -0.17411016 -0.15739773 0.15361561 -0.15535785 -0.15030475 -0.15255284 0.15582275 -0.15218605 -0.14945446 -0.08907365 -0.15146719 0.15334016 -0.1507253 -0.16660903 0.17256632 -0.17169635 0.13960543 0.043892685 -0.15031628 -0.15045528 0.12941508 -0.1527777 -0.150725 -0.15264845 -0.1691256 -0.15240479 0.15243633 -0.15066978 -0.03592543 0.16395468 -0.15377142 -0.15532175 0.05330231 -0.15041623 -0.14961666 -0.15134229 -0.15791324 0.15670536 0.15103137 5.0669838e-05 0.15141647 -0.14203379 -0.09847409 0.15813528 0.15206721 -0.16994052 0.1538804 0.1509106 -0.15950829 0.15096733 -0.14934096 0.160494 -0.15645988 -0.15897678 -0.1577544 0.1537644 0.12182717 0.14994164 0.1498971 -0.15800296 0.13698019 -0.15247777 0.13827638 0.15454696 0.14919579 0.104082815 -0.15700339 0.16538736 -0.14958991 0.12556697 -0.15226053 0.16642062 0.15371352 0.15065028 -0.15112758 0.1418515 -0.13473961 -0.16507638 0.11353727 0.15152039 -0.1521182 0.15745637 -0.15180615 -0.15906166 0.15686053 0.15499035 -0.15647015 0.16011392 -0.13477291 0.09358532 -0.15407452 -0.17758085 -0.15245548 -0.15196607 -0.15996966 0.1526712 0.15016724 -0.15428609 -0.033873007 0.15107036 -0.15134752 -0.15409234 -0.15251134 0.1213669 0.15160409 -0.1547516 -0.15095517 0.15212463 0.12633452 -0.15045929 0.14991523 -0.18403105 -0.16195041 0.15131824 -0.15230651 0.16181572 0.15971313 0.15107842 0.15034755 0.15067618 0.15030661 -0.1510419 -0.1517337 -0.1536295 0.15153861 0.15053943 0.15192483 0.15321058 0.15250736 -0.15260942 -0.15407927 0.16153227 -0.112289846 0.15028198 0.16192763 0.14920925 0.16334924 0.16106686 -0.1530916 0.18005772 -0.15361169 -0.15972154 -0.13149115 0.10983451 -0.099479795 0.15013722 -0.15071446 -0.14933471 0.15260693 0.16252412 -0.09425077 -0.15470433 -0.15024127 -0.15171626 -0.15293035 -0.15011747 -0.1491727 -0.14925292 -0.16417184 0.15297185 -0.1584147 0.15180875 0.17255844 -0.122642145 -0.11347493 0.14932531 -0.15139186 0.15177341 -0.16459817 -0.1173405 -0.15402119 -0.15275337 -0.14965051 -0.15723927 0.15411839 0.13008222 -0.1511523 0.1585657 -0.090535924 -0.15256675 -0.15231946 0.10761126 -0.15402097 -0.15417388 -0.15449049 -0.12804328 0.16527031 -0.1517823 -0.11720804 0.15192637 -0.15452239 -0.14655012 0.1511358 0.15451723 0.15586035 -0.1508881 0.15273127 -0.1515615 0.15048766 -0.15213855 0.1579309 0.15105814 0.1531365 -0.15484546 -0.15378843 0.15183747 0.16177538 -0.14977227 -0.21215321 -0.17406473 0.1529418 -0.15667638 -0.15635858 -0.15555851 -0.11773557 -0.15123428 -0.1541769 0.15219964 -0.0998598 0.15073493 -0.15226386 0.17355286 0.13031025 0.14624125 0.1701559 0.15839411 0.08329044 -0.10543875 -0.15480916 0.1389184 -0.15703373 -0.15513074 0.15323828 0.15328684 -0.16287637 -0.16899292 -0.12588193 -0.14929378 0.1425248 0.17148486 -0.12508138 0.14959796 -0.13542522 -0.15000485 0.15053298 0.15238965 0.15954374 0.15070519 0.151327 -0.151061 -0.15311682 -0.15730011 -0.16401082 -0.17691128 0.1521864 0.15040381 0.14967345 0.15013836 -0.1576056 -0.15280992 -0.093163475 -0.15131584 0.113283806 0.15479226 0.15802944 0.15208156 0.095294885 0.16326669 0.03796247 -0.16619265 0.15075421 -0.17307611 0.15247175 -0.15047108 -0.12625338 -0.15773115 -0.15130307 0.15232225 -0.16844828 -0.13203354 -0.16312416 -0.14955246 -0.15405974
e -0.16089596 -0.17044207 0.13484867 -0.13227928 0.15730652 0.1586842 0.10883347 -0.16048361 -0.15994683 0.13256292 -0.12391315 -0.17921503 0.1694857 0.16354074 0.15783478 -0.16353127 -0.13236508 -0.16259299 -0.15708314 0.15870705 0.21217331 0.15794773 -0.16710328 0.17681682 -0.15751016 0.16157046 -0.16001996 0.17722347 -0.15605585 -0.15815167 0.16567513 -0.16135916 -0.13302702 0.15824494 -0.17203593 0.15918596 0.25621626 0.1613033 0.16216606 0.16015473 -0.16084987 0.16007102 0.18572873 -0.1604594 -0.1576604 0.15615894 0.17574784 -0.16065593 -0.16437466 -0.113024704 0.13248083 -0.15749478 0.105301425 -0.15845828 -0.14386337 0.13853505 0.17819291 0.16490619 -0.13812765 0.15712509 -0.23032999 -0.15718874 0.15846168 -0.16146024 0.15868743 0.08912169 -0.16142038 0.16240214 -0.1682 -0.15975347 0.1672687 0.15842362 -0.15725034 -0.13006248 -0.15737519 0.15793039 0.15747854 0.16149354 0.1272271 -0.16069709 -0.15835011 -0.16084073 0.16917996 -0.16133595 -0.15701753 0.15948102 -0.1587686 0.1568926 -0.007821594 0.16182153 -0.15833898 -0.16111054 0.15911247 -0.12616043 0.16720209 -0.160692 0.17178749 -0.16272922 -0.1575118 -0.16246097 -0.16008906 0.17366266 -0.16505504 0.15916713 0.11318202 0.16048564 -0.15641479 -0.17364474 0.17020598 0.15823792 -0.16074836 0.16666397 -0.15911193 0.13468543 -0.15881109 0.16941962 0.10760208 -0.16533917 0.1597957 0.1601735 -0.15764974 -0.16924481 -0.15955755 0.1611604 0.15069234 0.13371244 -0.18369944 0.1262977 0.15948817 0.16422747 -0.16231182 -0.1732992 -0.15972877 -0.17824997 0.15781175 0.2366811 -0.15847111 0.158409 -0.15997201 0.13143155 0.13574404 0.15801051 0.16618145 -0.16099046 -0.13311855 0.15733121 0.15790214 -0.15848678 -0.15679307 0.15538621 -0.16440111 0.16185063 -0.14525953 -0.15929067 0.16286615 -0.15660009 -0.15814458 -0.15757856 0.16164675 -0.12418372 0.13333343 -0.16338654 -0.13685249 0.18098782 0.16360688 -0.07386233 -0.15757635 -0.16067712 0.15641251 -0.15807022 -0.2544439 -0.13994974 -0.17711426 0.15847464 -0.16817664 -0.031555764 -0.15866743 -0.16812144 -0.13295235 0.11109283 0.16151223 -0.13052693 -0.15872939 0.16261165 -0.15822664 -0.16439597 0.13599415 -0.161116 0.15737146 0.17806445 -0.15974362 -0.17511725 -0.11128405 -0.15162207 0.16161662 0.16903332 -0.15920885 0.15730184 -0.16082346 -0.14095485 -0.15902469 0.16347498 -0.16125572 0.17343475 -0.16181405 -0.15907982 0.25323275 0.15955144 0.16059205 0.1608083 0.15918687 -0.15745543 -0.18577553 -0.16521989 -0.15986449 -0.16039537 -0.29843378 -0.22972186 -0.17613852 0.15938534 -0.17770053 -0.15804899 -0.15950517 0.15817122 -0.15778135 -0.15644094 -0.13568522 -0.15783598 0.15955722 -0.15817046 -0.168216 0.16712703 -0.16383599 -0.11761962 0.1175566 -0.15803994 -0.15706553 -0.11448386 -0.1606659 -0.15718055 -0.15952419 -0.1905435 -0.16144001 0.16657698 -0.1619066 0.12839863 0.17230162 -0.16153692 0.08005825 0.13272858 -0.1574257 -0.15732828 -0.15675044 -0.15901655 0.16886859 0.15685526 -0.1301886 0.15773077 -0.20687743 -0.13277352 0.20860483 0.15991153 -0.15418184 0.16091254 0.16065742 -0.18021809 0.1585169 -0.15694821 0.17200707 -0.16292202 -0.15934406 -0.17768705 0.16594374 0.14494568 0.16575384 0.15719269 -0.16679595 -0.10572653 -0.1609305 -0.104153425 0.16201986 0.15599267 0.13446127 -0.16390328 0.16371967 -0.1578658 0.143591 -0.15894787 0.0077520087 0.15965289 0.1599699 -0.15915425 0.15917486 0.10519552 -0.19592807 0.16925135 0.1599584 -0.16144015 0.16870007 -0.16035372 -0.056844532 0.16336091 -0.07003543 -0.16548838 0.19130617 0.114612445 0.13288662 -0.16229393 -0.19897725 -0.16644548 -0.15916651 -0.1934349 0.15846333 0.15822242 -0.15939867 -0.13122685 0.15779707 -0.15765257 -0.1645671 -0.16140448 -0.11814507 0.16061239 -0.16285878 -0.15758745 0.15950418 -0.11551566 -0.15624015 0.15859902 -0.1740327 -0.26503363 0.15756528 -0.15998188 0.17914538 0.16586612 0.163469 0.15941325 0.1568731 0.15748382 -0.1572591 -0.16085504 -0.17024118 0.15860195 0.15908636 0.16121382 0.16098432 0.15868454 -0.16057989 -0.16131006 0.12564223 -0.13984486 0.15784256 0.17914066 0.15779658 0.20209281 0.2660887 -0.1635471 0.170079 -0.15994848 -0.15953498 0.10864345 -0.12089878 -0.13692486 0.1562997 -0.1582435 -0.16335721 0.15788597 0.16290182 -0.15475622 -0.16271342 -0.1561701 -0.15674336 -0.16332866 -0.15918574 -0.15721908 -0.15591075 -0.1751614 0.15828826 -0.15799035 0.15677093 0.17279452 0.11750731 -0.13835408 0.1575711 -0.15952961 0.15931822 -0.20167832 0.12111365 -0.16283062 -0.16184652 -0.15613647 -0.17075203 0.15937357 -0.108983114 -0.15892541 0.17500974 -0.13302211 -0.16088873 -0.16242732 -0.12377742 -0.16688572 -0.16427746 -0.1613684 0.11718235 0.17005947 -0.15919082 0.124714896 0.157611 -0.16304044 -0.16086213 0.157676 0.16081229 0.15388818 -0.15728629 0.16205835 -0.15991166 0.15764634 -0.15957613 0.19005474 0.15804382 0.16138175 -0.16017455 0.03276638 0.15834913 0.16260141 -0.15651937 -0.2593051 -0.18456893 0.15928803 -0.14393105 -0.16227493 -0.16210498 -0.14444582 -0.15705457 -0.16036788 0.16049801 -0.13349079 0.1592693 -0.16335906 0.19428074 -0.11634344 -0.08204907 0.16641977 0.16396087 0.134127 0.12379933 -0.15792538 0.15365024 -0.15589537 -0.17793907 0.1640573 0.16211845 -0.24620128 -0.1790298 0.115008436 -0.15798983 -0.106077775 0.15886591 0.11908967 0.15900534 0.117635295 -0.15654685 0.15798275 0.15829185 0.16204861 0.15693738 0.15846784 -0.15951926 -0.16069314 -0.16310032 -0.16483222 -0.16843186 0.16072246 0.15683132 0.15911292 0.15911089 -0.16529095 -0.16704446 -0.13547975 -0.15785307 -0.12039575 0.15865265 0.1837723 0.16004053 0.13437758 0.22834182 0.13184594 -0.16634066 0.15874265 -0.20411822 0.15977041 -0.1579872 -0.14304234 -0.15443404 -0.15950787 0.16784292 -0.16276503 0.110597305 -0.18068767 -0.1593525 -0.16308196
b -0.16622844 -0.16263665 -0.02566047 0.031190637 0.16357635 0.16242853 -0.06646884 -0.1644175 -0.16031295 -0.03460507 0.05001538 -0.16496496 0.16755238 0.16178417 0.16179861 -0.13637908 0.03438286 -0.1678077 -0.16159269 0.16273122 0.17009263 0.16864039 -0.17820928 0.16508842 -0.16356681 0.16600828 -0.16556473 0.17129302 -0.16123213 -0.16745843 0.17678742 -0.16142835 0.03736573 0.16214402 -0.1715533 0.1276632 0.17445466 0.1627729 0.16517647 0.1643619 -0.17082909 0.16420914 0.16686152 -0.1615777 -0.16171786 0.16315427 0.17611934 -0.16250762 -0.16293018 0.061963994 -0.035195116 -0.16221759 -0.06605482 -0.1621395 -0.01938948 -0.022263879 0.16480066 0.16310556 0.028083289 0.1633825 -0.17084976 -0.1625652 0.1642325 -0.1633828 0.1629086 0.13484123 -0.16205673 0.1632753 -0.17361769 -0.16231228 0.1900873 0.16178894 -0.16328049 0.045628894 -0.16125226 0.16162157 0.1607438 0.1666497 -0.046994902 -0.16971445 -0.16400436 -0.17505835 0.1682715 -0.15904984 -0.1637607 0.16410938 -0.16642383 0.162134 -0.12143503 0.1636594 -0.16618992 -0.16314292 0.1611536 0.044972427 0.16355246 -0.16192544 0.17082994 -0.16161378 -0.16314986 -0.16944255 -0.16326286 0.17516282 -0.16694175 0.16461015 -0.05695633 0.16764317 -0.16226052 -0.17098199 0.16662055 0.16396138 -0.16351806 0.16549799 -0.16222283 -0.02614491 -0.16220808 0.1698598 -0.06520238 -0.1604862 0.16072525 0.16689047 -0.16248642 -0.17023718 -0.16530468 0.17271324 0.034842547 -0.02974306 -0.16416445 -0.052730262 0.162489 0.16652438 -0.15702397 -0.1616982 -0.07033826 -0.15873294 0.16178197 0.19279133 -0.16416158 0.16081583 -0.1577909 -0.042022504 -0.008400473 0.16223156 0.17897609 -0.16768304 0.030146968 0.16403851 0.16373222 -0.1648925 -0.16107433 0.16054602 -0.1621971 0.16924365 -0.011006978 -0.1632807 0.16808015 -0.16279615 -0.16375194 -0.1625292 0.16688271 0.04617091 -0.031286713 -0.16319045 0.02699873 0.16642804 0.16327037 -0.1435876 -0.16230239 -0.16402292 0.10636779 -0.16461162 -0.17157407 0.014911729 -0.17876348 0.16040601 -0.16952765 -0.12511766 -0.16510165 -0.16126443 0.03424458 -0.069788516 0.16222031 0.03916269 -0.16304389 0.1674415 -0.16424336 -0.16287792 -0.03104189 -0.16867885 0.16234381 0.18136132 -0.16353787 -0.18843006 0.06016071 -0.064881146 0.16883662 0.16876955 -0.1622831 0.16465676 -0.16448994 0.013688597 -0.16482754 0.16835926 -0.16504522 0.15884978 -0.16342008 -0.16208668 0.17368083 0.16543797 0.16830185 0.16587399 0.170031 -0.16334388 -0.18881796 -0.16544567 -0.16319023 -0.1679954 -0.20529462 -0.18401076 -0.16564013 0.16410778 -0.16786368 -0.1639685 -0.16413079 0.15685117 -0.16598871 -0.15999576 0.025626685 -0.16404575 0.16500877 -0.16207153 -0.17876366 0.17604381 -0.14549479 0.04844448 -0.0905731 -0.16333863 -0.16110078 0.056717128 -0.16647506 -0.16430551 -0.16255945 -0.18533726 -0.17082457 0.15985902 -0.16157341 -0.04465681 0.17893456 -0.16751717 -0.08639408 -0.035097875 -0.164255 -0.16352607 -0.16153075 -0.1578887 0.17249599 0.16179754 0.040583234 0.1631624 -0.03538094 0.03045978 0.17046687 0.16152602 -0.16209987 0.16433509 0.16159928 -0.16597106 0.16548946 -0.16217412 0.17403431 -0.17825757 -0.15816917 -0.1665762 0.16470166 0.007244893 0.16754672 0.16073664 -0.1764117 0.06568127 -0.16967958 0.07292039 0.16840124 0.16270575 -0.027747706 -0.16467085 0.12087409 -0.16586587 -0.0011449888 -0.16358371 0.12973298 0.16815433 0.16280748 -0.16468893 0.05936451 -0.06691777 -0.1700437 -0.018277239 0.16358253 -0.16732545 0.17275397 -0.1713589 -0.130343 0.17354336 0.081790514 -0.16312496 0.166115 -0.060497217 -0.03018956 -0.16732182 -0.1765513 -0.16499223 -0.16377026 -0.17387092 0.16180597 0.16403861 -0.16224447 0.03855439 0.16130324 -0.16163358 -0.16503347 -0.16695692 0.052295685 0.16232395 -0.16418205 -0.16191514 0.16554303 0.057707895 -0.16236715 0.16337688 -0.15758938 -0.1737643 0.16890626 -0.16397902 0.17204049 0.16831078 0.16847163 0.16094086 0.16650356 0.16145413 -0.16016288 -0.16298695 -0.16481179 0.1602448 0.16422974 0.16675949 0.16301422 0.1629804 -0.16480744 -0.16431464 0.15244879 0.018553305 0.16313368 0.16646774 0.16265388 0.17290579 0.172675 -0.16816609 0.17217056 -0.16332597 -0.16627912 -0.060755175 0.05343129 0.027211202 0.16244002 -0.1614312 -0.16477427 0.1630559 0.16259275 -0.025523791 -0.16732089 -0.16202419 -0.16189764 -0.162817 -0.1630526 -0.16423625 -0.07812971 -0.18329182 0.16309288 -0.16133903 0.16495855 0.1834898 -0.057266604 0.015476908 0.16294697 -0.1611103 0.16364032 -0.17040503 -0.05391972 -0.16254838 -0.16327198 -0.16349557 -0.16643573 0.16346695 0.06684734 -0.16320953 0.1683172 0.032337956 -0.16841501 -0.16244924 0.052926026 -0.16777225 -0.16928342 -0.1622923 -0.053190436 0.17967239 -0.16488846 -0.05328219 0.16448209 -0.17136131 -0.07606569 0.16465497 0.16194306 0.09755921 -0.16540869 0.16350083 -0.16355768 0.16078539 -0.16350223 0.1633393 0.16501838 0.1637618 -0.16961493 -0.10235571 0.1608196 0.15984638 -0.16217123 -0.19998814 -0.1894987 0.16795117 -0.15231727 -0.17270078 -0.17185831 -0.0036620772 -0.16432364 -0.16676353 0.1627463 0.028748592 0.16650629 -0.16328084 0.1775646 0.05915465 0.081409864 0.17763132 0.16996999 -0.03887477 -0.04393068 -0.16833755 0.054142494 -0.088158384 -0.16624871 0.16486436 0.16683446 -0.17110388 -0.18909785 -0.05698521 -0.16302894 0.070752196 0.10742136 -0.06228969 0.16260988 -0.056492254 -0.16320278 0.16269109 0.16249941 0.16510127 0.16355975 0.16183981 -0.16279559 -0.16380267 -0.16332188 -0.19385375 -0.1570534 0.1671502 0.16406046 0.16449955 0.16395663 -0.172961 -0.16640358 0.02410177 -0.16352986 0.053676706 0.15967363 0.16413528 0.16577104 -0.027749537 0.16395539 -0.037962716 -0.16836527 0.16319203 -0.17471659 0.16858791 -0.16294362 -0.00837769 -0.106802635 -0.16446254 0.15986258 -0.17441198 -0.060387906 -0.16910231 -0.16407111 -0.1648279
u -0.16460407 -0.16801722 0.08114377 -0.08095852 0.15871412 0.15962577 0.015896276 -0.15963167 -0.16238956 0.07919887 -0.04619221 -0.17337567 0.18518266 0.1630003 0.16193306 -0.16369027 -0.07510552 -0.16557944 -0.16062635 0.15879618 0.18547557 0.16072069 -0.18400404 0.17116898 -0.16133237 0.16750142 -0.16187555 0.17451261 -0.15865837 -0.16020651 0.17602241 -0.16121054 -0.07315289 0.1610713 -0.16808371 0.15158458 0.19084664 0.16568437 0.16872314 0.16194275 -0.16293138 0.16199549 0.17837223 -0.16569996 -0.15852034 0.15816215 0.17988847 -0.16395044 -0.16539861 -0.023024924 0.0720177 -0.1588611 0.0032869992 -0.16230528 -0.11673339 0.08939513 0.17341234 0.16785322 -0.077015296 0.16052161 -0.2029518 -0.15856089 0.16031693 -0.16442867 0.15936194 0.12440077 -0.1655313 0.16542025 -0.1666603 -0.16466647 0.17354712 0.16182588 -0.1618582 -0.04477721 -0.16453019 0.1587921 0.16209917 0.16151497 0.05750814 -0.1633937 -0.16381688 -0.166931 0.17316583 -0.16496922 -0.16109268 0.1611211 -0.15984103 0.1596557 -0.13748369 0.16102077 -0.161026 -0.16187467 0.16063553 -0.060429163 0.16830479 -0.16357522 0.17354265 -0.16292028 -0.16009463 -0.16263257 -0.16221786 0.169679 -0.16477183 0.16047233 0.03642584 0.169874 -0.16034342 -0.17041731 0.17200907 0.16517788 -0.16489166 0.16532937 -0.16027994 0.08874752 -0.1606391 0.16993427 0.013094532 -0.16603196 0.16727076 0.16557151 -0.1607019 -0.17119898 -0.16294989 0.16757171 0.0974816 0.075745136 -0.17926204 0.01281264 0.16141675 0.16824445 -0.16385841 -0.1736022 -0.10413736 -0.16577707 0.16000547 0.20468104 -0.16019337 0.1606207 -0.1639703 0.07151297 0.082392 0.15890452 0.17040321 -0.16548513 -0.08179064 0.15910006 0.15749928 -0.16415705 -0.15812545 0.16111062 -0.16501139 0.16257575 -0.09041071 -0.16443308 0.16228198 -0.15869042 -0.16434607 -0.15978307 0.16601662 -0.05731662 0.07901988 -0.1645653 -0.083878726 0.17544656 0.16610509 -0.14687365 -0.15837625 -0.16261287 0.13289356 -0.16102684 -0.18908037 -0.08048436 -0.17313674 0.16378625 -0.16478555 -0.120501705 -0.15986852 -0.1663382 -0.076936476 -0.05534587 0.16299765 -0.0693329 -0.15899104 0.16684791 -0.16054994 -0.16612662 0.08785218 -0.1649458 0.16348292 0.19709086 -0.16335021 -0.17942813 -0.024217032 -0.108682 0.16349839 0.17585456 -0.16314368 0.16044924 -0.16586421 -0.07499487 -0.16381729 0.16534746 -0.1645859 0.1724831 -0.16633493 -0.16268471 0.18399669 0.16104305 0.16420087 0.1648685 0.16320552 -0.1605719 -0.18542667 -0.16768092 -0.16173421 -0.16026889 -0.20608296 -0.19755524 -0.1724554 0.16229399 -0.17499603 -0.15880473 -0.16129287 0.16375482 -0.16133475 -0.15720314 -0.09057155 -0.16049689 0.1665825 -0.16279402 -0.17003989 0.18073313 -0.16447242 -0.06022198 -0.0657221 -0.1602462 -0.1603945 -0.031224381 -0.16212109 -0.16048789 -0.1614638 -0.18217641 -0.165604 0.16451904 -0.1639368 0.061213847 0.16925308 -0.16510132 -0.030471973 0.07380403 -0.15945356 -0.16051343 -0.16099407 -0.16394217 0.17088823 0.16000083 -0.06419673 0.1604747 0.07195123 -0.080345646 0.17970435 0.16360405 -0.18110614 0.1609896 0.16287751 -0.17625093 0.16035296 -0.1599826 0.17917444 -0.16435611 -0.16391411 -0.17487054 0.16805765 0.08688911 0.16408746 0.15874515 -0.1716574 -0.007014865 -0.16354337 0.008773435 0.16327713 0.16111878 0.0785141 -0.16610949 0.13817708 -0.16088432 0.08728814 -0.16263352 0.10736883 0.16407584 0.16498789 -0.16126318 0.102648936 0.025425022 -0.18013039 0.0021418948 0.16198711 -0.16661447 0.1762569 -0.16085048 -0.13830562 0.16411795 0.04979287 -0.16635883 0.18150014 0.0029010042 0.08111091 -0.16487268 -0.18716395 -0.16530895 -0.15991297 -0.18252954 0.16113998 0.15972011 -0.16531172 -0.073889896 0.15955485 -0.16014186 -0.16800709 -0.16543984 -0.045647573 0.16178107 -0.16247952 -0.1584652 0.16399476 -0.035776615 -0.16110942 0.16071099 -0.18758422 -0.17991279 0.1608586 -0.1657067 0.17289507 0.17430462 0.16652554 0.16198356 0.16122489 0.16102894 -0.16128068 -0.16421497 -0.16890986 0.16113369 0.159845 0.16319819 0.16530961 0.1619175 -0.16386208 -0.16792215 0.16606806 -0.07900144 0.16015919 0.17318858 0.16039701 0.18131822 0.163641 -0.16765016 0.1841147 -0.16483308 -0.16716255 0.026004165 -0.04347356 -0.07678015 0.16014023 -0.16027491 -0.16386154 0.16168046 0.16911866 -0.07782352 -0.1640513 -0.16054533 -0.15941615 -0.16621575 -0.15922418 -0.16146643 -0.11263418 -0.17765476 0.16420896 -0.1660407 0.15962227 0.17192267 0.03013281 -0.08363351 0.16285823 -0.16071902 0.16238353 -0.18779331 0.017947007 -0.16254811 -0.16575298 -0.16130541 -0.16919051 0.16294764 -0.0055441502 -0.16138917 0.17463471 -0.08245071 -0.16424379 -0.16656014 -0.03871888 -0.17116673 -0.16239269 -0.16415334 0.030203639 0.16613184 -0.16607873 0.0064635794 0.16101341 -0.17128257 -0.10712405 0.16105369 0.16380234 0.12769128 -0.1628894 0.16326474 -0.1602705 0.16022082 -0.16345197 0.16321965 0.16009 0.16244172 -0.16128705 -0.092288 0.16008969 0.16745172 -0.15862791 -0.20600109 -0.17786537 0.16246967 -0.14224677 -0.16352862 -0.16119228 -0.08673277 -0.15989591 -0.16580431 0.16052897 -0.08212085 0.16233106 -0.16572812 0.18563183 -0.026679214 0.0225153 0.18172075 0.16860865 0.0660588 0.07067169 -0.16455515 0.09702419 -0.11794813 -0.17411734 0.16306071 0.16519526 -0.18225347 -0.1801498 0.025146766 -0.15913038 0.0046105855 0.1572831 9.943295e-05 0.15980284 -0.007833345 -0.16022077 0.15985197 0.16383472 0.16821739 0.16083263 0.16067353 -0.1650959 -0.16000772 -0.16604921 -0.17376024 -0.17667584 0.16259164 0.16057184 0.1621758 0.1613082 -0.1708598 -0.16868256 -0.093425825 -0.15964 -0.03863819 0.16419059 0.17822467 0.16350509 0.08078392 0.17451632 0.07298573 -0.170881 0.16010158 -0.18777409 0.16970374 -0.16194263 -0.110681936 -0.1293541 -0.16091852 0.16662435 -0.17532909 0.027105033 -0.18320383 -0.16161078 -0.16534343
l -0.16913298 -0.1679495 -0.042860247 0.044419795 0.16336487 0.16391714 -0.08903008 -0.16079348 -0.16367787 -0.0467734 0.07874158 -0.16785747 0.2047051 0.1634631 0.16327086 -0.1826052 0.05528441 -0.16280387 -0.1632432 0.16204324 0.17324927 0.1625116 -0.22519688 0.16474901 -0.16271149 0.16452488 -0.16633406 0.18870836 -0.16294374 -0.16571456 0.20443635 -0.16426013 0.053739622 0.16275303 -0.1683625 0.16645576 0.1733385 0.16758734 0.17473231 0.1629168 -0.16492127 0.16455953 0.1676409 -0.16435522 -0.16263607 0.161939 0.17280331 -0.1626701 -0.16219224 0.08465008 -0.060696542 -0.16383503 -0.09618805 -0.16392185 -0.053693116 -0.03253607 0.16611713 0.16278625 0.045929626 0.16396615 -0.20427501 -0.16237234 0.16311477 -0.16346149 0.1620563 0.15544912 -0.17692877 0.16441779 -0.16520265 -0.16292007 0.17650253 0.16314518 -0.16302398 0.07020725 -0.17074117 0.16278721 0.16433781 0.16476063 -0.06848153 -0.1654054 -0.16374451 -0.16938673 0.16582234 -0.1742989 -0.16334367 0.16269527 -0.16305824 0.1636768 -0.15154241 0.1638263 -0.165375 -0.1612374 0.16099815 0.059562225 0.16650371 -0.16401926 0.16597219 -0.16183041 -0.15983321 -0.16546161 -0.16084749 0.16719583 -0.16496097 0.16402364 -0.08502196 0.17262894 -0.16303343 -0.17087232 0.16677162 0.16383813 -0.1620994 0.16738798 -0.16331837 -0.038240224 -0.16158746 0.1665879 -0.09206594 -0.17016983 0.17141345 0.16165674 -0.164212 -0.17356004 -0.16623704 0.16561593 0.015347539 -0.052868772 -0.17395565 -0.08962821 0.16074228 0.16609752 -0.16682796 -0.18682714 -0.051564023 -0.19724037 0.16239774 0.20392466 -0.16116816 0.16492917 -0.16828483 -0.05429822 -0.025105678 0.16195327 0.17370827 -0.16608623 0.043465476 0.16281751 0.16203904 -0.16388837 -0.16229248 0.16246271 -0.16573694 0.16577896 0.0052936287 -0.16701028 0.16622674 -0.16314457 -0.16361392 -0.16269626 0.16218819 0.0679219 -0.05049613 -0.16921131 0.044291753 0.17090927 0.16461746 -0.15899636 -0.16288416 -0.1652719 0.12772799 -0.16422015 -0.1705536 0.039441247 -0.17569606 0.16353866 -0.16843057 -0.1509172 -0.16246684 -0.17585087 0.05104588 -0.09508184 0.16218376 0.056358773 -0.16329454 0.16522603 -0.16498813 -0.16550732 -0.042639915 -0.1625489 0.16330773 0.23027456 -0.1634733 -0.17981222 0.093133114 -0.06050183 0.1650916 0.16826305 -0.16112371 0.16323653 -0.16310355 0.04517747 -0.16380428 0.16602346 -0.16866449 0.16059017 -0.16617028 -0.16329396 0.169297 0.16387083 0.16475335 0.16039145 0.16162485 -0.16057311 -0.18025632 -0.16195537 -0.16369534 -0.16199328 -0.1923727 -0.18773285 -0.16615273 0.16425645 -0.16740513 -0.16226569 -0.16127661 0.17211442 -0.1664846 -0.16222295 0.019422425 -0.16408215 0.16329373 -0.16667193 -0.17893769 0.19140764 -0.1882923 0.082974374 -0.092591025 -0.16389439 -0.16022876 0.08282009 -0.16417207 -0.16278559 -0.1645348 -0.18321127 -0.16489919 0.16802524 -0.16473642 -0.06914998 0.17412275 -0.1660047 -0.12903258 -0.058113486 -0.16367602 -0.16014977 -0.16101965 -0.17466988 0.16866843 0.1614055 0.064556345 0.16342914 0.005789598 0.045915455 0.167943 0.16293025 -0.16490358 0.16518097 0.16224323 -0.16552031 0.16377017 -0.16201845 0.16995125 -0.1760343 -0.17189002 -0.1666905 0.16509679 -0.0096847275 0.17147163 0.16085353 -0.16642506 0.0988734 -0.16525038 0.097904906 0.16595277 0.16400087 -0.04584914 -0.16516492 0.1435999 -0.1642871 0.0017891163 -0.16225651 0.15709943 0.16570683 0.1628391 -0.16214627 0.021450752 -0.09666007 -0.16823015 -0.054382164 0.16359337 -0.16618675 0.16804071 -0.16655491 -0.15426947 0.17085953 0.134253 -0.16674405 0.16758582 -0.09125226 -0.044549152 -0.1666948 -0.18179126 -0.17064473 -0.16303301 -0.1695027 0.16284011 0.16143814 -0.17060716 0.050323818 0.16009146 -0.16617106 -0.16690959 -0.16514073 0.07390899 0.16126454 -0.16522564 -0.1606513 0.16450822 0.08177212 -0.16020082 0.16083029 -0.20322593 -0.17271951 0.16597028 -0.16085227 0.16966651 0.17639583 0.16654086 0.16100429 0.16451046 0.16305676 -0.16317724 -0.16212495 -0.16401076 0.16376974 0.16276748 0.1656231 0.16409974 0.16321735 -0.1643606 -0.16582796 0.16203861 0.04715721 0.16275701 0.16793825 0.1638706 0.17158827 0.17762215 -0.16538635 0.21773738 -0.1652434 -0.1720599 -0.08925183 0.077494934 0.047022387 0.16277517 -0.16050409 -0.1691288 0.16279034 0.17611872 0.007987711 -0.16479689 -0.16249968 -0.16364089 -0.16462491 -0.16189405 -0.16319796 -0.060002446 -0.17154454 0.16634549 -0.17329395 0.16386853 0.1752945 -0.08212525 0.033407003 0.16305418 -0.16160661 0.16315198 -0.16922438 -0.084075674 -0.16458441 -0.1626359 -0.16342288 -0.16668974 0.1737162 0.09543156 -0.16262269 0.16814947 0.043938898 -0.1651375 -0.16312708 0.08065412 -0.16492595 -0.1664217 -0.16549344 -0.085662425 0.1683816 -0.1641208 -0.088384934 0.16362272 -0.1703238 -0.056263518 0.1635302 0.16670552 0.10959266 -0.16208209 0.16405003 -0.16329357 0.16039133 -0.16311999 0.16595408 0.16296066 0.16405196 -0.16632946 -0.13272491 0.16230164 0.17011471 -0.16161472 -0.21205604 -0.18117473 0.16644691 -0.16400398 -0.16731596 -0.17313333 0.016548108 -0.16384663 -0.16377032 0.16188231 0.035091843 0.1618667 -0.16291462 0.19376908 0.08729807 0.12136158 0.18838313 0.16529433 -0.054529093 -0.047993407 -0.16650976 0.031864602 -0.09993171 -0.16537465 0.16396545 0.16491903 -0.17107163 -0.1837384 -0.08144071 -0.1643584 0.101430625 0.20441909 -0.07948976 0.16483472 -0.10577276 -0.16346233 0.16323815 0.16239995 0.17620952 0.16394158 0.16214238 -0.16132994 -0.16516408 -0.16359322 -0.17455852 -0.19747576 0.16387452 0.16248775 0.16749673 0.1629199 -0.16821443 -0.16748999 0.021865746 -0.16439731 0.07974236 0.17102171 0.16929376 0.16334943 -0.04290422 0.1671777 -0.059009586 -0.17633553 0.16461706 -0.17689033 0.16064294 -0.16405866 -0.03494428 -0.1283996 -0.1631541 0.17090617 -0.18116447 -0.08438017 -0.170622 -0.16360147 -0.16503261
y -0.16288933 -0.15185954 0.09699974 -0.09379577 0.16227339 0.15949546 0.037815463 -0.16076005 -0.16244465 0.092999496 -0.06970939 -0.16287737 0.1788317 0.15497942 0.15996057 -0.16487154 -0.09313154 -0.15967217 -0.16237122 0.16181661 0.1505615 0.16070203 -0.18230508 0.14104629 -0.15906276 0.16486 -0.16322994 0.17000794 -0.15979333 -0.16270424 0.17138357 -0.16347118 -0.09216524 0.15995528 -0.16064674 0.15916502 0.1509378 0.16179064 0.1671377 0.16040199 -0.16395286 0.16203104 0.14323707 -0.16347107 -0.1604284 0.16017987 0.18143062 -0.16426356 -0.1597212 -0.03446214 0.09193902 -0.16098554 0.0102593945 -0.16096525 -0.117948934 0.10336661 0.13914873 0.1616009 -0.09490106 0.15979114 -0.15237069 -0.16078216 0.15797342 -0.16313879 0.15906356 0.11290474 -0.1632753 0.15439513 -0.16573511 -0.15955561 0.17030789 0.16218813 -0.16126642 -0.07848179 -0.16204396 0.1615173 0.15983056 0.16361924 0.07394526 -0.16228323 -0.16103734 -0.16240162 0.16461264 -0.16401657 -0.16068256 0.15987423 -0.16047828 0.15818335 -0.08376249 0.16210008 -0.16190137 -0.1611082 0.16249128 -0.07604541 0.1607527 -0.16441748 0.15237488 -0.15344071 -0.1601913 -0.16479616 -0.15967114 0.16705322 -0.16103612 0.16308823 0.050363235 0.16696511 -0.15862407 -0.17146748 0.15544689 0.16207305 -0.16057934 0.16836976 -0.15986423 0.09541109 -0.16302334 0.16611971 0.03708213 -0.16849524 0.1632711 0.16251694 -0.16201748 -0.17391156 -0.1635808 0.1670972 0.10877369 0.09502352 -0.1714101 0.04787512 0.1599526 0.16687809 -0.15645017 -0.1826021 -0.13050763 -0.17272706 0.1619521 0.20988958 -0.16116953 0.15969467 -0.16254276 0.085578606 0.09667153 0.1607161 0.17217413 -0.15976815 -0.09359383 0.15938687 0.16161945 -0.16206403 -0.15998428 0.15977716 -0.16546345 0.16179183 -0.10539765 -0.16164172 0.15998223 -0.15940794 -0.16136622 -0.16116977 0.16669454 -0.07100346 0.09490827 -0.16393095 -0.09664939 0.14877293 0.16022499 -0.11128002 -0.16013832 -0.16136906 0.14558887 -0.16071981 -0.15457788 -0.09333617 -0.17620575 0.16134612 -0.16519348 -0.09013949 -0.16323806 -0.15931322 -0.09324103 0.014367622 0.16240306 -0.084871285 -0.16083255 0.16679114 -0.16028507 -0.1691703 0.09744425 -0.16189845 0.15922648 0.18358763 -0.1628298 -0.18364936 -0.042926647 -0.12017918 0.16158424 0.17322 -0.1598203 0.16185424 -0.16192803 -0.09781464 -0.16249456 0.16153641 -0.16513836 0.13431062 -0.16370457 -0.15877984 0.1497797 0.1590615 0.1636815 0.1628466 0.16291264 -0.1607043 -0.19075604 -0.16088523 -0.15975946 -0.16300134 -0.21808748 -0.16623002 -0.14605388 0.16172501 -0.14941226 -0.16170011 -0.15967274 0.16115403 -0.15950623 -0.1604401 -0.100781746 -0.15954834 0.16243741 -0.16114756 -0.16949797 0.17817552 -0.16728508 -0.05199415 0.03386564 -0.16091669 -0.16164029 -0.042522393 -0.1613638 -0.16194695 -0.1635364 -0.18662101 -0.1644208 0.15169875 -0.15611292 0.0774539 0.1702298 -0.1632737 -0.012125639 0.08852136 -0.1618389 -0.15850954 -0.1606675 -0.1617662 0.15927929 0.15877534 -0.08009332 0.1597841 0.010038489 -0.09434017 0.1433529 0.16240208 -0.14116648 0.16369854 0.1608607 -0.14373045 0.16181847 -0.16118704 0.1787135 -0.16546185 -0.16458333 -0.14754274 0.15517956 0.10331702 0.1687706 0.15816064 -0.16824345 -0.02948045 -0.16299549 -0.028321942 0.15905261 0.15991417 0.09484955 -0.16555572 0.15865313 -0.16231756 0.10140505 -0.15945338 0.083907805 0.1639629 0.16297098 -0.16141327 0.121925026 0.02939284 -0.15504344 0.047121916 0.16019265 -0.16420357 0.17136738 -0.16444859 -0.120081246 0.16622661 0.023614861 -0.1654965 0.14054258 0.035531186 0.09402768 -0.16542757 -0.19490899 -0.16719519 -0.16024855 -0.15045862 0.16068156 0.1595047 -0.16363363 -0.08847442 0.16153073 -0.16142339 -0.16625853 -0.16515732 -0.05491567 0.16085358 -0.16639864 -0.16061795 0.16209672 -0.052327324 -0.16024858 0.1615601 -0.18781427 -0.14285867 0.1622726 -0.16398934 0.1704335 0.1720026 0.16643932 0.16002011 0.15868498 0.1599484 -0.15929118 -0.1637766 -0.1522421 0.16126554 0.15973325 0.16213775 0.15936431 0.16020615 -0.16462442 -0.16740358 0.1248378 -0.102503285 0.16132873 0.15599363 0.1606723 0.15010303 0.1508006 -0.16671929 0.17973739 -0.16430259 -0.16381711 0.036382515 -0.059996136 -0.09604858 0.15834503 -0.16026534 -0.16898905 0.16253541 0.16569729 -0.104308 -0.15982991 -0.16009755 -0.15964147 -0.15272163 -0.16095787 -0.16055469 -0.12872116 -0.17359786 0.16272902 -0.1621339 0.16148947 0.17269388 0.051988915 -0.0961486 0.1603102 -0.16078508 0.16051303 -0.14596342 0.05076577 -0.15903206 -0.16461311 -0.15998024 -0.16656756 0.16442521 -0.026216803 -0.16290082 0.16526079 -0.09436548 -0.16562049 -0.1547136 -0.058263365 -0.15360358 -0.1639579 -0.16184513 0.047372375 0.16449437 -0.16353934 0.049295522 0.1618899 -0.16751905 -0.12627815 0.15985236 0.16148667 0.13739747 -0.16190884 0.16483806 -0.15972844 0.15858077 -0.15946555 0.1300061 0.1589573 0.15874094 -0.16139428 -0.050899956 0.1596819 0.16638598 -0.16080137 -0.15982378 -0.18057716 0.16187151 -0.123880625 -0.16619147 -0.1649787 -0.102818064 -0.16067982 -0.1627608 0.16017526 -0.0959506 0.16011086 -0.15956545 0.1612661 -0.048187252 0.011835685 0.17485881 0.16421136 0.09104071 0.07061818 -0.1612566 0.11590116 -0.13672358 -0.14034635 0.16056833 0.16458343 -0.15127362 -0.17660029 0.045750495 -0.1610334 -0.017664861 0.16370252 0.034717403 0.16091456 0.025895223 -0.15902223 0.16129868 0.16028005 0.16549331 0.16118963 0.1597254 -0.16276865 -0.16077097 -0.16490775 -0.16475064 -0.17364274 0.16156001 0.16154368 0.16583197 0.1613601 -0.16996235 -0.17193492 -0.10081735 -0.16036393 -0.06106509 0.16072835 0.14326963 0.16036293 0.09494203 0.13963723 0.08734907 -0.16938137 0.15845837 -0.19473226 0.16447449 -0.16126278 -0.11331491 -0.1418661 -0.15883702 0.16775596 -0.16960377 0.040649436 -0.1809603 -0.16279563 -0.16650906
w -0.17470458 -0.1693556 -0.047714043 0.048886415 0.16749032 0.1651748 -0.0858296 -0.16841407 -0.16564626 -0.050059844 0.072355926 -0.16838187 0.17454754 0.16537765 0.1676566 -0.12898313 0.053717017 -0.17424655 -0.17061508 0.16633761 0.17568712 0.16574422 -0.16372141 0.16974585 -0.1663112 0.17051081 -0.17136446 0.17793976 -0.16505414 -0.17126739 0.1947025 -0.16642833 0.052410115 0.16295901 -0.1719948 0.10883167 0.17579846 0.17059565 0.17256752 0.16501807 -0.16773725 0.16651101 0.16887777 -0.16779745 -0.16464096 0.16472116 0.17024067 -0.16997172 -0.1662797 0.08516877 -0.051763024 -0.1670652 -0.09101482 -0.17318708 -0.033664316 -0.042531062 0.16730005 0.16888338 0.048487034 0.16373602 -0.1987736 -0.16406514 0.16741782 -0.165444 0.16680093 0.13746718 -0.1730809 0.16624011 -0.17137326 -0.17162617 0.18955265 0.16621462 -0.16839212 0.06626004 -0.17215768 0.16338877 0.16653278 0.16522533 -0.067462265 -0.17189457 -0.16758265 -0.17551464 0.16971235 -0.16833398 -0.16451623 0.16683441 -0.16547221 0.16764466 -0.12808293 0.16468002 -0.16593647 -0.16700694 0.1647245 0.06518747 0.16992322 -0.16786972 0.17042802 -0.16533229 -0.16714375 -0.1729826 -0.1684333 0.17284045 -0.1716391 0.16505773 -0.08256902 0.17158309 -0.16661197 -0.17208648 0.17050919 0.17296359 -0.16659771 0.16840182 -0.16626452 -0.039870143 -0.16536854 0.16862334 -0.08696406 -0.17035429 0.17033924 0.17174147 -0.16608086 -0.18195249 -0.17364307 0.18292579 -0.02046454 -0.046486776 -0.16980663 -0.07966688 0.16525552 0.17342667 -0.16450223 -0.18345664 -0.0019709673 -0.11508847 0.17134942 0.19929415 -0.16790412 0.1688471 -0.16704574 -0.0573504 -0.034518667 0.16735263 0.17429496 -0.17144509 0.047620017 0.1669632 0.16701387 -0.16704397 -0.16659802 0.16434999 -0.16472925 0.17011666 0.029218538 -0.17327885 0.16539492 -0.16591966 -0.16880125 -0.166571 0.16954046 0.06955795 -0.049903363 -0.16789076 0.04263911 0.17237623 0.17436971 -0.13736704 -0.16341312 -0.16812351 0.05550376 -0.16624193 -0.18003611 0.045169674 -0.17173606 0.1731252 -0.17210199 -0.13103493 -0.16712116 -0.16697311 0.04965655 -0.09597819 0.16545278 0.05882839 -0.16631256 0.17173603 -0.16976394 -0.16862684 -0.050907824 -0.17219834 0.16583592 0.19358712 -0.16923322 -0.17914286 0.0855043 -0.00386444 0.1683682 0.17029825 -0.16733502 0.16377397 -0.1691512 0.04418222 -0.1654491 0.17566006 -0.16522391 0.14882833 -0.16853385 -0.16964878 0.17428488 0.16439326 0.16781124 0.17380987 0.16762967 -0.1677182 -0.17244694 -0.16822714 -0.16413966 -0.16780451 -0.18476583 -0.19486856 -0.16981108 0.17016643 -0.1682191 -0.16642593 -0.16797216 0.16899626 -0.17093383 -0.1662776 0.04007007 -0.16877225 0.17469986 -0.16982128 -0.17571749 0.15442526 -0.13665015 0.043712866 -0.079623684 -0.16534032 -0.16519772 0.08510133 -0.16752385 -0.16384053 -0.16837679 -0.16996953 -0.16986929 0.17199062 -0.1676896 -0.061992377 0.1750896 -0.17778154 -0.10621085 -0.052140158 -0.16643113 -0.1677032 -0.1669023 -0.16783158 0.17014043 0.16514434 0.056632776 0.16695991 0.05111531 0.049226847 0.17227136 0.16816987 -0.15284556 0.16823496 0.16770975 -0.16709785 0.16510566 -0.16525206 0.17371693 -0.17882186 -0.16762216 -0.17382717 0.17149067 -0.03467093 0.16940156 0.16401073 -0.17230128 0.08890215 -0.1693882 0.09422614 0.16788624 0.16433223 -0.0442483 -0.16876991 0.07440677 -0.16527542 -0.03288215 -0.16826917 0.13136972 0.16704407 0.16849782 -0.1672336 0.0017111457 -0.09039765 -0.17546302 -0.050422437 0.16864619 -0.17431067 0.16914946 -0.1662104 -0.13683933 0.17273527 0.10706117 -0.17247511 0.17367221 -0.083193496 -0.04556592 -0.16979735 -0.17217624 -0.16944847 -0.16617264 -0.17647295 0.16696294 0.1642829 -0.1721618 0.05294503 0.16541114 -0.16477898 -0.17267038 -0.1678866 0.07801981 0.16587532 -0.1635474 -0.16388974 0.16855612 0.081689134 -0.1670385 0.16442752 -0.19136037 -0.16986424 0.17100102 -0.16787955 0.16812228 0.17750882 0.17090577 0.16655505 0.17122988 0.16361502 -0.1675611 -0.169696 -0.16869783 0.16446844 0.16330697 0.16460629 0.16815211 0.16496266 -0.168952 -0.1704426 0.14250775 0.047233205 0.16731337 0.17135353 0.16603877 0.18015268 0.16740975 -0.16698907 0.18292378 -0.17142585 -0.17757913 -0.08809526 0.078373276 0.04454718 0.16503817 -0.1655173 -0.16481459 0.16452248 0.17591909 0.034157753 -0.16698162 -0.16390516 -0.16595861 -0.17195123 -0.1654801 -0.16633867 -0.0171368 -0.17812218 0.17401166 -0.1739156 0.16599031 0.18697491 -0.08229955 0.043406613 0.16558756 -0.16588373 0.16841763 -0.17504719 -0.081577264 -0.16608377 -0.1680627 -0.16422601 -0.16799071 0.16944064 0.090247676 -0.16320664 0.17762543 0.046366658 -0.16724105 -0.16732076 0.07532018 -0.17163424 -0.16970189 -0.1720745 -0.08107537 0.1766609 -0.17295508 -0.08166879 0.16434291 -0.17887431 -0.009927864 0.16739886 0.17026204 0.04384963 -0.16959196 0.16550434 -0.16434835 0.16420002 -0.16479027 0.15269059 0.16695428 0.1657185 -0.17062691 -0.11765187 0.16467734 0.16896923 -0.16706264 -0.1802114 -0.17587896 0.17104551 -0.14601669 -0.1712549 -0.16972409 0.034099385 -0.16584039 -0.16927539 0.16683672 0.044514496 0.16699952 -0.1641922 0.15538657 0.08399403 0.10153778 0.15723686 0.18250036 -0.05567171 -0.056772392 -0.17828363 -0.0132256495 -0.027440883 -0.16830711 0.16556582 0.1699448 -0.17750265 -0.18602334 -0.08122447 -0.16593215 0.091140196 0.18154208 -0.08863104 0.16733949 -0.08892769 -0.16447847 0.16341914 0.17342705 0.1673993 0.1672371 0.16515417 -0.1697253 -0.16813344 -0.17052288 -0.18967776 -0.16744822 0.16904494 0.16528076 0.16859658 0.16556583 -0.1729876 -0.16805342 0.037435777 -0.16485627 0.0745724 0.16918886 0.17179449 0.16483513 -0.04492805 0.16179217 -0.054290343 -0.17950003 0.16487043 -0.17899106 0.17749336 -0.16550632 -0.011748008 -0.046517953 -0.16537398 0.16581732 -0.16834676 -0.08669564 -0.17319672 -0.16941458 -0.16714084
