408 500
Athens -0.0011198249 -0.0013966903 -0.00072801136 -0.0010322712 0.000578613 -0.000699106 -0.0016553348 -0.0016900387 -0.00034417724 -8.3731604e-05 -0.0011254661 -0.0015999845 0.001742787 0.0004817648 -0.0018155659 0.0013935675 0.0006377911 -8.540682e-05 0.00084649865 0.00014862209 0.0014581799 -0.0013782006 -0.00091685273 0.0015990527 -4.9480237e-05 -0.0012211569 0.00016898056 -0.0013427432 0.0017033548 -0.0012096365 -0.001673955 -0.0011474851 0.00076389103 0.00010217982 0.00031666993 -0.0014152816 -0.001988358 0.00133192 0.0011330363 0.0012644201 -0.0017990301 0.0014891846 -0.0007451434 0.0014649457 0.0008645791 -0.0019162244 0.0019943954 0.0013348893 -0.0014525547 -0.0011402867 0.001184219 -0.0014229505 -6.4816675e-05 0.0006343294 0.0010934258 -0.00082627346 0.00010463549 0.0011014652 -0.00054079364 0.0007408727 -0.0010022519 -0.0001844468 -0.0016581541 -0.0017347517 -0.00094887 0.0019442097 -0.0018425604 0.0013596611 -0.001306428 0.0017315268 -7.652282e-05 -0.0016618887 -0.0016671446 -0.00037479308 0.0012522538 0.00015794393 0.0012183082 0.0015531138 0.00017923769 0.0012862277 0.0009078281 -0.0005527411 0.00036054687 0.0016475047 -0.0005735714 -0.00080102903 -0.00041189964 0.0006411688 0.00047869282 -0.0013788189 -0.0017075461 -8.2697836e-05 0.0011138874 0.0004609709 0.00032700668 0.0008312119 0.0019730951 6.911927e-05 0.0017907927 -0.0007371409 0.0012259115 0.0017781465 -0.0019183327 0.0011811682 -0.0004003651 -0.0003424259 -0.0003183923 0.0003640207 -0.0015211462 0.0009971948 -0.001464674 0.0019122635 -0.001252865 0.0011298482 0.001105139 -0.0010999825 -0.0018807749 0.00037624012 0.00024196552 -4.125759e-05 0.0006193218 -0.0009914029 0.0015850756 0.00018297182 0.00038329535 0.0012495976 7.90786e-06 0.0013394889 -0.0003537212 -0.0007971786 0.0019161447 0.00059000007 -0.0007658212 -6.533053e-05 -0.0017650214 0.0019026857 -0.00092767715 0.0014837328 0.0014660407 0.0016851819 0.0013951461 0.00019619032 0.001865976 -0.0016327777 0.00151426 -0.0001552205 -0.0009338368 -0.0019848086 0.00013286248 0.0016522349 -0.0002055543 -0.00027360301 -0.00023429375 -0.0014365218 -0.00011215138 0.00064178 9.350409e-05 -0.0019773275 -0.00014526723 -0.0018275297 -0.0011995607 0.0016311416 9.909598e-05 -3.044377e-05 -0.00041210197 -0.0010057824 0.0013752475 -0.00035304355 -0.0018726448 0.00085495086 0.00087427604 -0.0006290317 -0.00036612607 -1.9505387e-05 0.001599056 0.00045158854 0.001587298 8.253986e-05 0.0014171472 6.915233e-05 -0.0009857746 8.6328946e-05 -0.0010403255 0.000629741 0.0013023075 0.00034077093 8.289237e-06 -0.0007878194 -0.0017688612 0.0018952461 -0.0007849374 -0.00057096884 0.000750839 7.7351e-06 -0.00019636273 -0.0012934239 0.00050968514 0.00040768203 -0.0007855366 -0.0012312501 -0.00081256893 0.0012509588 -0.0009767988 0.00039294548 0.0014796369 -0.00062756345 -0.0018765064 0.0009085692 -0.0016498656 -0.0018411742 -0.00094925147 -0.0010192855 2.168864e-05 -0.0019647146 0.0018286302 -0.0008105793 0.0015093936 -0.0015136693 0.0003841652 -0.00063564803 -0.00091915973 0.0009936048 0.0017365175 -0.001296008 -0.0017012844 -0.0017883854 -0.00066773733 0.0011080103 0.0012345179 -0.0017154628 0.0019742025 0.0016720488 0.0009398735 -0.0018898614 0.0017592146 -0.00062940526 -0.0013491407 0.0016348632 0.0012367447 -0.0008679214 -0.0009617057 6.0222344e-05 0.0016802729 0.0003512646 0.0007374245 0.0002014658 -0.00050754624 0.00019171904 0.00049063656 0.0009831956 0.00060680974 0.0010606269 0.0005797511 -0.0013514333 0.0010548059 -0.00012199278 -0.00037164998 0.00044080312 0.0011894137 5.1043462e-05 -0.0016605259 0.0011197792 -0.00026724744 -0.00038635614 0.000118296826 0.0011056794 9.143027e-06 0.0019761946 0.0012896406 0.0017400978 -0.00048178318 -0.0014669152 -0.0009202416 -0.0011602374 0.0011653362 0.0014287359 0.00047138054 -0.000676851 -0.0013213751 0.0012457289 0.0010834571 0.00056450744 0.0014722834 -0.0007286931 -0.0012347258 0.001739922 0.00027556112 0.0017207353 0.00081095565 0.0013024115 -0.0016989213 0.00070955 -0.0006760133 -0.00010017876 0.0006769283 0.0016843434 -0.0016219035 0.00096149044 -0.00073153235 0.0019374869 0.0012420779 0.001453368 0.0014986491 -0.0015982133 -0.00036479637 -0.00025755237 -0.001799845 -0.0018731466 -0.00073213934 0.0019818668 0.0013389562 0.00015424844 0.0015342294 0.0012676956 -0.0019554677 0.0007551124 -0.0015403758 6.138324e-05 -0.0006927836 0.0006977755 0.00023340108 -0.0008438511 0.00083234906 0.00060330867 0.00040044007 0.001452609 0.00021250732 0.0013996928 -0.00027888466 -0.00030148413 0.0009383098 -0.0017431844 -0.00024455262 0.0006984882 0.0015756949 0.0019451769 0.0011196148 0.0015017169 -0.0018977898 0.0016844145 -0.0007363723 0.0016372493 0.00068090647 -0.00031289028 -0.0018014153 -0.00056013395 -0.0009082566 -0.0002612681 -4.1079707e-05 0.0013456817 -0.0018785535 0.0015765163 0.00025627948 -0.0014780362 -0.0019423531 0.0009149215 0.0014225319 -0.0015800693 -0.00044921716 0.0019408085 0.0015994832 -0.0009772968 0.0001578785 -0.00035936164 -0.0010003427 0.00058290875 0.0007552004 -0.0013016751 -0.0017814597 -0.0010978668 3.3750897e-05 -0.0006912075 -0.0017493847 -0.0018767966 -0.0017975846 -0.00042715552 0.0006483786 -0.00044574507 0.0014527037 -0.0018180533 -0.0007476163 -0.0019161357 0.00065238425 0.0019311833 0.0004939609 0.0002205309 0.0013845789 -0.0010470243 -0.00025284104 -5.666609e-05 -0.0006915842 0.00017198664 -0.00073029636 -0.0014673627 7.12208e-05 0.00020001573 0.00074485433 -0.0016382388 0.0007175782 -0.0011523691 -0.0002938693 -0.00087369303 -0.0018889054 0.0016330818 -8.54244e-05 0.0019259851 0.00160751 -0.00057101157 0.00019916822 -0.0001192207 -0.000569875 0.0005286853 0.001981958 -0.0011155959 -0.0019529177 0.00038800412 -0.001981881 0.0019821327 0.0013235752 -0.00012844661 -0.0014387027 -0.0014697827 -0.0012533203 0.0008427575 0.0019394446 0.000768434 0.0012609956 0.0010515936 0.001670816 0.0010952954 0.0017567831 -0.0016091026 0.0002665401 -0.00056547043 0.0014290961 -0.00016666576 0.0014420904 -0.0017250727 -0.0018136323 0.00026447466 0.00095385243 -0.00082761794 -0.000101121725 -0.0013314114 0.0010965362 -0.00011912605 -0.00029178592 -0.00029027008 0.0007404499 0.00031117513 0.0010379634 -0.0013354648 0.0017814569 0.0014201363 0.0016928625 0.0019418646 0.00078385626 0.00036896346 -0.0011018359 -0.00016556098 -0.0013651927 0.00041090907 -0.0007584939 0.0005406111 -0.0002194586 0.001774455 -0.001877621 0.0008600885 0.00010262546 -0.0010376964 -2.3671193e-05 0.00051348144 0.00011507096 0.0018596747 -0.0010322784 0.00027161464 -0.0019502178 -0.00031991745 0.0009142882 0.00051893736 8.511706e-05 0.0014362161 -0.0007891607 0.00091462047 0.0009175427 0.0016213113 0.00069244974 0.00083076186 -7.00223e-05 0.0014051797 -0.00021895766 0.0015193534 0.0012418758 0.0007630333 0.001446624 -0.0009619916 0.0016077221 -0.0013984375 0.0011014068 1.4963094e-05
Greece -0.00070811703 -0.0013375231 0.0011079551 0.0013849682 0.001928184 0.0009776175 0.0006985287 0.0018220008 -0.0019667305 0.0015674587 0.001396568 -0.00069978624 -0.0008115991 -0.00066415174 -0.000803272 -0.0012236217 0.0017967301 0.00044233678 -0.0019371015 -0.0008137381 0.00087160524 0.0012111634 -0.00033965323 0.001692879 -0.0019930392 0.0007701339 -0.0005876351 -0.000768868 -1.791888e-05 -0.00091977033 -0.0016880571 0.00012425194 -0.00040918356 0.0018935082 -0.001283737 -0.0008900281 0.0016338706 0.0010992645 -0.00070238207 0.0018597201 0.0016522717 0.0019627775 -0.0015023143 0.0015941416 0.00025270553 -0.0016971544 -0.0013178037 -0.0019401802 0.0011845496 -0.0014877089 -0.00087969925 -0.0010929783 -0.0014723106 -0.0012205681 -0.0013809192 0.0015045716 0.0010111029 -0.00031885796 -0.00067498756 0.0007636398 2.6745955e-05 5.23217e-06 0.00047244667 -0.001934331 -0.00053417997 0.00023508607 -0.0010337674 -0.00077794935 -0.0013909291 0.0010399285 0.0009005 0.00025767065 -0.0017097436 -0.0009804693 0.0019661512 0.00039630802 -0.0005510242 0.0007324782 -0.0002135887 0.001638246 0.0012490586 0.0008539255 -0.0013254927 -0.001975834 0.0006408335 0.0013803232 -0.0015523745 -0.0011745573 0.000742489 -0.0010199683 0.00073435856 -0.001535492 -0.0017300702 0.0004806805 0.0015606617 -0.0018430745 0.0007625185 -0.00013906951 -0.0017123909 0.0006649487 -0.00011528854 0.001760467 0.0017843277 0.0018604414 -0.0014273317 0.0011066245 -0.001251743 -0.0019668862 -0.0016564575 -0.0002776935 0.0016423352 -0.00073535566 -0.0012160395 0.0011016845 0.0008532577 -0.0008024996 0.0017214098 -0.00018751842 -0.0011965535 0.0001009244 -0.0010829702 -0.0005283153 0.00085627264 -0.00027376728 -0.0018657483 0.0019483666 -0.001051804 0.001748621 0.00026468444 0.0018266973 -0.000764334 0.00080074463 -0.0012496529 0.00092821755 -0.00014870358 0.00062250486 0.0019239492 -0.0007832844 -0.001355461 0.0010921916 -1.639477e-05 0.0012917011 -0.0013902799 -0.0012825859 -0.0017745002 0.0011476963 0.00025160238 3.1801406e-05 0.0011006857 -0.0011622539 0.0018007534 -0.0004028892 -0.0010740643 0.0007569946 -0.0007462931 0.0014176909 -0.0009622858 -0.0014298974 0.0012087589 -0.0016633678 0.0010528185 0.0005090807 0.00073024374 -0.0014226038 -0.0019188591 -0.0015356377 0.0012102583 -0.0008839482 0.0018666876 -0.0014376672 0.00044638873 -0.0015989735 0.0019405333 9.266427e-06 0.00055682845 0.0019363046 -0.001794067 0.0003537594 -0.000464833 5.3928467e-05 -0.0009795179 -0.0009417656 -0.0005658732 0.0016707587 -0.00040611695 0.00028986274 0.0007110934 0.001040135 0.0017286225 0.0012435396 -0.0009884842 -0.0001495647 0.0007181796 -0.00045144418 0.0019414236 0.00062189996 -0.00040012167 -0.00023959402 0.0016899207 -0.0009782203 -0.00082151627 0.0002998775 -0.0008361385 -0.0018208638 -0.0014148131 -0.0017994068 -0.0013251456 0.0016231725 0.00014833314 0.0012615109 0.00026414706 0.0016561686 0.00015309802 4.351209e-05 -0.0010198863 -0.0010552013 0.001342443 -2.4205307e-05 0.00046676653 0.0011306677 0.00096017634 0.0013790186 -0.0013352782 0.0016030497 -0.0015706776 -0.0009116357 0.0006486287 -0.0019312159 0.0009818152 0.0017095662 -0.00017178536 -0.00019389414 -7.328275e-05 -0.00031560427 -0.00049214775 -0.0014325214 0.0018062072 0.0018636044 -0.0005543325 0.00019644294 0.0017167933 0.0010144387 0.0011698841 -0.0009716037 0.0011075931 -0.0006874965 -0.0005398977 -0.0013804808 3.1022355e-06 0.0018978145 -0.0015662967 -0.0011449519 -0.0011481567 -0.00068639405 -0.0016430677 -0.0017120824 -0.00095602067 0.0018100066 0.0009963198 -0.0019441346 -0.00098667 0.00031066034 0.0014085094 0.0013531351 -0.0015008505 0.0003292712 0.0010295187 0.00023062015 -0.0006665087 0.0006811514 0.0010564856 0.0016774519 -6.5755565e-05 -0.0018649464 -0.00088372454 0.0006491584 0.0006150401 0.0003762897 0.0012753964 -0.0005871628 -0.00026007893 -0.0001378865 -0.00095439004 0.00075101154 -5.618378e-05 0.00054190215 4.4146786e-05 -0.0010951698 -0.0012645021 0.0009278008 0.0010773614 -0.0005176893 -0.0005869465 2.7392525e-06 0.0010861976 -0.0014691444 -0.0019847013 -0.0006220498 0.00072963256 0.0017553014 0.0011365528 -0.0015698359 0.0014204606 -0.0008123453 0.00052149384 -0.0013782082 -0.0017416604 0.000818325 0.00016660802 -0.0019095477 -0.00024782994 -0.0018143493 0.0013194846 -0.0019968718 0.00048272847 -0.000105454936 -0.000997134 -0.00047245435 -0.00063622 0.00037261215 0.00046113343 0.00086230086 0.0009611109 -0.0010023719 0.001129335 0.00035617687 -0.0015702847 0.0005199923 0.00067507755 2.5843969e-05 0.0018748159 0.00028430484 0.00093577476 -0.0014409458 0.00062445225 0.0009733788 0.0019617544 -0.0010086725 -0.0010040154 0.0004980047 0.0004289269 -0.00059189484 -0.001907998 -0.0013541265 0.00049569644 0.00070742564 -0.001496923 0.00031594094 0.0006120566 -0.001333291 -0.001561704 -0.00049876526 -0.0013686211 0.00035915803 0.0013259815 -0.0012622643 0.0004617127 0.00016673631 -0.0010561863 0.0012250049 0.00014510471 -0.00034409785 0.0017364321 0.0014705646 -0.0012623406 -7.134443e-05 -0.0012779494 -0.00053892285 0.0011738723 -0.0010358293 0.001789174 -0.0010565422 -0.0015031522 0.0012927947 -0.0013345866 -0.0012391864 -0.0010400246 9.060255e-05 0.001651081 -0.00046881032 0.0013138847 0.00118286 1.2114178e-05 -0.0018207189 -0.0018762265 -0.0019615225 0.001406512 0.0011609476 -0.00015952543 -8.796097e-05 0.0008457408 -0.0010044401 0.0017546027 0.0017255621 -0.0010002553 0.00028657936 0.00016933214 0.0010145486 0.0001689624 0.0019943297 0.0012196696 0.00021546264 -0.0011291301 -0.0001584983 -0.0012565382 -0.00060671545 0.00012495369 -0.0014985607 -0.00039187097 -0.00018854358 0.000782602 -0.00011604815 -0.0018829027 -0.00087733706 0.0014472399 0.0006483088 -0.0006795791 0.0011670152 0.00061416463 -0.000982848 0.00023117545 2.9688235e-05 -0.0016269851 -0.00087877305 0.0016186105 0.00026274542 -0.00034848496 -0.0004462035 -0.0015464663 0.0006128263 0.0012870962 0.0013296877 -0.00067825825 -0.000120610464 -0.0003706779 -0.0002570348 -0.0019365007 -0.0015543886 -0.00076249416 0.0014075367 0.0014943855 -0.0009678162 -0.00095726375 -0.0012317661 0.00055433926 -0.00026708818 0.0012004431 -0.0016474489 -0.0010586386 -0.0017948652 0.0013908348 0.0010335608 1.7397571e-05 0.0017530296 -8.203811e-05 -0.000795883 0.00041764486 -0.00015149498 -3.8403086e-05 0.0012085892 -0.0017092455 -0.00069936307 -0.0019250165 -0.0009681013 0.0008049912 -0.0007911031 -0.0016806823 -0.00089434197 -0.0013621135 -0.00037718297 0.0019425459 0.0013671869 -0.0010164821 -0.0009407118 0.00068019447 -0.00044312817 0.0008390092 -0.00027535483 -7.800339e-05 -0.0012176684 0.00029561901 -0.001502176 0.0018388976 -0.0010140155 -0.00010713725 -0.00071223744 0.0005227304 0.001758077 3.7863152e-05 -0.0014159237 0.0017727253 -0.0016443096 0.00053623924 -0.0007069381 -0.0010985623 0.0018700245 0.0017523158 0.0011889711 0.0011436932 0.0014515682
Baghdad -0.0005560644 -0.0010196045 0.00056426483 -0.0014953597 -0.0004436369 -0.0019682592 -0.0018571492 -0.00064973335 0.0012007011 -0.00082157564 -0.00082408125 0.0008973989 0.0007287548 -0.00048067456 -0.0014439328 -0.00074845937 0.0016803714 -0.0018240255 -0.0018387247 0.00037105172 0.0005358537 3.0127587e-05 -0.000100331265 0.0005246301 -0.0014825476 -0.00045864133 0.0010660528 -0.0010987361 0.0013395599 -0.001791473 0.00084560947 0.0012803669 -0.00017767597 0.00080533954 0.0017591994 0.00039476692 -0.0012593165 -0.0005232764 0.0007997784 -0.0016791362 0.0007298768 0.0017181674 -0.0019348622 0.001974907 -3.8040802e-05 0.0012334259 -0.0016763642 0.00086007337 -1.542992e-05 0.00085391523 -0.00063424953 0.0008224994 0.0004917674 -0.0012954317 -0.00066936424 0.00055565033 3.156648e-05 -5.8928737e-05 0.0017535847 -0.0016941975 0.0008479066 0.0010104005 -0.0008727462 0.0001689 0.0012981901 -0.0003536644 0.0015689593 -0.0010355802 0.0002760354 0.0013236939 0.0008868794 -0.0010383714 -0.0017951954 -0.0018687063 0.0015043514 0.0016718514 0.0005853032 0.000681272 -0.0011947876 -0.0010961919 -0.0014380016 -0.0017247027 5.1314943e-05 -0.0016378869 0.0004044238 -0.0015608955 0.00059549906 -0.0009921871 -0.00015549397 -0.0015107335 -0.0008247321 0.00059793633 -0.0019878382 0.00030668825 0.0011190467 -0.0018988483 -0.0019684567 0.00039847987 0.0011463936 0.0008991426 -0.0018107749 -0.00038779853 0.0009968316 -0.0018271748 0.00025763223 -0.0008367577 0.0013874643 -0.0018342694 -0.0014765542 0.00089130783 6.8692956e-05 -0.00057205465 0.0005968176 -0.0005263488 0.0013867677 -0.000713033 -0.0012347031 8.734106e-05 -0.0019537702 9.132782e-06 0.00054444396 -0.0011665149 0.0007908088 0.00079353387 -0.0016464194 -0.0010253607 0.0011064268 -0.0004256809 -0.00017754699 0.0019448709 -0.0012098658 -0.0010452722 -0.0018465361 -0.00024435332 -0.0015000496 0.00036504492 0.00030076015 0.00075641414 0.0013087583 -5.3705182e-05 0.0004580454 -9.626849e-06 -0.00096601294 -0.0019159036 -0.0008610664 0.0010610463 -0.0008968911 0.0015604922 0.00093699736 0.001686807 0.00048983144 -0.00017530343 -0.0005380445 -0.0012363701 0.0015093861 0.0013185877 -0.0006397717 -0.00059541326 0.0001309528 -0.0016040435 -0.0010563242 0.000845365 -0.0017880937 -0.00012430316 -0.0004794905 0.00033623446 0.0006893275 -0.00028717995 0.0015258805 -0.0018460768 0.0012377843 0.0012240994 -0.0005814285 -0.0012367032 0.0012369337 -0.00057601 0.00077134394 -0.001188669 0.00041345786 0.00070817186 -0.00022173999 0.00014821137 0.00022122427 0.00072624674 -0.0012736071 -0.0006900347 -0.0005226624 -0.0005048829 -0.001278154 -0.0010625119 0.0017577575 -0.00038081314 -0.0015034097 0.0007934363 0.0005803141 -0.0015678914 -0.0016755913 0.0010207491 0.0019572026 -0.0002513089 0.0017786003 -0.0018567026 0.0013284194 -0.00080587587 -0.000650842 -0.0012836435 0.00086115673 -0.0003149202 8.8596484e-05 -0.0006484833 -0.00023761508 0.00011778204 0.001644698 0.0016632928 -0.0013681352 0.0013405278 0.00016391394 0.0004965309 -0.0002912283 0.0011079572 0.0010383909 -0.0014765979 -0.001622299 -5.072716e-05 -0.00185593 0.001389055 -0.0015411144 0.00035745697 0.0006000877 0.0007912887 0.0012537418 -0.00062050135 0.0015473196 0.00034238189 0.001136892 0.00011259224 -0.0017452264 0.00037474325 0.00057321484 -0.00045329286 -0.0005371409 -0.0012312622 -0.0014365233 -0.0017755955 -5.4429518e-05 -0.0008593438 0.0014249929 -0.0012603434 0.0003695367 -0.0012173122 -0.0007199788 0.0005401443 -0.0008283496 0.0015035195 0.0003301408 0.0017032376 -0.0018773902 -0.00031179644 0.0015040669 -0.00013325235 -1.7321436e-05 0.001960134 0.0009408237 -0.0018106826 -5.3906464e-05 0.00020222436 -0.0003152216 -0.000775908 -0.00081208185 0.00020432891 0.00027359137 -0.0017052296 0.00048152637 0.0012123873 -0.0002683635 -0.001918135 0.0007774683 -7.255154e-05 -0.0012047032 0.000940586 0.0014828886 -0.000732786 -0.00053601887 0.00012245681 -0.0018774241 -0.0018276533 -0.0017700777 0.0012970374 -0.0009298783 -0.0019978513 0.0017322309 0.00074414467 0.0016076295 0.000717927 -0.0015768047 -0.0012866989 -0.0009891877 0.001679831 -0.00033847883 0.00029745093 -0.0014264046 0.001026785 0.001969753 -0.0006707759 -0.0011596561 0.00064127776 -0.0014411288 -0.0008211661 0.0007853473 -0.0006875923 -0.0016047385 -0.001740825 -0.0017260206 0.0008988832 -0.00013166736 -0.0018412765 0.0013286842 0.0004470644 -0.00030417414 -0.0008390072 -0.0012961944 -0.00058682926 -0.0013052786 0.0018974298 -0.00082750514 -0.0009397373 0.00022260309 0.00034368364 -0.0012395957 -0.0016798833 0.0013212555 0.0015044597 0.00074772025 0.0014518094 -0.0011951537 0.0012113105 -0.0016280657 -0.0018750947 0.0016807271 -0.0013643838 -0.0012614822 -0.00044478755 0.0015304906 -0.0005380884 -0.0015221694 -0.0013054238 -0.0012911134 -0.0014348002 -0.0003803136 2.0067673e-05 -0.0012385538 -0.0007761677 -0.00066988065 -0.00010381767 0.0010193293 0.0006477244 0.00028904318 -0.0010532294 0.0015539057 0.00020950404 0.0013409317 0.0007968822 -0.0019490035 0.0007482427 -0.0011337292 0.0015685097 4.0857587e-05 0.0016137455 0.001839943 3.4659402e-05 0.0017674332 -0.0010211058 -0.0012669187 -0.00013105746 0.0006481225 0.0013573419 -0.0009045036 -0.0011236637 -0.00041253213 0.00049506454 0.00015626522 0.0016807718 -0.0018467825 0.0016242801 0.000135459 -0.0005335236 0.0014134506 0.0012054269 0.0019400336 -0.0007795482 -0.0004322005 -0.0012297439 0.0017890735 -0.0013657061 0.0018811896 0.0019028184 -0.00034932734 -8.541136e-05 -0.0015480024 0.00046467758 -0.0005720237 -0.00016879418 0.0013738289 -0.0012866588 0.0008676904 0.00015268475 -0.0019775901 0.0016438982 0.0018268812 -0.0009846993 0.00034264545 -0.0009248991 -0.00068209437 0.0008037926 0.0009245053 -0.0016903151 0.00061547733 -0.001656683 -0.00019138528 -0.0018322913 -0.0004974323 0.001237517 -0.000597231 -0.00074658706 0.0014475056 0.0013161704 -0.0008844057 8.902489e-05 0.0015260831 0.00033731386 0.0017692139 -0.00016731408 -0.00024203968 -0.0003723572 0.0011306012 0.0004261576 0.00040614302 -0.00026720983 -0.00053215073 0.0010685208 0.0006765728 0.0019362096 0.0007045558 -0.00032747677 0.00038019754 0.0014427155 0.00056845066 -0.0011128965 -0.0015668124 0.00081677106 0.0016901686 0.0019573208 0.00048343814 0.00077868067 0.00036067935 -0.00040349795 0.0005661729 3.3373246e-05 -0.0007869146 -0.0015166117 0.0018232823 0.0011648182 0.0006188005 0.001490409 -0.00064658525 0.00022656075 -0.0012378448 -0.0015878599 0.0010476816 0.00057328213 0.0015169275 0.00043893978 -0.00066890265 0.001402481 0.00022779405 0.0018737032 3.8452214e-05 0.0011335104 -0.00026524428 -0.0019938294 -0.0017071427 -0.00034678867 -0.00030307297 0.00069163484 0.0017006653 -0.0018139372 0.0007203 -0.00012638664 0.00075407606 0.0015910966 0.00055878004 -0.0010616406 -0.0007864366 0.0011424879 0.00066449447 0.0011238693 0.0007394531 -0.0005886805 0.0006841109 0.0006233908
Iraq 0.00088314246 -0.0014348896 0.001599563 -7.119484e-05 -0.00013813784 -0.001605351 -3.737607e-05 0.0016696441 0.00018479279 0.0011471794 0.001964507 0.0010695728 0.0001540163 0.0014874409 -0.0014591459 -0.0017280355 -0.000717563 0.00023790775 0.00023115077 0.00042825053 -0.0013605999 0.00078666676 -0.001423491 0.001271514 -0.0018103966 0.0017120864 -0.00040789053 0.00122203 -0.0018921314 -5.931023e-05 -0.0016498574 -0.0006137927 -0.0001805072 0.0011011206 -0.00030984264 0.0011556032 -0.0018941985 0.0017433814 0.0019761005 8.755759e-05 0.0014848644 0.0013371541 0.00013024802 -0.0005767315 0.0013314532 -0.00029221515 0.00028862176 0.0006427928 0.00033852388 -0.0015283163 -0.00096237974 0.0005344937 0.0016172451 0.0018605229 0.0002297333 0.000113233225 0.00032198848 0.0011131084 -0.0009688841 -0.0003859027 0.0007929655 0.00038879598 0.0010093597 -0.0014762013 0.001040428 -0.0002462971 -0.0016059779 0.00021400768 -0.0016329379 -0.0019410859 0.0016388623 -0.0017771877 0.0018101062 -0.0015761629 -0.0007799802 0.0014933238 0.00092142983 -0.0009822381 0.0016535278 0.0011214849 0.0017849437 0.0013135038 -0.0015032905 0.00011923839 -0.0019665773 -0.00038364844 0.0014896255 0.0007105812 -0.001112293 0.00020283833 0.0012082076 0.0006299282 0.00080042775 -0.0017283713 -0.001110828 -0.00011514826 -0.00017555023 0.00086941174 0.0016627582 0.0012378951 -0.0003558905 0.0019101009 -0.0016722372 -0.00059835054 -0.00019568228 0.0006841668 -0.0011304038 0.0018128103 0.0014132957 0.00081949006 -0.0007790313 -0.00037592533 0.000108977314 0.0015675754 -0.0013647485 0.00016906625 0.0018997889 0.001129756 -0.00045907195 0.0006262469 0.0009253444 -0.0013539329 -0.00022926857 0.0008724048 0.0019073074 -0.00010049774 0.0010740121 0.0005407238 -0.00023911905 -0.0015916687 -0.0006314233 -0.0019246079 0.0017417413 0.00031895214 0.0016187951 0.00011871569 -0.00045075186 -0.0009654005 0.0014455561 0.0011815261 0.00021435996 -0.00029776548 -0.0010220003 0.0012288473 0.00082688313 -0.0006625424 -0.0017803793 -0.00052620866 -0.001033974 -0.0012307968 -0.0014468727 -4.542689e-05 -0.00048703793 0.0008090595 -0.0016392673 0.00091494084 -0.0010660277 -0.0016376193 -0.001602681 0.0010771197 0.0017032984 -0.0019729277 -0.00085002254 0.0009064097 -0.00017184287 0.0017868455 2.3399247e-05 -0.0013444753 0.0005157222 -0.0016943434 -0.00068041356 -0.0019477953 0.0002217833 0.0010484699 -0.0015636907 -0.001997244 0.00027006818 0.0014790692 -0.001475066 0.00014100084 0.00061170873 0.0010527696 -0.00017183786 0.0013342004 -0.0014080034 0.00096285343 0.0014152899 -0.00043427397 0.0018239692 -0.0008531809 0.0007243082 -0.0011207517 0.00077082193 -0.000503222 0.0013426663 0.0014508236 -0.0011117544 -0.0015253652 0.0008985726 -2.6416965e-06 0.0013314369 -0.0014475943 0.0011561499 0.0017930777 0.00022418611 -0.00047636754 -0.0013113542 0.0005474307 0.000817409 0.0017624258 -0.0004093754 -0.00089642697 0.00081289443 0.0011472646 0.0012530882 -0.0018878015 0.0014880928 -0.0012110951 -0.001122976 -0.001983913 -0.0018415612 0.0018288067 -0.00066742254 0.00016854308 -0.0002580278 0.0015106602 0.001206557 0.00094611384 -0.00183963 -0.00024982903 -0.001377102 -0.0014886566 -0.00047758513 -0.0008463074 0.00032515358 0.000596822 -0.0014317322 -7.798604e-05 -0.0016607684 0.0006231908 0.0008419852 0.0010314293 0.0010719348 0.0019789564 -0.0007469733 -0.00033764716 -0.0003140791 -0.0005646229 0.0018912181 0.000980566 -0.0017489283 0.0015940776 0.001437207 0.0015932508 -0.00077754573 -0.00043523032 -0.0014800802 -0.0017340847 -0.0019160324 -0.0005804453 -0.001066568 -0.0007294591 -0.0006655634 0.0012077936 0.0019380229 -0.0015048168 -0.00048677134 -0.0008264547 -0.0007922845 0.0017966556 0.0008558361 -0.0018982035 0.0016370101 0.0016394709 -0.0005580289 0.0011136192 -0.0015770505 -0.00073099404 -0.0010561631 0.00020507607 -0.0018587607 0.0006169034 0.0011009213 -0.0012681524 -0.0007516375 -0.00067598803 0.00019050925 0.0015619036 0.0015485045 -0.0014722191 -0.00030818582 0.000751334 0.00045192917 0.0015001562 -0.0019263562 0.001735352 0.00035888143 5.040667e-05 -0.00029383355 -0.0011197135 -0.00025731488 0.00014507049 -0.0006358555 0.00051844143 -0.0014894586 -0.0017761181 -0.0008083675 -0.0018887799 -0.00068599917 -0.0016939298 -7.9825404e-05 -0.0010067807 -0.0009984458 0.0019095612 0.0008659023 0.00031799404 0.0012147122 0.00020142598 -0.0019631668 -0.0013943457 -0.00024883007 0.0008977202 -0.0017697948 -0.0016396373 0.0005297351 0.0019036697 0.0014485051 -0.0018792442 0.0006376598 0.0019521106 0.00015872344 0.0019952988 0.0017965662 0.0005110074 0.0009958185 -0.00061844895 0.00039693317 0.0015210654 -0.0011463881 0.001472282 -0.0006075121 -0.0016884543 0.0010254995 0.0011803594 0.00013708812 0.0016579891 -0.00060294126 -0.0005040744 0.00091422256 -0.0006677626 -0.001533912 -0.0004271844 0.00073987385 0.0010070729 0.0017871929 0.0008162528 0.00038501155 0.0005822901 0.00088039506 0.0009029703 -0.0019226817 -0.00037808972 0.000980488 -0.0005306504 0.0013962279 0.0011783708 0.00028911163 0.0011214791 -0.0006241114 -0.0001299195 -0.0015604082 -0.00026672264 -0.0011934317 -0.0018446249 0.0014981381 0.0011648536 0.0016323982 -0.001513338 -0.0015932398 -0.001184216 -0.000119576696 0.00031115348 0.00079860655 -0.0008165641 -0.0018537567 0.0015341211 0.00015901634 -8.021598e-05 -0.00018646021 0.0018898209 0.0013361764 4.1816384e-06 -0.001922835 -0.00034127734 -0.0007712543 -0.0014505028 -0.00061206275 -0.0015488658 0.00063843187 -0.0013081683 -0.0007617228 -0.0012391945 0.00011484767 -9.596755e-05 0.00132016 0.0002534117 0.000513664 0.00063412543 -0.00045551278 0.0004159927 -0.0017091652 -0.0007342844 -0.0008891659 0.001918671 0.0017132543 -0.0011515442 -0.0012205085 -0.0018705674 0.00064201583 1.2101838e-05 -0.0003305002 0.00081047625 0.0017103758 0.00031268643 -0.0018883198 0.0017507153 0.0011503147 0.0007718217 -0.0005428463 -0.00040683488 -0.0008234411 -0.0012916427 -0.00013781595 0.0019616003 0.0017408456 -0.00043328886 0.0002698279 0.00019323337 -0.00029203936 0.00035277242 0.00016971631 -0.000106037594 -5.14281e-05 0.0017480205 0.0016980635 5.6524994e-05 0.0012002033 0.0009663056 -0.0011193922 -0.0013908258 -0.000908279 0.00016665948 -0.0013165685 0.00036623748 -0.0013497155 0.0019522745 0.00010962295 -0.0014631602 0.0004881667 -0.0012622962 0.0016683801 0.001863787 -0.00077492127 0.0011333032 -0.0017730067 0.00062823715 -0.00052760623 -0.0016633521 0.0014956291 -0.0015330423 -0.0010031083 -0.0012454183 3.479235e-05 0.0005036751 -0.0016635046 0.0002490054 0.0006893317 0.0012051968 -0.0018711241 0.0004993442 -0.0015677274 -0.00011520891 0.0005478605 -0.0013931284 -0.0005464128 0.00055768294 -0.001730522 0.0017822278 0.00021452317 -0.0018660603 0.0010511305 0.0018105903 0.0011856887 -0.00076366996 -0.0019838398 0.0012506614 0.0012478183 0.0007745172 0.0006769649 -0.0014649017
Bangkok 0.0018831633 0.000997256 0.0015736092 0.001545154 0.0015877194 0.00052819937 0.0007624249 -0.0017686811 0.0015643872 -0.0009401479 -0.00010658451 0.00013299705 -0.00074867206 0.000518847 0.0010897757 -0.0009078942 -0.0009763356 0.0018619625 -0.0014233286 -0.00035213714 0.0003418643 -9.302399e-05 0.0006727576 0.00019831723 -0.0014105812 0.0015538249 -0.00039704994 0.0015000007 -9.574322e-05 0.0013663045 -0.0009291137 -0.00010969711 0.0019800325 -0.00022722455 -0.0005292144 -0.00076298695 -0.0013171143 0.0010908325 0.001127888 0.00041482924 0.00091654155 -0.0003830836 0.0006900979 -0.0002188664 0.0003424273 -0.0005005457 0.00012825453 2.6234426e-05 0.00069766515 0.0017895312 -0.0018457018 0.0010037515 0.0007121933 0.0008032506 -0.0008093532 -0.0011490164 0.0009310192 -0.0011931902 0.0007656305 0.0017422906 -0.0017324508 -0.0015527247 -0.001999141 0.001038658 -0.0011793108 -0.0013166588 0.001923613 -0.0009355319 -0.0007700785 -0.0018121868 -0.00023010466 -0.0015405058 -0.0013232961 0.0010259799 -0.000697784 0.00022201799 -0.0015219029 0.0018242374 0.0009915642 -0.00028999278 0.0016151934 -0.0013826867 0.0012929332 -7.5822114e-05 -0.0010201075 -2.5013229e-05 0.00034837658 0.0013523418 -0.0016280352 -0.0013193171 0.00049066916 0.00036022416 0.00024473877 -0.00179012 -0.0013116901 -0.0005212488 -0.0009618745 -0.00069985725 -0.0006290827 0.0009988854 0.0017420652 1.5019439e-05 0.0010473721 0.0014534553 0.0003935867 0.0017075208 -0.0007377494 -0.0015854762 0.0012652823 -0.0008293943 -0.001514998 -0.0016107536 -0.0015825583 -0.00053140067 8.7938504e-05 0.0011325437 -0.0011247969 -0.0011010282 -0.0010849951 0.0014808117 0.0012141552 -0.0002252626 -0.0010250988 0.0016070108 -0.001770972 0.00062978035 -0.00091027387 0.00034680218 0.0009362735 -0.0011629262 -0.0010530297 0.00029274984 0.0007861729 0.0011222714 -0.0011203794 -0.0006838994 0.0011174437 4.5785215e-05 -0.00071943307 0.0011671574 -0.0015931372 -0.00029330188 0.0004233867 -5.370623e-05 0.0011533627 -6.6171866e-05 -0.0017972799 0.0012362385 0.0010524828 0.0011355765 -0.00050578173 -0.00087748957 0.00085891085 0.00043462613 0.00080234325 0.0007805608 0.00020581833 0.0010282169 -0.0003458932 0.0004998811 0.0006492322 0.0007657767 0.0007732869 0.0017694351 0.0018050978 -0.00035965303 0.0019259641 0.0016136158 -0.00042092614 -0.00043508655 -0.0013952448 -0.0008564725 -0.001711151 0.00060754246 -0.00087333634 0.0017143381 -0.0008745034 0.00070815627 -0.0017799886 -0.00018726417 -9.86011e-05 0.0009177071 0.0011173445 0.0007560563 0.0008505529 0.0010854523 -0.0019130498 0.0007555166 -0.0011568296 -0.00049040315 0.0010370719 0.0006315585 -0.0013246993 2.3937318e-06 0.000808778 0.0013776761 -0.0019117764 0.00019350555 0.0016452712 -0.000474356 0.0014665592 0.000818477 -0.00021325203 -0.00064793474 -0.001424244 -0.0011088689 -0.00046419236 -0.0012938664 0.0004108036 0.0005005833 -0.0018781587 -0.0007604406 -0.0006561086 -0.001331764 0.0015113277 0.0013769004 -0.0008866375 0.0007379807 0.0012536445 0.00035553146 -0.0011099523 -0.0018301485 -0.0006075724 0.0003963448 0.00061152177 0.00079073175 8.189352e-05 0.00042142952 -0.0005447628 0.00051472895 -0.0014566904 -0.0014896472 -0.0011171999 0.0007475887 -1.8308172e-05 0.0018891182 1.0041054e-05 0.0011781333 0.0018917418 -0.0008254658 0.00023405021 0.00040953327 -0.0006259716 -0.0003860948 0.0006661748 0.0011892023 0.0017291359 -0.0012780557 0.001981023 0.00041109347 0.0011077619 -0.001534261 0.0008131678 0.0015027635 0.00047956523 0.00028696936 -0.0005536084 -0.0017603958 -0.00021977595 -0.0011506053 -0.00051207375 0.00013299193 0.00041649188 -0.001980655 -0.0018609586 -0.0013063024 0.00088078063 0.00010421616 0.001849598 0.0011725498 -0.0011739491 0.00078044436 0.0014419763 -0.0015603524 1.5958445e-05 -0.00036141393 -0.00021733169 0.0003770711 0.00064175157 0.0013191155 0.0009371042 0.0017944654 -0.0005664452 0.0011105847 -0.001061497 -0.0012701469 -0.000798682 -0.0001025782 -0.0018678585 6.2686624e-05 0.0017659273 -0.00029653788 0.00094277505 0.0015929816 0.0013191281 -0.00039322 0.0017840199 -0.0016824916 -0.0013202112 -8.550263e-05 0.0016819267 -0.0010047546 0.00070020836 0.0008671349 -0.0016943942 0.0011589292 -0.00091141777 -0.00043399236 -0.00042864063 0.0019888103 -0.0012010487 -0.00061175495 -0.0006115844 -0.00072369725 0.0016148027 0.0009098698 -0.0014596654 -0.00011365535 -0.0010611988 0.00086626504 0.00071581267 -0.0006039989 0.0010881203 -0.0006048654 -0.0015869406 -0.0017185975 0.0011609443 0.00034141517 -0.0010309153 -0.0012086723 0.0010637497 -0.0006385293 0.001587521 0.00092804525 0.001069501 0.00066341506 -0.0017994421 0.00015727268 0.00042884797 0.0006097045 -0.0019909956 -4.4093933e-05 -2.4216948e-05 -0.000404316 -0.0018112779 0.0004463296 -0.0009941133 0.0015126218 -0.0015197773 -0.0010265396 -0.0019098631 -0.0007576287 0.001980454 -0.0016088606 0.0017500469 0.00088783004 0.00046589947 0.0016902573 -0.0010396496 0.00031717657 6.169407e-05 -0.001846651 0.00073690526 -0.0004869392 0.0008295572 -0.0006276239 0.00041171536 -0.0013680788 -0.0016140123 -0.00028727867 0.0003174916 -0.0007374382 -0.0008291092 -0.0018405138 0.0010310891 -0.0017422967 0.0016195092 0.0019977384 -0.0010990868 -9.837386e-05 -0.0005391224 -0.0010380556 -0.00070054154 -0.00096222805 0.0015627376 0.001206737 0.00033712783 0.0012633333 0.0001630336 5.38351e-05 -0.00045747834 0.0016496622 0.0010164266 -0.0003027575 0.0006738454 -0.0015371582 -0.001869218 -0.0009447251 0.0010375918 -0.00044789386 0.0014147859 -0.0015679401 2.4283538e-05 0.001258037 0.00019983063 -0.00030653307 -0.0016973773 -0.000115740346 0.00026598363 -0.0014256374 -0.0019837853 0.0017280013 0.0013217165 0.0019164726 0.00025126548 0.0019268764 -0.0014502543 -0.001692017 0.001188542 -0.001974891 0.0010872276 8.141366e-05 0.0019601628 -0.0014228454 0.001203574 -0.00039458682 0.0016734272 -0.0012470246 0.001244856 -0.0011061407 0.0017523624 0.0019333002 -0.00075904664 0.00037898403 0.0017344928 -0.0014291147 0.00044318335 0.00040352042 -0.00048302126 0.00028052717 0.0018844642 0.0016957051 0.0011890952 0.0019297132 0.0016023791 -0.0012111063 -0.0013522152 0.0014434943 7.003429e-05 0.0009908534 -0.0011928356 -0.00084719516 0.0011479442 -0.0014194864 0.00041766977 0.001107587 0.0013829314 -0.00020510796 -0.0002622545 -0.00051397283 0.0019779878 0.0011023206 0.0010966856 -0.00032479793 9.801099e-05 0.00071537914 0.00068791234 0.0011831557 0.00028067478 -0.0004365428 0.0013697199 0.0006693485 0.0017375501 -0.000227866 0.0010242404 -0.0018783907 -0.00076428463 0.0005595174 0.00011259853 0.00038862368 -0.0014432195 -0.00088533026 -0.0012840021 0.0012072662 -0.001886124 -0.0012688036 -0.001553934 0.00027491176 -0.0010692382 0.0015263727 0.0006384314 -0.00083290273 0.0012821222 0.0012847774 -0.00086805806 -0.0005014684 -0.00011795689 -0.0009898188 -0.0005619896 0.0016535544
Thailand -0.0011922355 0.0014482774 -0.0009281152 -0.00133721 0.0012159992 -0.00017664384 0.0018950384 -0.0013068529 -0.0011459955 0.0011686934 0.00145451 -1.7261365e-05 -0.0019947414 -0.0008027168 0.0018479584 0.0019837765 0.0013631077 -0.0014865294 -0.00022243382 0.0019704301 0.0010071194 0.00075724977 0.0016400767 -0.00012919307 -0.0015689734 -0.0015979033 -0.00024532108 -0.00028150016 0.00037311157 0.001668975 0.0012359715 0.0010911373 0.00046747597 -0.0015865555 -0.0011433845 0.0010893391 -5.3158263e-05 -0.0002993109 -0.0009979854 0.00012041116 0.00027200393 0.000770062 0.0010803048 0.00035552727 0.0019413971 0.00014740997 -0.00085598184 0.0016926627 -0.0011067041 0.00094678206 0.0010856735 -0.00042556168 0.0007716445 0.0018919038 0.0011057348 -0.0006191466 -0.0012749296 0.0004690215 -0.0010790005 -0.0008229242 0.0008157145 -0.0011326778 0.0010947133 -0.00038745045 -0.0019273099 0.0006453998 -0.00044461084 0.00042044697 0.000816253 0.00047010323 0.0010710366 -0.00032234075 -0.00015530491 -0.0008596532 -0.0019138962 -0.00093724567 -0.00021238474 -0.0018299314 0.0017240101 0.00013142009 -0.0018640298 0.0010936148 -0.00029743055 -0.0015022205 -0.0018500946 0.00018439419 -0.0011924349 0.0018602079 0.0010028067 -0.0015970061 -0.00045159156 0.0014012891 0.0008104681 -0.0013375953 0.00015895069 -0.00062762236 -0.000501915 0.001664116 -0.0012221595 -0.0011890733 0.0013838159 -0.001039284 0.0016493916 0.0010678575 0.0017473232 0.0013999669 0.00026590307 0.0012787636 -0.0014761267 0.001437678 0.0016382595 0.0015776884 0.0019491923 -0.001327508 -0.0014783528 -0.00031145173 -0.0015517534 -0.0012596541 -0.0006635712 -0.0018534032 2.166233e-05 -0.0010690594 -0.0011140658 0.00090533076 0.0015974818 -0.0018041554 0.0018781393 -0.0001045682 0.0012310585 -0.00021012838 0.0011023239 -0.0012166374 0.0016724879 0.0010399208 0.0008409261 0.00064945803 0.0010165549 0.0014289687 -0.0005054908 0.0016039216 0.0012679778 0.0018708112 -0.0007297542 0.0019716064 -0.0006261618 -0.0018514117 -0.001231395 0.0004960925 0.00096776756 -0.00018143037 0.00076096156 -0.0012410441 -0.00019725249 0.001579259 -0.0014233704 -3.9661303e-05 -0.0007011078 0.0010984752 -0.0005540056 0.0012782624 0.0011117677 -0.0007940744 -0.0006571589 -0.0014415586 0.0008044066 0.00035610353 0.00091725215 -0.00067224144 0.0011956054 0.00028492697 -0.0015338345 0.0018761114 -0.0017164533 -0.00050643063 0.0015310938 -0.0014213484 0.0013080663 -0.0010170568 -0.0018657969 -0.00034929998 -0.00026675628 -7.359125e-05 -0.0007227283 -0.00022077607 -0.0019127964 -0.00012228603 -0.00041564798 -0.0011177557 -0.0011292198 0.00059855334 -0.0017944416 5.5297045e-05 -0.0009049502 -0.0012134186 -0.0019515845 -0.0003361788 -0.0017010676 4.669442e-05 0.0014600202 0.0012151052 -0.00040918705 0.001891097 -4.220428e-05 0.0011276896 0.0004331856 -7.2978204e-05 0.0007370254 -0.0006568056 -0.00081691577 0.001305843 -0.001050777 9.358488e-05 7.6487195e-06 -0.00032594998 -0.0012434623 7.464574e-05 -0.0011197487 -0.0012501546 0.0015229755 0.0012913509 -0.0018087149 0.0009451669 -0.00060637505 -0.0005169654 0.00021231174 0.001935249 0.0016846075 4.7222245e-05 0.0009826599 -0.001392155 -3.844849e-05 -0.00084576895 0.0018940205 0.0019385859 -0.0006410907 -0.00017029094 -0.0009960645 0.0015689395 -0.001214827 -0.0011669465 -0.00013164256 0.0016677382 -0.0019374762 -0.00087994605 -0.0011011327 0.00089991884 -0.00045815785 0.00018260395 0.0007443526 -0.0013468929 0.0015004792 -0.00015428022 -0.0011837662 -1.02731865e-05 0.00036621722 0.0019000873 -0.0016974953 0.0004171417 0.00017423625 0.00153453 -0.0013312658 0.0014906868 0.00074364897 -0.0003372872 -0.0009572974 0.00048662908 -0.0011089235 0.0014664147 0.00041394378 -0.0015256315 -0.00035981508 0.00048020273 -0.0015346234 0.001034627 -0.00074830535 0.0014294223 -0.00065392326 -0.0019728728 -0.0003469095 0.0015280668 -0.0016221744 -0.0010573275 -0.0003383034 -0.0007892633 0.0017407094 -0.00087110733 -0.00038404274 0.00084625767 -0.0002536344 0.0018886502 -0.0002856669 0.0017541207 0.0005047126 0.001540256 -0.0018829948 -0.00043968542 -0.00028617028 -0.0006179677 -0.00018575555 -0.0017274902 0.0006781188 -0.00053916336 0.0011649481 0.0004501657 -0.00055842637 -0.0010377091 -0.00090602064 -0.00041615055 -0.0014311054 -0.0010461484 -0.00086725305 0.0018830679 -0.0006390875 0.0009915743 0.00066364696 -0.0019709426 -0.0015246347 0.00013021193 -0.0016593934 -0.0006475403 -0.00028329587 -0.00014368654 -0.0011875434 0.00152686 0.0005621305 -6.758096e-05 -0.0013266669 -0.001287159 -0.0019116694 -0.001625986 -0.0017425555 -0.0017732522 -0.0018120974 0.001291692 0.0012914129 0.0012862897 -0.0016816171 -0.0016557223 -0.0014901129 -0.00020591018 -0.0010746077 -0.0017813354 -0.00082454446 0.0008079049 0.0016625933 -0.00042407925 -0.001352711 -0.0013787971 0.00031246734 0.000100123 -5.274301e-05 0.00023869262 -0.00015602831 0.001146598 0.0013780931 0.0013920036 0.0007902924 0.0008571439 0.001540259 0.0012644944 0.0016034909 0.00070681865 -0.00038318965 0.0011329225 -0.0018347531 0.0006859985 0.00013969792 0.0011122709 -0.0018408785 0.00016550347 0.0019988075 -0.0010131119 -0.0014373553 -0.00015711621 -0.0005628384 -0.0017694955 -0.000100157224 0.00025194162 -0.0016552809 0.0019712013 -0.001924198 0.0016216526 0.00073240255 0.0006863193 0.00032982696 4.974054e-05 0.00026740786 0.00092990743 0.0005404055 0.001378584 -0.0002762304 0.00053180195 -0.000556201 0.001909083 -0.00025516248 0.00011160225 0.0016055098 -0.0018919164 -0.00063680194 -0.0009955126 -0.0011290554 -0.00078096276 -0.0012344053 0.00034558517 -0.00083627726 -0.0002879965 0.001749522 0.00061678863 -0.0006801856 0.0009631375 -0.0010606216 -0.00039564306 0.0010678049 -0.0015820819 -0.001232735 0.0012763473 -0.0017020965 -0.0005041476 -0.00054125243 0.0013463828 0.0005792782 0.00064282725 0.0011211855 -0.0010945003 -0.0019082123 5.987729e-05 0.0015179969 0.0018222264 -0.0010550802 -0.0015639485 -0.00013381126 -0.00066518376 -0.00068165443 0.00043636304 0.00034887902 -0.0014309636 -0.0019944676 -0.001962995 0.0008253709 0.0012048052 0.0008352243 -0.00089696026 0.0019468043 0.0019283637 -0.0013214413 0.00053865043 -0.0018715268 0.0012780204 -0.0019201768 0.0005095985 -0.0011221607 0.00038244436 -0.0013532415 0.0008949493 -0.00024213479 -0.00013575505 -0.00029958657 0.0002164077 0.0006743609 0.0013094104 0.0010672454 0.00086990115 0.0010681027 -0.0017262739 0.0011859792 -0.00026544498 -0.0017498048 0.00024220673 0.00082384585 -0.0016809662 -0.00011731812 0.00027161092 0.001216745 -0.00016089913 -0.0019818281 0.0015381628 0.0017109825 -0.0009513238 -0.00125436 -0.00024588488 -0.0007962034 -0.0017030034 -0.0006658044 0.00042865635 -0.0018338009 -0.0017659438 0.0019421217 -0.0014632444 -0.0009091721 0.0009453513 9.936537e-05 0.001334962 -0.0009187289 0.0007063302 -0.0017526995 -0.0016985524 0.00017137895 -0.0012060431 -0.00061262725 -0.00066840986
Beijing 0.00076160906 -5.675014e-06 0.00084426696 0.00030142674 0.0009324453 0.0009686302 0.0014492932 -5.481066e-06 -0.00018536183 0.0016603014 0.00061572064 -0.001079198 -0.0010218826 0.00018279324 -0.0018240133 0.0003596472 -0.00016343617 0.00032545044 0.0008012173 0.0005469469 0.0010849112 -0.0008272043 -0.0013292265 0.0018521755 -0.0009427302 0.0012460833 0.0016515385 4.2358413e-05 -0.00031569693 -0.0009182794 0.00085161533 0.00033929152 0.001208815 -0.0004761708 0.0015377356 0.00044079334 0.0005023242 0.0010101458 0.0014912526 0.00017213868 0.0016437615 -6.9364905e-06 0.00094067515 0.0008293926 0.001458985 0.0018613753 0.0018462199 -0.00070944673 0.0013933328 0.00044540828 0.00089393393 -0.0011948796 0.0014599459 0.0002657969 -0.0009684125 0.0019819133 -0.0018710771 -0.00042354397 0.0016481569 0.0014016491 -0.00025507307 0.0011448895 -0.0006927593 -0.0016388257 0.0017785814 0.00024191337 0.0009059729 -6.5528206e-05 -0.0012087642 0.0015871061 -0.001562583 -0.00088381744 -0.0010780562 0.001908818 0.0009315314 -0.0010685597 -0.00053283887 -0.0003060653 0.0011317593 0.001890986 -0.00052982685 0.0016616471 -0.0012786451 0.001003714 -0.00045673398 0.00075302995 0.0017301701 -0.0014408126 -0.0015447219 -0.00019052415 0.0013568099 -0.0016877223 0.0001359703 -0.00069646316 0.00029323203 0.00046894373 0.00031822827 -0.00029850006 -0.0004114936 0.001596662 -0.0010482965 -0.0013534342 0.0006364195 0.0012567521 8.5920095e-05 -0.0017917992 0.0011856463 0.0005675778 -0.00053019146 -7.69475e-05 0.0012726346 0.0002479176 0.00022338307 0.0015028382 0.00036891247 -0.0011468807 0.0013318409 0.0006455735 0.00068775634 -0.0010858569 0.000114169205 -0.0018581611 0.00047343015 -4.4113258e-05 0.001356442 -0.001777779 0.00050195237 -0.0013762548 0.0013561922 0.0013479693 0.0013222902 0.00021055853 -0.0019959945 4.8790593e-05 -0.001803497 0.0007261473 0.0014529319 -0.00031453941 -0.00058594916 0.0014915338 -0.0005998855 -0.00091394025 -0.0015182927 0.000865913 0.00062576775 0.00031372556 0.0014930898 0.0014194071 -0.00017146021 -0.0014680102 0.0017240057 -0.0010683183 -0.0006510825 0.0005726465 -0.00015196926 -0.0003569083 -0.00198668 0.0012042886 -0.0018240338 0.0018905734 0.0019466795 -0.0016521219 0.0013757334 -0.0015616532 -0.0003929108 -0.0019083377 0.0007175263 0.0013071252 -0.0017136182 -0.0014763174 0.00026754802 0.0009331689 0.0011128192 0.0007309406 0.0009368835 0.00046197232 -0.0011612275 -0.00060758763 -0.00036808115 -0.0005019491 0.00018705847 -0.0016686369 -0.0006955211 0.0019642164 -0.0013844748 -0.0003519411 -0.0009691933 -0.0019803229 0.0017419497 0.0019793732 -0.0018374377 -0.0009473467 -0.0011332526 0.0016158146 -0.0014754344 -0.0009017249 0.0011099204 -0.00086593674 -0.00055159954 -0.0010239375 -0.00021078682 -2.0026462e-05 0.0013241922 7.55901e-05 0.0003245757 0.0006682691 3.2399083e-05 -0.0008319011 -4.3216627e-05 0.0009974854 5.4370146e-05 0.0009878855 0.001819679 -0.0008029721 -5.3421012e-05 -0.0012708838 -0.00032943732 -0.0017602247 -0.0015889719 -0.00065862224 0.00052340725 -0.0017845434 -0.0017555981 -0.00135033 0.0018538698 -0.0004833527 -0.0019932312 -0.00034876377 0.0010581352 0.0015554707 -0.00181312 -0.0014268945 -2.827379e-05 0.0010198057 0.0010424065 -0.0009855118 9.9005876e-05 0.0013812077 -0.0016073552 0.0011466607 0.0019047814 -0.000769594 -0.00090927153 -0.0007336695 -0.0015035141 0.0014560539 -0.00016937882 0.00027030404 0.0004810996 -0.000621969 0.0009149525 -0.0019227475 -0.0013556916 0.0016769529 -0.00049218396 0.0013092505 -6.078277e-06 0.0017129418 0.00017198455 -0.0014272388 0.0011588456 -0.00059336494 -0.001987333 -0.00083311566 -0.0010621174 -0.0010519555 -0.00072004634 0.0005901172 7.795729e-05 -0.0013087147 -0.0004957223 -0.0014862078 0.0005272282 -0.0009158347 -0.001769728 -0.00049958134 0.0007419856 0.0010676605 0.0017360507 -0.000716517 -0.00066693616 -0.00067960913 0.0008484281 -0.0012754977 0.0012492342 0.0005310422 0.0007055709 0.0019090383 -0.0019463075 0.0011135258 -0.000452869 -0.0013015593 0.00020982674 0.00021401397 -0.00064603216 0.00015616347 -0.00057482626 0.0013281992 -0.0016182312 -0.0014489768 -0.00020288036 -0.0012132425 0.0008623302 5.303882e-07 -0.0010396014 -0.00062362384 -0.00011844258 0.001563122 -8.979486e-05 -0.00013474608 -0.0011260277 0.0019000666 -6.0241204e-05 -0.0005718499 -0.00123095 0.00017033587 -0.0007968665 -0.0008864646 -0.001871451 -5.3144642e-05 -0.00090726186 0.00029270514 -0.0010149606 -0.0003751018 6.2008854e-05 0.001210968 0.00074823876 0.0015072019 0.00037630834 0.00068251346 0.0008613998 0.0005267523 0.0011469182 0.0003262204 -0.00088034896 0.0004972506 -0.0017034326 0.0016125087 -0.0017304169 0.0014830951 0.0013692444 -0.00062809093 0.00059464807 0.00025202753 -0.0007440966 0.0007708261 0.00087891915 -0.0008876856 -0.0011229597 -0.00037461286 -0.0019467961 -0.0013402556 0.00071321963 -0.0008218832 0.00026999903 -0.00019998383 0.0010314169 -0.0017712498 -0.0013576953 -0.0013627575 0.0015231895 -0.00045055582 0.0019766677 0.0017074824 -0.0011243594 0.001109499 0.00084969494 -3.284635e-05 -0.0013781239 -0.0001273558 -0.0010338926 -0.0008017395 0.00021013594 -0.00040699076 0.0007711495 0.00091217575 -0.0009574394 -0.0007180278 0.00044698338 -0.0017353009 -0.0008621862 0.001654858 0.0015793773 0.0019394883 1.0573771e-05 -0.00032087404 -0.0012485385 0.00032053422 -0.00036219554 -0.0015983983 0.0009074707 0.0014773244 -0.001677404 -0.0011093245 -0.0016339002 0.00051621627 0.00011275802 -0.001664449 -0.0009899657 0.001144141 0.0019112949 -0.0015632871 0.0006789856 0.001198113 0.000812904 0.001529969 -0.0018826309 0.0014249631 0.0017137809 -0.0014531534 -0.0007096088 -0.0016264573 -0.0018600816 0.0014575652 -0.0016898802 0.00074116094 0.0009367338 0.0011842614 0.0013234334 0.00020842254 0.00082760234 -0.00014382077 -0.0009631255 -0.0009902153 0.0013545274 -6.976817e-05 0.0005370723 0.00068433513 -0.0017558215 0.00083382847 -0.0017002939 0.0008774856 0.00037534 0.0017950346 0.00070108846 0.001981593 -0.0011282268 -0.0015819927 -0.00045746157 0.0011793976 -0.0016636292 0.0011684711 0.0013697192 0.0006993925 -0.00014464406 0.0007551031 -0.0018774751 -0.0018703054 -0.0017284582 0.0017688172 0.001359358 0.0016172833 0.0016641545 0.00021284516 0.0004906608 0.00070676906 -0.0004208081 -0.0019717577 0.0008878694 -0.0012611807 -0.0018048824 0.0019260373 0.00065161893 -0.00085137377 0.0017112046 0.0013120021 0.0004941481 -0.0016993852 0.0006285622 -0.0012387522 0.0005726665 -0.00013076619 -0.0005610025 -0.0009229274 0.0006080754 0.0011370955 0.0019733163 -0.0007338958 -0.0019254324 -0.0019076606 -0.00075258804 -0.00058380945 -0.0006208067 -0.0017079893 0.00063716574 0.00040400703 -0.0017521118 -0.00085696345 0.00064108684 0.001515796 0.0012871639 0.0006625976 0.000620391 0.0009898241 0.00039533968 0.0011586233 0.00041073095 0.0009440074 0.0018276037 0.0005946434
China 0.0017306514 9.937142e-05 0.00055186613 -0.00092684396 -0.001919575 0.0009748996 0.0012602047 -0.0007977834 -0.00038059312 -0.0006415334 0.00018245378 0.0009242287 -0.0019968376 0.00085018715 0.0018800346 0.0018287117 0.0012622471 0.0011586617 -0.00013139611 -0.0012061002 -0.0011783312 0.0009898213 -0.0009856196 -0.0008433779 0.0008703724 -0.0012168726 0.0012477057 1.7939601e-05 -0.00061052537 -0.0003483703 0.0003034533 0.0012899437 0.0016059838 -0.001871462 -0.0012829755 0.000116044655 0.0007383374 -0.0010857554 0.0016404141 0.0008081598 0.0009793052 0.0011847941 -0.0006784239 -0.00022186874 -0.00046841928 -0.0019590335 0.0013888329 -0.0018184796 0.00023450959 4.8825983e-05 0.0002475998 0.00095259165 -0.0010997257 -0.001987943 1.24480575e-05 -0.00047094608 0.0016550475 0.0008582263 0.00088161044 -0.0013622353 -0.0006763876 -0.00085537275 0.00027076667 -0.00052572845 0.00054045604 -0.00036255294 -0.0014657276 -0.001235337 0.0003003392 0.00079143536 -0.0008070521 -0.0009907229 0.001938889 -0.00019114185 -0.0016758047 -0.00076576404 -0.00038691692 -0.0018610137 -0.0018543042 -0.0016987296 -0.00048082613 -0.00057893584 0.0004344075 -0.00090942124 0.0014044181 -0.0008113027 -0.0017208756 -0.00033796672 0.0011790658 7.691374e-05 -0.0019725715 -0.001755828 -0.0010018194 0.001536327 0.0018775812 0.0019081116 0.001494868 0.0016323919 0.0019146602 -0.0015294324 0.00076219556 0.0017341203 8.6382264e-05 0.0010692014 0.0019158891 -0.0014884401 -0.0016768659 -0.0006998051 -0.0014117665 6.298069e-06 -0.0014598947 7.029553e-05 -0.0010690405 0.0003667476 0.00050764345 0.001062281 -0.000327004 0.001310563 0.0013964854 -0.0014977409 0.000540023 -0.0014192882 0.0015697074 0.0007376573 0.0005883246 0.0007676822 -0.0016951266 0.00049587595 -0.00065611314 -0.0012007824 0.0007743221 -0.0015951105 0.0007615364 0.0007058992 0.0009232622 0.0008018841 -0.0009159134 -0.00067746546 0.00084223296 -0.0019787243 0.0007668126 -0.00053257996 -0.000890709 -0.00086295325 0.0008303495 -0.0010156918 -0.001780867 -0.0008122466 -0.00089738355 -0.0002576087 1.3330253e-05 2.616085e-06 0.0003066836 0.0008203045 0.0007246849 0.0010890856 -0.0019381207 0.0014440145 -0.0015378703 0.0018518365 0.0015801887 -0.00019965554 0.00051911524 0.001035213 -0.0010229101 0.00129895 -0.0014018263 -0.00083441765 -0.0014109991 0.0018472571 0.00066200364 0.0005949924 0.0010295908 -0.0010414866 0.0019165615 -0.001545651 -0.000568348 -0.0015088893 -0.00022877858 -0.0009872306 -0.0007015043 0.0017588623 0.00059532863 0.00089780265 -0.00036631804 -0.0014065506 0.0017130654 0.0007781263 -0.000502696 0.0009480815 0.00022845203 0.0008655747 -0.0015577949 0.0001923691 0.0013779164 0.00070049986 0.0006811551 -0.0003805511 0.0016552925 0.0019379098 0.001922278 -0.0018021257 -0.00064186554 0.0017301813 -0.0011685524 -1.25952065e-05 -0.0009124086 0.0015241194 0.0006546532 0.0009629149 0.00029874756 0.0009451662 0.0018114066 -0.0013055416 -0.00050537416 0.001801607 -0.00048055104 -0.0011544104 0.0019663053 -0.0010420318 0.001369227 -0.0010117986 0.0012739878 -0.0009949475 -0.0017761883 -0.0010966505 0.0015859292 0.0012246307 0.0018542695 -0.0014441942 0.0011417503 0.00010713027 0.0012606119 0.00059266225 -0.0014294615 -0.00021012523 -0.0016947907 -0.0006083932 0.0011629083 -0.0017287678 -0.00026784185 0.0015203627 -0.0012831634 -0.0008674291 -0.0010211495 -0.00081952335 -0.001484243 0.0019540817 0.0012901202 0.0002919694 -0.0018989698 -0.00091637566 0.0013977613 -0.0005049353 0.0016740626 -0.00032087043 0.0009249442 -0.0015346837 1.3701152e-05 0.0017846869 0.00045337295 -0.0006903801 -0.000786797 -0.0016966921 0.001177635 0.0001585735 -0.0005894606 -0.00014562078 0.001933526 0.0019300322 -0.001627991 0.0017364973 0.0008973959 0.00060949824 0.0013220203 -0.00065652234 -0.0011107433 -0.0016558664 -0.0011630574 2.0384556e-05 0.00018736604 0.0016434903 -0.0008290685 -0.0018323534 0.000851942 0.00058464054 0.0017469625 -0.00097039924 0.0013657829 0.001997689 -0.001646111 0.0011132248 -0.0005075062 -6.998447e-05 -0.00012192223 0.0017918092 0.0006132168 -0.001178212 0.0015834803 -6.624032e-06 -0.0007283271 0.00072086183 0.0010135083 0.0010037124 0.0014801996 0.0011528754 0.0015323958 0.001002156 0.0012233753 1.9261613e-05 0.0017859433 -0.0015016191 0.0015946152 -0.0007067418 0.00047052838 -0.000109083136 0.0012057368 0.00048713782 0.0018283704 0.00090491166 -3.1119678e-05 0.00030504796 0.00035228604 0.00071852864 0.0016056632 -0.00033179717 0.00073718 0.0013950868 0.0012479753 0.0016681727 4.419335e-05 0.0018956701 0.0010899259 -0.0017246965 -0.00013367436 0.0014637006 0.00045140763 -0.0018142081 -0.0007336555 0.0012415561 -0.0019198593 0.00087730726 -0.0012506486 -0.0007496751 0.0002341452 -0.0014145249 -0.00010309031 0.0005065899 0.00014259457 0.0007240707 -0.00031708856 0.0015726048 0.0013710128 -0.0011742924 -0.0007143278 -0.00053462794 0.00056350254 0.00018443074 0.0007845985 0.0006520273 0.0012990837 0.0001599784 0.0012645007 -0.00088775705 -0.00018835114 -0.00035817048 0.00071753166 0.0011697316 3.834511e-05 0.0017710512 -0.00043153856 -0.00039267016 0.00010196259 0.00029633706 0.0019136348 -0.00017057348 0.0011128867 0.0015503063 -0.0018715964 -0.0013006295 0.0003967639 0.00028705387 -0.0015616401 0.0005807637 0.0019745461 6.419374e-05 0.00022405782 0.0014489128 -0.0001182711 0.00015406427 0.0014388168 -0.00089087687 0.0005365927 0.0006925026 -0.00014521077 0.0017365995 -0.00067100173 -0.0013604662 0.00076202117 0.0009777499 -0.00024168042 0.00039204885 0.000897723 -0.00068512827 0.000434231 -0.0009755405 0.00063857436 -0.0010423833 -0.0013918465 -0.0011506386 -3.179768e-06 -0.00065869093 -7.113314e-05 -0.0015822535 -0.0016576085 0.0019133345 0.00023586536 -0.0012074222 -0.0012707525 0.0014177656 0.0012237241 0.0012992867 -0.0013859206 0.0005716251 -0.0005895117 -0.00037151552 0.0010155928 -0.00051209854 -0.0013272973 0.0006185672 -0.00019731361 -0.0014002181 -0.00070783426 0.00039847987 0.0019365957 -0.0017493358 0.00039495667 -0.0016379615 0.0012334418 9.095599e-05 0.0018004065 -0.0003163733 -0.0016944152 -0.001054028 -0.00037276535 -0.00053983065 0.00015759701 0.0009231174 -0.0017416554 -0.0018635534 -0.0012213795 0.0015201261 0.0010639422 0.0010470962 -9.5314695e-05 0.0013037589 0.0014507147 0.0017192848 0.001116944 0.00048397807 0.0017758883 -0.00021494506 -0.0007099564 0.0014473223 0.0018137153 0.0007609967 -0.000393913 -0.001122134 0.0019312438 0.00059221056 -0.00070035085 7.0705544e-05 0.0018951215 -0.00019391056 1.901784e-05 -0.0017096666 0.00056125387 0.0008451254 -0.0011558689 0.0011186753 -0.00015038869 -0.0008366895 -0.00012051419 0.0017539165 -0.0013399574 -0.0005483093 0.0010765276 -0.0005072184 -0.0017902983 0.001504228 -0.0011653579 -0.0018851827 -0.0016240898 -0.0012477456 0.00023139198 0.0004792991 0.0003831631 -0.000755245 -0.0004884022 -0.0019309376
Berlin -0.0010636954 0.00079969293 -0.00031043368 -0.0013556298 -0.0013511108 0.0004828279 -0.0011329949 -0.0014769037 -0.00074902514 -0.0019174543 -0.001645258 0.0003874933 -0.0015708965 0.0013135681 0.00054760254 -0.00053642294 -0.00179223 0.0017359136 -0.0016458338 -0.001894919 0.0008233227 0.00085765705 -9.4949035e-05 -0.0012886114 -0.0013363989 -0.00014452392 0.0015094588 0.00038086064 0.0011780418 -0.0015944164 -0.0014957946 0.0012967668 4.3542823e-05 0.0005179588 0.00047133537 -0.0015394951 0.0008942727 0.0017403322 -0.0007501083 -0.00063414173 -0.0011834356 0.00069526676 0.0018808707 0.001245928 0.0003270381 -0.0016784917 -0.0005720665 -0.0010736042 0.0012853506 -0.00052062294 -0.000535676 0.0013854313 -0.0007493453 -0.00080047897 0.001870871 -0.0006391583 -0.00037717063 -0.0017676466 -2.1359883e-05 -0.00043456908 -0.0019453936 -0.00096938445 0.0013529272 -0.0014987148 0.0008007928 -0.00088605576 -0.000865284 0.0015409493 0.0014975118 0.0017499365 -0.00067410304 -0.00084168825 -0.0009546082 -0.00089691335 -0.00030259043 -0.0009959849 0.0005370232 -0.0013426484 -0.00015788409 -0.0019813208 -0.0012359355 0.0013779372 0.00073819933 0.00015740097 0.0015271828 -0.00059823773 -0.001564878 0.0009466612 -0.0011988614 -0.0010173445 -7.3967036e-05 0.00050056283 0.0010095167 -0.0019339129 0.0011884738 -0.00077943807 -0.0017854291 0.00036713458 -0.0007410395 0.001260004 0.0015402366 0.0012614301 0.0011082503 0.0005719224 0.0012790936 0.0012572692 0.0016637149 -0.0003601577 0.00060910895 -0.00061580376 0.0013260725 0.0014138583 0.0006718107 6.696675e-05 -0.00044090173 -0.0019529299 -0.000559206 -0.0019480701 -0.00020228385 0.00077711977 0.0017604567 0.0008265979 0.0002856385 0.0019139762 -0.0012508503 -0.001293458 0.0014225696 -0.00038440758 0.00078666187 -0.0012013202 -0.0015812448 0.00044598826 0.0010221216 -0.0016133907 -0.0018224795 -0.0014963406 0.0009518601 -0.00075641926 0.0010196201 -0.00035601924 0.0012168887 0.0014869443 -0.0011515701 -0.0013437828 0.0011859694 -0.00046140526 -0.00078416977 -2.1736603e-05 -0.0018310082 0.0005000122 0.0014400256 0.0010256174 0.0005655263 0.00035452144 -0.00043988542 -0.00012874103 -0.0010283773 -0.00047203305 0.001919348 0.0017981925 0.00092493347 -0.0016482151 0.0017806834 0.0006682761 8.078688e-05 -0.00097050343 -5.8122212e-05 0.0017622893 -0.00083123404 -0.0012910543 -0.001447994 0.001575131 0.0011266381 -0.00019986962 0.0018275019 0.0018729768 0.00068315724 0.0013203118 -0.00082375074 -0.0004345451 -0.00042012194 -0.00060757925 0.0005632818 0.0012229022 0.0005649135 -0.0011217152 -0.0005479718 0.00050131 0.0015638173 0.00042495038 0.00023375428 0.001383597 0.00032141502 -0.0015489024 0.0009055049 0.0009250841 -0.00022734096 0.0007218686 -0.0008795577 -0.0018196078 -0.0014843496 -0.0006433816 -0.00050534797 0.00092712627 -0.00081025274 -0.00067053013 -0.0013984495 -0.0013252135 -0.00029849843 0.00053781713 -0.00021099811 0.0003772953 -0.00094884716 -0.0004336856 0.0014785831 -0.00064074947 -0.00019970152 0.00051461207 0.0014307778 0.0005120761 0.0006316332 -0.00066599273 0.0005957016 -0.0013205749 -0.0008950167 -0.0004169672 0.0017171148 -0.0010946179 -0.0016211635 -0.00096276484 -0.0014874281 -0.00040875562 -0.0017234175 -0.0004465921 -0.00073120976 0.001329879 0.0011422045 -0.0016935952 0.0017624388 -0.0006026926 0.00010698126 -0.0004224017 -0.0005014227 0.0010902402 -0.001609918 -0.00018672273 -0.00063662033 -0.0013209697 -0.00169971 0.0008588643 0.0013754654 -0.0006406305 0.0017122915 -0.0014774929 0.0014418855 0.0012251236 -0.0014253496 -0.0014956878 -0.00079977757 -0.0001852233 -0.00066243054 0.0019087044 0.00049912254 0.0016851386 0.0010435358 0.00089126383 -0.0014119726 0.00095540145 -0.00034446164 0.0005945796 -0.000105025014 -0.001979698 0.000535398 0.0016078493 -0.0009186757 -0.0004314892 0.0003449975 -0.0006441419 0.0007240765 -0.0016792741 -0.00089188456 0.00072661834 -0.0019298882 -5.721161e-05 0.0016099443 0.0012462493 -0.00043509086 -0.0018942984 0.0013937159 0.00020875921 0.00092901825 -0.0016167513 -0.0007054901 0.00047675893 -0.001072389 0.00024014525 -0.0002326133 -0.001708659 -0.00046813965 0.0014887836 0.00042776694 3.125379e-05 0.0008670655 -0.0004354742 -0.000102515914 -0.0014737776 0.0006042139 -0.00073973415 -0.00023701217 0.0019481366 0.0016358662 -0.001777582 0.00043679215 0.0010215121 -0.0017251474 0.0017805663 -0.0017287871 -0.0016663481 -0.00082166935 0.0016821758 -0.00023878238 0.0017473078 0.0005102807 -0.0017941819 0.00048145698 0.00013354467 -0.0018808527 -2.762652e-05 0.00012490549 0.0018151421 0.00021751481 0.000905107 -0.0018031085 0.00033150637 0.00015001372 -0.0016949308 -0.00081741356 -0.00096728944 0.0009951817 -0.0015912047 0.0013553696 0.0006525107 -7.7134115e-05 -0.00043229293 -1.2042001e-05 0.0019302319 0.0017202103 -0.0019899656 0.0018079621 0.00064685196 0.0019195352 -0.001275609 0.0019506074 -0.0013810063 -0.0010768981 0.0012583092 0.00115289 0.00030672434 -0.0019407979 -0.001607478 -0.0016996441 -0.0008297344 -7.0794835e-05 -0.0009904335 0.00074644876 -0.0008786168 -0.00095871766 0.001760779 -0.0018075017 -0.00021232537 0.00024964358 -0.00020783639 0.00019092788 0.0018500048 0.00037140143 0.00028879265 0.0019836829 0.00084134424 0.00012047007 0.00031290902 0.0004362471 0.0018509976 0.00019715284 -0.0004581568 -0.0013168965 0.0013575985 -0.0006280084 9.711948e-05 0.0016713513 0.0005513367 0.00052585267 0.0016212354 0.0007624319 0.0014759351 -0.0017318267 0.00091285 -0.0017280243 -0.00049283076 -0.00037498877 0.00057299645 0.0019754565 0.001228543 -0.0015205685 -0.0011717313 0.0012832438 0.0012491159 -0.0014129408 -3.3342512e-05 -0.00011179468 0.00078745186 -0.00029445312 0.0005300543 0.00038157264 -0.0007375415 -0.00017799763 0.0016784696 -0.0013011936 -0.000613014 -0.00037834293 0.001875306 3.072573e-05 0.0019323884 5.6785997e-05 -5.2452087e-05 0.00028015138 0.00088084047 0.0016961733 0.0010433234 0.00017693522 0.0005484044 1.6034115e-05 0.0007942214 0.0006524087 0.0004744036 -0.00044280838 0.0017791693 -0.00075558457 -0.0012913378 -4.3090666e-05 0.000108792214 -0.0013931792 0.0011794253 0.00064027426 -0.00048319297 0.0005507255 0.0018895261 -0.00111208 -0.0012540815 -0.0012254459 -0.00096486404 -0.00023613859 0.0013622071 -0.0014743718 -0.00061742146 -0.001661304 -0.00076140696 -0.0012539945 0.0015544058 0.0010663942 -0.0013288968 0.001454887 0.0012125135 0.0002546087 0.001969084 -0.0009753214 -0.0013525451 -0.0012370782 0.00093240244 0.00040105474 0.0010910702 0.0006246513 0.00011665234 -0.0005832276 0.0019883497 0.0006114291 0.001861475 -0.0007288394 0.0019355428 0.00038852077 -0.001492206 0.0019977076 -0.001905067 0.00029495917 0.000851766 -0.0014715255 0.0010423933 0.0018362051 0.0017176999 8.79108e-05 -0.0013913625 0.00030907313 8.400483e-05 -5.36663e-05 -0.00038966676 0.0012242736 -0.0011632026 -0.0015365783 -1.1262484e-05 0.0016211045 -0.0010476322
Germany 3.7624966e-05 -0.001755675 0.0001679177 0.0017676996 -0.00026720145 -0.0003926251 -0.0018407251 0.0007193689 0.0008992797 0.0018521284 -0.0012156089 -0.0019206033 0.0015326848 -0.0011463647 -0.0009372289 -0.00031130295 -0.000514684 -0.0012421764 -0.00041197892 -0.00033497903 0.0015688841 0.0007826425 0.0018347327 -0.00011652731 0.0019266724 -0.0013463043 9.4980234e-05 -0.0018139749 -0.0009076238 -0.0005144866 -0.00053292664 0.0005317789 0.0009593731 -0.0006204541 0.0019280792 0.0013232024 -0.0012271951 -0.0013641575 -0.0008787182 9.74969e-05 -0.00013466238 0.0004374988 -0.00032319804 -0.00055118965 -0.0019387568 0.0019517418 0.000201463 -0.0019467359 0.0017938192 -0.0018889245 -0.0014586855 0.00018555601 0.00032485928 -0.0012285062 -8.001039e-05 0.001027908 -0.0012680048 -0.0011625364 -0.0016821714 0.0009249158 0.000940036 0.00034984993 0.001240901 -0.00016259623 0.00036750897 -0.00093642145 0.0012295754 0.0014220418 0.00030768733 0.00073007913 -0.0018278535 -0.0017015144 -0.0009843019 0.00016009179 -0.0010418115 -0.0014365595 0.0008277199 -0.001873844 -0.00017937878 0.00088950107 -0.0017855945 -0.0014375208 0.0013807914 -0.0015855399 -0.0009582684 -0.0014777763 0.0014466194 -0.0015030894 -0.0003676822 -0.00090463716 0.0008761189 0.00015847408 0.0011958759 0.00022894097 -0.0017183088 -0.0010472952 -0.0016722623 0.00036897743 0.00058618025 0.001674029 -0.00080075196 -0.00050849724 0.0017122026 -0.0017412878 0.0004595425 -0.0016258839 -0.0013646577 -0.0016603859 0.00071030017 -0.0015090733 -0.0010518959 0.0013595615 0.0017348726 -0.0016754605 0.00057981536 0.00020591565 -0.0018685898 -0.0015383356 0.0014437151 0.0013843412 -0.00091384817 0.00026400038 0.00022666808 -0.0014751771 0.0015975218 0.00049938774 -5.1189912e-05 0.0007167612 0.0014105719 -0.00017094356 -0.0011486292 0.001449253 -0.0018941928 -0.000913172 -0.00023156428 0.001895102 -0.00090485625 0.0007928214 0.0014333532 0.000601924 0.0013115043 -0.0013930586 0.0010257722 -0.000234092 0.00046257046 0.0011909786 0.0010861072 -0.0016363326 0.00014792033 0.001972961 -0.0012652098 -0.00017538026 -0.0017201384 -0.0010346594 0.000690056 -0.0013415092 -0.001649442 0.0019648683 -0.00022442895 0.0013992349 0.00066903257 -0.0009056218 -0.00027785252 -5.0976058e-05 0.0017189714 -0.0006007912 -0.0008773783 0.0016800892 0.00041361107 -0.0005361615 -0.0006407569 -0.0010539227 -0.0012471648 0.0011197408 0.0018018477 -0.0011529077 -0.00078110106 -0.0017036346 0.0017707867 0.0018118268 0.0005923782 0.00034108665 -0.0007994876 0.0004562994 -0.0015910299 -0.00084366545 0.00036413688 0.0008064816 0.00073396415 -0.00020108104 0.0015010163 -0.00064863346 -0.0019837923 -2.298993e-05 0.0013489923 -0.0014154462 -0.0019519599 -0.0006870737 2.5937334e-07 -0.001343829 0.00018891506 8.1151724e-05 -0.00017457269 -0.00065914635 0.00029727817 -0.0019757685 0.00057797343 0.00027755625 -4.0246407e-05 0.00032301224 -0.0014948378 0.0013206815 0.00095798564 -0.00010993215 0.0016106942 0.0009631675 0.0012651053 -0.0008777232 -0.0006467791 8.240715e-05 -0.0006134389 0.0019905057 -0.0013747606 -0.0012561599 -0.0008458345 -0.00043722824 -0.0011150904 0.0005734621 -0.00073040416 -0.00011984259 -0.0006029344 -0.0011016269 -0.0019911553 0.0014059453 0.001162762 0.00028373953 0.0013510347 0.00047575124 0.0010110347 0.0010173267 -0.0015369994 -0.00032650516 -0.00036618358 0.0005481029 -0.00024624402 -0.0002978692 -0.0014702242 -0.001063777 0.0017990659 -0.00054845144 -0.00028834492 0.0011565427 -0.00083788496 -3.3008168e-05 -0.00050779374 0.0018087798 0.0012258412 0.0015616214 0.0013476561 -0.00032679294 -0.0007388907 0.0017620143 0.00031615957 -0.00050467474 -0.0009564195 0.00028456142 0.0013424633 0.0014541198 -0.0005967362 0.00065796473 -0.00033010216 0.0017192129 -0.0009702118 -0.0007001653 0.0007156746 -0.00025404594 0.00086432113 0.0005792766 -0.0011025749 -0.00051010563 -0.000512306 -0.0019244901 0.0005084537 -0.0010644231 0.0014939066 0.00037458166 1.6095582e-06 -0.00041264342 0.0014203144 -0.00055201317 0.0018908125 -0.0010544778 -0.0018642696 -0.00065051625 3.324682e-05 0.0003329413 -0.00090070965 -0.0013142291 -0.00054277375 -0.0007052665 -0.001850432 -0.001474306 8.177478e-06 -0.000862994 -0.00071005465 -0.0008977514 -0.0014358028 0.0014754015 -0.00064848375 0.0013088433 0.0005210021 0.0016171236 -0.0015893341 -0.0017208217 0.00023787515 -0.0016377864 0.0004974606 0.00077665807 -0.000121011515 0.00039214035 -0.0003424132 0.0014901846 4.602899e-05 -0.001100344 -0.0012319601 -0.00020969508 -0.0010314517 0.0013226026 -0.0015329936 0.00039900234 -0.0018567775 0.0015050177 -0.0011780935 -0.00051656726 0.0016328618 0.0009873167 -0.0009655955 0.00084857293 0.0015723461 0.00038960204 0.0007314335 0.00089491415 0.0017003531 0.0004295339 -0.0019600673 0.001890617 0.00081410096 -0.0001821327 -0.00047560025 0.00063163484 -0.0012168644 -0.0010660179 -0.0011879774 -0.0019270033 -0.0016649056 0.0015644475 0.0011147847 0.0016503967 -9.598967e-05 0.00046210294 0.0015070667 0.00051626004 0.0007287238 1.01879705e-05 -0.0012293365 -0.001565364 -0.00095068384 -0.00045100076 0.00039766985 0.0013581964 -0.0013502608 -2.1677231e-05 -0.0016998261 0.0008677924 0.00070875767 0.0009322255 0.0016682725 0.0004176749 0.00011810567 0.00053389696 0.0007445223 0.001817554 0.0018635546 0.00043569086 -0.0006718142 0.0013308006 0.0010625899 -0.0016854213 0.00033250148 -0.0012296176 0.00037035835 -0.0009915712 0.0007586025 0.0019504165 -0.0005883031 0.0001765748 0.00026031095 0.000737956 0.00043327291 -0.00052618 -0.0007342368 -0.0019019016 -0.0016016853 -0.0017823647 0.00022372254 0.00075163506 0.0012173462 0.0011658415 -0.00046634534 0.0003829857 0.0017702424 0.00028845947 0.0001999475 0.00092005567 -0.0017279859 0.00029808655 0.001932319 -0.00035692507 0.0006149791 0.0012040301 0.0012302657 0.0018840032 0.0006935103 -0.0003386092 -0.0008547113 -0.0015955833 -0.00025267224 0.0005001426 0.0003291543 -0.0014117749 -0.00037915132 -0.0014464391 0.0009869812 0.0015083659 0.00068546645 9.027822e-05 0.0017773877 -0.0010532959 -0.0010263126 -0.0009150234 0.0014035876 -0.0013634814 -0.0008596418 0.0003312626 -0.0004832662 -0.0011302975 2.4664449e-05 -0.0019349664 -0.0012680287 -0.00038029125 1.5538884e-05 -8.3992025e-05 -0.0017969348 0.0009054702 0.001992984 0.001410973 0.0015933325 -0.00057581184 -0.0011776984 0.00063878996 -0.0008365229 -0.00069007184 -0.0005719316 -0.001319939 -2.4927314e-05 0.0011602219 0.0010330945 0.00093557686 0.00023261411 -0.0016995806 -0.0017307115 -0.00031603884 -0.0015568489 0.0005928399 -0.00096460397 0.0005878429 0.0003516937 -0.00030350825 -0.0013987642 0.00019740337 0.0005781895 8.0331694e-05 -0.0007268541 0.00089770346 -0.0017211922 6.40857e-05 0.0014704822 -0.0012902103 -0.0014858568 -0.00088532455 -0.0019277061 0.001982706 0.00060431706 -0.0009148341 0.0006398419 0.0019389505 0.0014725456 0.0014980524 -0.0014087143 -0.0013057762
Bern -0.0019199654 0.00033986592 -0.00042490917 0.00013444573 0.00060843956 0.0013210098 -0.00010892295 -0.0014597122 0.00060222344 -0.0013892711 0.0011103521 -0.0017263356 0.0013042036 0.0012523646 0.0004376201 0.0016150847 0.0018118231 -0.00086014916 0.0016191385 -0.00063450914 0.0014119409 -0.0010385943 0.001246244 0.00074645574 0.0014416217 4.597148e-05 0.0008252261 0.00029356405 -0.00046574837 -0.0016562587 -0.000598687 -0.0016678621 0.00066997623 0.0015606873 -0.0017624786 -0.0018391183 0.0008615032 -0.0001450188 -0.0019939062 -0.0012146049 0.0014932151 -0.0017014102 0.0016099475 -0.0008330052 -0.0007232493 -5.0024944e-05 -5.0125178e-05 0.0017939915 0.00011742511 -0.001157586 0.0016901891 0.00067891227 0.0017611098 -0.0006988123 0.000797926 8.452614e-05 0.00039172475 0.00013540685 0.0013883407 0.0010869196 -0.0017389031 0.0003896954 0.0014467363 -0.00060482556 0.00019913865 0.0013378779 0.0005716968 -0.0016969224 -0.001479656 0.0011606924 0.00062842434 -0.0009418132 -3.9344188e-05 -0.000786597 -0.0007182412 0.00058126426 0.00024463702 -0.00067783124 0.00030038808 0.0015827934 -0.0004918821 -0.00035719702 -0.00020201306 -0.0015735717 0.0010763062 -0.00089426397 -0.0014238141 -0.0019669114 0.001082008 -0.001957252 0.00090701785 -0.00020605442 -0.0015541175 0.0007664296 0.0019593386 0.00029398315 0.0013212976 -0.0006929436 0.0006750999 0.0019207147 0.0008008755 -9.433343e-05 0.0018820602 -0.001917298 0.0015135854 3.8554426e-05 0.0012722246 0.0009457038 -0.0010291922 -0.001367002 0.0013910867 0.00013829232 -0.001337507 0.0014403481 0.0007010754 -0.0005694771 0.0008209925 0.0008346115 -0.0013056649 -0.0018004506 -0.0009016843 0.0017027161 -0.0015238782 0.001518727 0.0007884272 0.00011472427 -0.0013701533 -0.0012079165 -0.0014298519 -0.0007685032 0.00013311394 -0.0012086504 0.0014020605 0.00086926366 0.0015713144 0.0014049229 -0.0016790102 -0.0013531077 0.0017630202 -0.00035638094 0.0010014437 0.0010681676 -0.0019005782 4.1741878e-05 -0.0005002131 -0.0014958729 -0.0011188264 -0.0017424808 0.0019633009 -0.00024915987 -0.00084922626 0.0012411429 -0.0006773487 -0.0012039071 -0.0018622729 -0.0013782557 -0.0014045776 -0.0013559454 0.00021817116 0.00057760417 -0.00061360863 -0.0010871573 0.0017381108 0.00036863098 -0.0016614321 0.0017701995 -0.00086548284 0.0004881255 0.0013954027 0.00065553584 0.0014051427 0.0016050064 0.0019644506 0.0019131827 -0.0005095785 0.0016781038 0.0019285267 0.0009489404 0.0007259126 -0.00038500282 0.00020644418 -0.0017304877 0.00010266411 0.00021893112 -0.0004521556 2.4213688e-05 0.0011639418 -0.00064583425 -0.0005265026 -0.0002692683 0.001132306 0.0008103291 0.00035302294 -0.0016707953 -0.0015206316 0.0008823201 7.0113456e-05 0.0005917414 0.0013009696 0.00077578635 -0.00069306 -0.0017121058 7.445738e-05 -0.00042174838 -0.00073748326 -7.0660375e-05 0.0005539269 0.00016652676 0.0014802313 -0.0015679086 -0.00091786415 -0.0010714077 0.0012678737 -0.0010525516 -0.00074403815 -0.0013673196 -0.0011262689 0.00066504674 -0.0018466621 -0.0016860559 -0.0019350518 -0.0018197289 0.00097594573 0.0017203067 0.0017449935 -0.0003370319 0.00082535227 1.3154e-05 0.0014281734 0.00094648893 -0.0007209132 0.0017698798 -0.0018217436 -0.00069892337 0.0019019723 -0.00059283874 0.0008192244 0.0019338538 0.0012205252 -0.0010957895 0.0002553286 -0.001010875 0.00043340656 -0.00088816986 -0.00021216657 0.0013524157 -0.0016255968 0.0015569227 -6.042316e-05 0.0015418776 0.00023622904 0.0012930073 7.317145e-05 0.0007487084 -0.0014639345 0.00032139593 0.0013190643 -0.0015361567 0.0011440511 0.0019185252 0.0001635279 0.0010658314 0.00013584946 -0.00041771983 0.0012618916 0.00015005725 -0.0011304691 0.00090849376 0.001102845 -0.00022307853 -0.0006333173 -0.00096924545 -0.0011830798 0.0007505461 0.0008557881 0.00058410433 -0.00089015916 -0.0017274297 -0.0006265044 -7.445924e-06 0.0006727234 -0.00089455233 -0.0008877085 3.1994656e-05 -0.0019362608 0.0019669256 -0.001262883 0.0015378259 0.000107388245 -0.00021526031 0.00071431976 0.000611956 0.0007229082 -0.00093454844 -0.0019191013 -0.0009471703 0.0013940316 -0.0015694578 -0.0006590419 0.0014895778 -0.0017426937 0.0012965328 0.0018636559 0.0015560896 -0.00038960692 -0.001628652 -0.00028566003 -0.00013473106 -0.0013537086 -0.0015113538 0.0014173603 -0.0008979555 0.0018059344 0.000899422 0.00062762527 0.001325717 -0.001175715 -0.00021993404 -0.0018871999 -0.0014121868 -0.00032002397 0.000910155 -0.00035911775 0.0016270576 0.0010893857 -0.0017432116 0.001627954 0.0017981103 0.0011691109 -0.00051049667 0.0012477238 -0.001045278 -0.001833323 0.0011840316 0.00032978295 0.0005301349 0.0003375071 0.00073675485 -0.0016292878 0.00040611834 -0.00050848967 -0.0015969716 0.0008811902 0.0011144883 0.00067110383 0.0018321734 -2.4999725e-05 -0.0011552717 -0.0013834909 -0.000503151 0.0013734445 -0.0006568739 -0.00081958587 0.0010215119 0.0004199259 -0.0015577651 0.0005817767 0.0011518209 -0.0013294233 0.00052711205 -0.000808961 -0.0018128488 -0.0015937055 -0.0013525435 0.001507587 -0.0011261057 -0.0016518849 -0.0019912513 -0.0012216424 -0.0004576929 -0.0019484633 -0.00023575907 -0.0011272955 2.7778558e-05 -0.0013955019 -0.00024387031 -0.0012331682 -0.0010275934 0.0008481131 -0.0006166055 0.0018925397 0.00078705 0.0006869233 -0.00061213877 0.00011964841 0.001427361 0.0019071244 -0.00039988756 -0.0007349618 -4.9034366e-05 7.007201e-05 0.00019635377 -0.00043333462 0.0004808961 -3.101537e-05 0.00085815135 0.00040983502 -0.0011255555 7.864507e-05 -0.00050129555 -0.00044024398 -0.0005849106 -0.00018747617 -0.00013174629 -0.00013528368 0.0018781198 -0.0007890024 0.0015673775 0.0005265933 0.0005099748 0.0010368177 0.000800316 -0.0019182494 -0.00038869912 -0.0013294927 -0.0015920168 0.0012911379 -0.0009480141 -0.00051153183 0.0014072126 0.0005339922 -0.0005290508 -0.00042818114 -0.0015408226 -0.0009796348 0.0011878319 -0.0002468283 -0.00064698316 0.0012149238 0.0018055167 0.0014603334 0.00053974544 -0.00013232499 0.0015381984 0.00025527016 0.0015157019 0.0011030729 0.0016217937 -0.0015468469 5.6971097e-05 0.0015506765 -0.0013031445 -0.00014003518 1.3956567e-05 -0.0014780295 0.001614775 -0.00058694626 -0.0017283524 -0.0010134375 -0.0017593184 0.00076259277 0.0009280441 -0.000735802 -0.0007154372 0.000746971 -0.0016142011 -0.0011901081 -0.00024484016 -0.0011265473 -5.4694247e-06 -0.00023703836 -0.00097107317 -0.00013388868 -0.0019963696 0.00020067999 -0.00023836014 0.0012388607 -0.00014642545 -0.0017243429 -0.0012971403 -0.0008307643 -0.0019200714 5.8459584e-05 0.00043826806 0.0006946833 -0.0016026628 0.00072170515 -0.0014092713 -0.0008804973 0.0019085181 0.000663653 -0.0015047635 0.0012203902 0.0013265635 0.00042431918 0.0009632788 0.001847771 9.631552e-05 -0.0011721503 -8.563744e-06 0.0014041369 -0.0018819917 -0.0007558699 -0.0012156675 -0.0009216869 -0.0017650004 0.001899251 -0.00046526152 -0.0010737961 -0.0010577687
Switzerland -0.00020399026 -0.0005700808 0.0016950851 -0.0018899561 0.0014062065 -0.0018327438 -0.00021585345 -0.00070143107 -0.0018802598 0.0011745533 0.000116414856 0.001299107 -0.0019832326 0.0007826651 -9.251619e-05 0.00070208986 -0.0016861754 -0.00013566134 0.0010535151 0.0017502788 -0.0001280203 0.0013953482 0.0014535389 -0.0005322335 0.0010776457 -1.11819245e-05 0.000100538135 -0.0013068431 0.0006681804 -0.001616977 -0.0010137453 0.00011555618 0.00039178343 -0.0018647938 -0.0018053988 -8.608296e-05 0.0017390149 -0.00028989767 -4.681619e-05 0.0014024812 -0.0012547579 0.0014361735 -0.0009354466 0.00079768547 0.00044630026 -6.47211e-05 0.00047562784 0.00086599146 0.0013938295 0.0017708931 0.0008427352 -6.804662e-05 0.0014796373 0.0003889536 0.00018936186 0.00061925314 0.00045818137 0.0013287936 0.0018822034 3.495277e-05 -0.0015639735 0.00062784366 -0.0013427297 -0.0017332755 0.0012650401 0.00049986155 0.0014088124 0.001252004 0.0019783073 0.0015632077 0.00059280265 0.0013422256 0.0014049844 -0.0011007751 0.0008613514 0.0015592878 0.0013450941 -0.0010131131 -6.720971e-05 0.0002859165 -0.0005321448 -0.0006877043 0.001835848 0.00086319493 0.0010053408 0.0017704272 0.0012764377 -0.0015458091 0.0017804431 0.0017789751 0.0014586214 0.0007682936 -0.00040977332 -0.0005261181 0.0009565486 -0.0017719372 0.0010684982 -0.0007868322 0.001624702 -0.0016912508 -0.0017296132 0.0017470103 -0.0019022208 0.001905086 -0.0009927927 0.0016998206 -0.00055078964 0.0005348583 -0.00071497227 0.0015222463 0.0018654421 0.00038614194 -0.0013833982 0.0016251209 0.0015018077 -0.0016542989 0.0018835405 0.0019769173 -0.0008509279 -0.0016185828 0.0015886337 0.0012887786 -0.0010043894 0.000865367 0.00057640765 -0.001458738 0.0005417594 0.00022328272 -0.0014703596 -0.001537527 0.00019594375 -0.0017763239 0.0013283081 0.0019461073 -0.0003580544 0.0006122652 -0.0009749329 -0.0002934744 0.0011152555 -3.337511e-05 -0.00071424514 -7.390615e-05 0.00079121324 -0.0018852378 0.0015765443 -0.00026823685 -0.000952921 0.0006666479 -0.0008012941 -0.0012298544 0.0017611459 0.00014354568 0.0018844416 -0.0012953626 0.00075416453 0.0016765504 -0.00028388982 0.0011482215 -8.114148e-07 0.0016105203 -0.00035327394 0.0011539026 -0.00059515855 0.0010820832 0.0006526564 0.00027793366 -0.00039589673 -0.00031412148 -0.0013391905 0.00064952485 0.0019941016 -0.0016528715 0.0009770279 0.0018182502 0.0019774043 -0.000109552406 -0.0018418198 0.00060222344 0.00072395266 0.0008478032 0.0017730086 0.00086033787 0.00018863846 0.00029367022 -0.0002716859 -0.00069134694 0.0017356537 -0.0013587445 -0.0015948678 -0.00038346555 0.0016226745 -0.00094343314 0.0014681607 0.0006947727 0.000977851 -0.00023120001 0.0013319056 0.0003228695 -0.0014387413 -0.0007434373 0.0005277563 -0.0012790048 3.5832403e-05 0.0009715557 -0.0012710367 0.00078460714 -0.00081194646 0.0007934957 -0.0009770602 0.0008763231 0.0012569227 -0.0018600443 0.0016836904 0.0009709366 0.0017412964 0.0004935872 0.00045727426 0.0018202763 0.0005146458 0.00013583293 0.001815568 0.0013567803 0.0004909325 -0.0015268922 -0.0012662406 -0.0019900762 0.00023270259 -0.0006535428 0.0012877919 0.0012234007 -0.0016948436 0.0003493214 0.0011618526 0.00061963266 0.0011750993 -0.0007961772 -0.0016175638 -0.0015311459 -0.00014985749 -0.0019032758 -0.0008694804 -0.0005563472 0.0011191287 -0.0009210969 0.0013049508 0.0005040432 -0.0016443433 0.00097632734 -0.00093777967 -0.00095884374 -0.0006426566 0.0014197305 -0.0011266897 0.0013708596 0.00037975493 -0.0018307918 -0.0016865936 0.0016384544 -0.0010699618 -0.0011475898 0.0012780391 0.0019208642 -0.0009656425 0.0005243041 0.0016930089 -0.0010485698 -6.903813e-05 -0.001026639 0.0011960668 -0.0016424459 -0.0010785301 0.00090512424 0.00011620554 0.0013980176 -0.0008279886 -0.0005638497 0.00045720953 -0.0015976141 0.001996246 0.0015368336 0.0014559103 0.0017455386 -0.0004902311 -0.00018392107 0.0008705065 0.00016307551 0.001040146 -0.00014923187 -0.001138824 -0.0002621553 0.0011661393 -0.0007762294 0.0002430887 0.0019043293 -0.00014644314 -0.0012712963 -0.0006746524 -0.0011609292 0.00082775066 -0.0015457474 -0.00052678585 -0.00034163264 -0.0013669273 -0.0016326944 0.0016268801 -0.00074272614 0.0017329864 -0.0011076797 0.001420401 -0.00030338694 -0.0016736119 0.0016956471 -5.636597e-06 0.0010879412 -0.0015965386 0.0006505875 -0.0006221974 -0.0006508952 -0.0003367965 -0.0017737909 0.0007077793 -0.0017181428 0.0004660706 0.00032915897 0.00015414762 0.0002708705 -0.0007332716 -0.0017820648 -0.0018552879 -0.0003877714 0.0019240326 -0.0009134541 0.0007400552 -0.00090125634 -0.0016367475 -0.0014026333 -0.0012540007 0.0002449376 0.00059907255 -0.00044384366 -9.804149e-05 -0.0004112292 0.0014176497 0.0016296625 0.0001717722 9.493204e-06 0.0006133595 -0.0014408994 -0.00033255364 -3.0050986e-05 0.001999046 -0.0008900472 0.00031522615 -0.0014943134 -0.000987927 0.0015752709 -0.0012536603 0.0007060026 -0.0012293267 0.0009041326 0.0005320811 -0.0005911868 -0.0015038732 0.0010184585 -0.00044032198 -0.00078798155 -0.0017383976 0.0018765465 -0.0003767584 0.000323134 -0.0011636541 0.00046008383 0.001243402 -0.0011385225 0.0012332851 -0.00053629326 0.0019096283 -2.2028107e-06 0.00013953168 6.616744e-05 -0.00018830085 -0.0005298129 0.001908825 -0.0009441093 0.0015292789 -0.00087070116 0.0012873798 -0.0010665504 -0.0007705984 -0.0010089 -0.00037681893 -0.0018645795 0.00035583228 -0.00071545225 -0.00073663925 0.0016362199 0.000774096 -0.0014035574 0.0018633341 0.00059807114 -0.001792985 0.0012005984 -0.00021294923 -0.0013281723 0.0018531971 -0.0019983985 0.0014091509 0.0006311645 0.001072014 0.0012398008 -0.0004271419 -0.000106991036 0.00068915985 0.0007733889 0.00010726135 -0.0014644854 -0.0018458572 -0.00017137767 -0.0003344674 -0.0016029984 0.0016944739 0.00082675926 0.0003535049 -0.00034331565 0.00087438105 -0.0012700141 -0.0009624129 -0.0006899197 -0.0005754557 -0.0010990663 0.00022192905 0.0019778132 -0.0019475955 0.0013655405 -0.0011138082 0.0009132237 -0.0012063992 -0.00039557368 -0.0011474517 0.001736599 -0.00029132224 0.0013507952 -0.000117840245 0.0019152232 0.0002916362 0.0014353748 -0.0010617791 0.001546337 0.0018621869 0.00046221865 -2.7322676e-06 -0.0017595435 0.00092501333 -0.0014350725 -0.001477421 -0.0010307883 -0.0015648056 0.001771173 -0.00023869867 -0.0016568378 -0.0016294981 0.0013553014 -0.0014121193 -0.0011231919 0.0018839499 -0.00015119533 -0.00039517356 0.0007604966 0.0014419241 0.0010814639 -0.0012700289 -0.0004907107 0.00043238048 -0.00020686293 0.0006830718 0.0011169992 0.0011174504 0.0014242206 0.0006411744 0.000996724 0.0016443003 -0.001170692 -0.001976711 -0.0011781303 -0.00014638377 0.0006759078 0.00039208285 0.0014773593 0.00070267613 -0.0018622783 0.0015806525 0.0013663177 -0.00032712508 0.00071563385 -0.0013227204 -0.00023560377 -0.0005292676 -0.0010612991 0.0002480219 0.0017862064
Cairo 0.0005159674 -0.0011186642 0.0004866072 0.000824515 0.0016515225 3.9525097e-05 0.0012681966 -0.0010582932 0.00079646125 -0.00045137643 0.00084207393 -0.0008737877 0.00050252 0.0015453137 -6.020337e-05 -0.0016827098 0.00030938047 0.0007861615 4.7797337e-05 0.0006362158 0.00027071708 0.0013001666 0.0006732256 -0.0018846367 0.0013454419 0.001457171 9.016995e-05 -0.0011532854 0.0016880308 7.3398696e-05 0.0018748476 -0.0017303556 -0.0015880576 0.0011787452 0.0007529068 0.0011068943 -0.0017146133 -0.00111429 -0.0013090733 0.0005332944 0.00024999725 1.37789175e-05 0.001188057 -0.0019469195 0.000114380615 0.0016663778 5.1069772e-05 -0.0005468355 0.0008413452 0.0005164426 -0.00036146503 -0.00070004107 -0.0011723097 -9.2441565e-05 0.0015941418 -3.556651e-05 0.0015029493 0.00050181826 -0.0007900045 0.0003239517 -7.3873554e-05 0.0017220834 0.0012067775 -0.0009772327 0.0017306397 0.0017570956 -0.0014288384 0.00078740646 -0.0010216932 0.00073216786 0.0017755134 0.0015099547 0.0015112134 0.00048309308 -0.00040738226 -0.00059416366 0.0007931141 -0.0013722924 -0.0018630855 -0.00073753786 -0.00081853324 0.001659727 0.0019037528 -0.0005947376 0.0012229979 -0.0019962392 -0.00036395644 0.00050249696 0.00013485411 0.001957419 0.0007821878 -0.00013422233 0.0010753423 0.0015312093 -0.0007564896 0.0001471662 -0.00011159829 0.000108869746 0.0015710476 -3.2627257e-05 0.00030262652 0.001007189 -0.00040339737 -0.0010037943 -0.0015913493 0.0011561008 0.0012207583 -0.001058633 0.00030698 0.0012591702 -0.0002510586 -0.00076070626 -0.00018612319 0.0012401172 -0.00064342865 0.001701725 -0.0003548849 0.0007070224 0.0011823988 0.00019017654 -0.00026826793 -0.001677955 -0.0016455561 -0.0017768692 0.0011499217 -0.0017048247 -0.0008628641 -0.0012609098 -0.00033546286 -0.0012266485 -0.0018009017 -6.53615e-05 0.00068883155 -0.00036796764 -0.00094830256 0.001261651 0.00166714 -0.0009628404 8.280249e-05 -0.0016167682 -0.0018525296 -0.001821148 0.0001259374 -0.0008146021 0.0002933524 -0.0001024144 0.0014558902 -0.0011637369 0.00067959516 0.0019134253 5.6110322e-05 0.00061003445 0.0013180235 -0.00030163676 -0.0015409718 -0.0018382142 -0.0006164606 -0.0019123376 0.0004996313 0.0003142741 0.0014265543 -0.0006658955 0.00043632323 -0.0011146113 -0.0016183248 -0.00065501814 -2.7441187e-05 0.0013373522 0.00040467083 -0.0010500987 -0.0017466908 -0.0009703579 -0.000121206744 0.0005636881 0.00087079406 -0.0014929434 0.0011051476 0.001509785 -0.00019846554 -0.0015472103 0.00012903684 0.0011937078 0.00043838122 0.0011031539 0.0009245435 6.9914386e-05 -0.0014363374 0.0018384871 -0.0017366274 -0.00023685838 0.0007273648 0.001060593 7.195771e-05 0.0017615093 0.0017030744 2.0355918e-05 0.0017285591 0.00070644077 -0.00060957624 0.0012604836 0.0010229526 -0.0011712435 0.0010231272 0.0001653491 0.0018674491 -0.0007581974 0.0011721011 -0.0015270682 -0.0014241512 0.0003484052 -0.0010708584 0.0011696178 0.0005613279 0.00060879835 0.0003693963 0.0019304652 7.609418e-05 0.0007933676 -0.0008562796 0.0009738277 0.0011237036 0.00017287256 0.0009535961 -0.0010281878 -0.00072489714 -0.00056429196 0.0009600788 0.001496566 -0.0009922965 0.0018284253 0.0003504085 0.0019211702 -0.001925578 -0.00044549082 0.0007442143 0.0018752448 -0.001338533 -0.00018358917 -0.0015716661 0.0016246468 -0.0009970651 -0.0011400739 0.0008693184 0.001632743 -0.001674064 0.0016373389 -0.0018674778 -0.001061762 0.00043215137 -0.0008845952 -0.0010635506 0.0018338126 0.0011196593 -0.0017941238 0.00078399153 -0.00032970763 -0.00057015044 0.00024556043 0.0013309994 -0.0019917942 -0.0011512628 0.0014497743 -0.00016127306 0.0010602805 0.0018091928 0.0010925657 -0.0017329508 0.0016272019 0.0018158618 0.00024988572 -0.00070545776 0.00070885266 -0.00070598396 0.0019069284 0.001972737 0.0016820901 -0.00020080013 0.0018845694 -0.0009832745 -0.0019065097 -0.0013749092 -0.0019420544 3.408827e-05 -0.00065657566 0.000849745 -0.0008882375 0.0010530706 0.0011886922 0.0014139502 -0.0009986821 0.00084792124 0.0016911204 0.00068835635 0.0015897909 0.00020800508 -0.0008801026 -0.001570556 0.001213769 0.00036321324 0.0015903846 -0.0019991735 0.0014160345 -0.0006597993 -0.0005642844 0.0014721877 0.0016555637 -0.0010806936 -0.0019065466 -0.0008800321 -0.0004224854 0.00037088315 0.0012177969 0.0019205466 -0.0015572618 -0.0006316834 0.001725479 0.0007876975 -0.0019851157 -0.00016041636 -0.00031810068 0.00053768535 0.00078930403 0.0018048685 0.00091264816 -0.0004366358 0.0014076591 -0.0003390346 -0.00046925142 0.00041597267 0.0018662612 -0.0013099142 0.00039401161 -0.0014690214 0.0016479143 0.0004790146 -0.0005390487 -0.0017729338 -0.0010428475 0.0008624315 -0.000359277 0.00051251124 -0.0017530373 0.00064772135 -0.00091393164 -0.0017064126 0.0012832864 0.0003223447 -0.0008142736 -9.662961e-05 0.0015475857 0.00017937273 4.8303744e-05 0.0003086538 -0.00097407436 0.00045972946 -0.0010527258 -0.0012478884 0.0011349779 -0.00013034011 -0.00075457024 -4.972529e-05 0.0014999625 -0.0004375074 -0.0010453458 -0.00048574118 0.00062521757 0.00014788355 0.0008506656 -0.0017369844 -0.00074662 0.0009609612 -0.0007537621 0.0014235168 0.000351212 0.001996707 0.0015374229 0.001576615 -0.0006123603 0.0005004641 0.0004393037 -0.00071243837 -0.001560144 0.00033430732 0.0007544677 -0.0008544746 -0.0013671849 0.0016450202 -0.001229326 -0.0015339657 0.00015890645 -1.2744684e-05 -0.001307616 0.00086660567 0.0015735778 -0.0018123228 0.001741901 -0.0013155099 -0.0009623333 -0.0011999632 0.0012267353 -0.0016923889 -0.00016625714 0.00090138754 -0.0016459487 0.001202446 -0.00014656188 -0.0016778556 -0.00011665223 -0.0005862337 -0.0005327995 0.0009210559 -0.0018797857 0.0001667554 0.0019018403 0.0004197869 0.00056916405 -0.00040091993 0.00046963268 -0.0002473495 -0.00024566124 -0.0015944772 -0.000389901 -0.0017786792 0.00078613544 -0.0018822484 -0.0005663781 0.0014431109 0.0001994595 -0.0008803556 -0.0010763207 -0.0010212618 -0.0010836013 -0.0014234446 0.00097588473 -0.0012097463 0.00095916423 3.9590523e-06 -2.8356211e-05 -0.0014565424 -0.0006003254 -0.00027568848 -0.0019424759 -5.9287995e-05 -0.00064082746 -8.1351725e-05 -0.00052960136 -0.0018703536 1.2442702e-05 -0.000657646 0.00060974644 -0.0013573028 0.0019686443 -0.0004280219 0.0019456053 0.0015780914 0.00032055192 4.6118163e-05 -0.0005090132 0.0005641647 0.00012618629 -0.0005633555 -0.00047007564 -0.0010438691 0.001444276 -0.0012058786 0.0013126794 0.0003086764 0.0014873953 -0.0012870079 -0.0010184925 -0.0012829248 0.0016331654 0.00012525055 -0.00083373906 0.0018304137 0.0012735873 0.0011134914 -0.0011550535 0.0008336005 -0.0012853427 -0.00067354296 -0.0012725838 -0.0016354822 -0.0018224865 -0.00058622286 -0.000705441 0.000668969 -0.0010171114 0.0006827377 0.0011414762 0.00010350603 0.0012599623 0.0016128542 -0.0010409155 0.0007726827 0.0012508011 0.0010823333 0.0014953546 0.0017685227 0.000589201
Egypt 0.0012452696 0.00079578673 -0.0013677326 -0.0012444104 -0.0013417173 0.0012635975 -0.0008302083 -0.00022328761 -0.0005140316 -0.0015819925 0.0010180031 0.0007991693 0.0014141235 1.4595222e-05 -0.000569773 -9.5623545e-05 -0.0015006652 -0.0013338018 -0.00084022887 0.0017497304 0.0013444296 -0.0011708592 0.0017982742 -0.0017076521 0.00085717486 -0.00085337553 0.0005412565 0.0016218727 -0.00041530922 0.0010176091 0.00036577578 -0.0009436072 -0.00036345364 0.001356456 -0.00028956705 0.0019058217 0.00036372407 -0.00067641144 -0.0001203561 0.0014364955 0.0003450592 0.0006530946 -0.00021648523 0.00194584 0.0010945762 -6.5676635e-05 0.00021981867 -0.0014575585 -0.00062213617 0.0007246039 -0.0014613061 -0.0015717247 -0.00023351645 -0.0006871128 0.0008709412 -0.00024105143 -0.0009735472 -0.001562712 0.0005222473 0.0004695959 0.0009295563 -0.0014347811 -0.0012154942 -0.0014490942 -0.0012785641 0.001845856 0.001739467 0.0012541567 0.00082746847 -0.0013484505 0.0015286035 0.0016502067 0.0015071542 0.0011908265 0.0009403578 5.4252334e-05 -0.0019195739 -0.00037325267 0.0006908688 0.0014616705 -0.0013616596 0.000669084 -0.0004533541 -0.0017852241 -0.0010304974 0.000980506 -0.0007935236 -0.0019333635 -0.0007808397 0.00015055388 0.0019140311 0.0012170167 0.0011327956 0.0019297607 0.0016793695 -0.00014377455 0.00029403903 -7.138273e-05 2.4200883e-05 -0.0011506176 0.0010829638 0.0014852579 0.0011984415 0.0009692551 0.0006563063 -0.0007191759 0.001261017 -0.00083104975 0.0016640946 0.0018157365 0.00036348356 -0.0010402112 0.0017150149 0.0017367976 -8.082134e-05 -0.0008649626 0.0018567564 -0.0016277605 0.00027315156 -0.0013213647 -0.00064107846 8.172053e-05 0.0014774229 -0.001793023 -0.00031514617 0.0015312999 0.0009277144 -0.0012822235 -4.329998e-05 0.0019582447 -0.00012786267 -0.00086151797 0.00014953478 0.001939452 -0.0004847563 0.0005187469 -0.0014206553 0.0014060342 0.00082388916 -0.0011626638 -0.0004609893 -0.0019950916 0.0003899238 0.0018157884 -0.0011896079 -0.0019075354 0.00058354647 0.0013852257 -0.0010885318 -6.632134e-05 -0.0011462537 -0.0016474557 0.0006412596 -0.0013002742 0.0011178518 -0.0018867463 -0.000696616 0.001966735 0.0011977225 -0.0015726989 -0.0014643291 -0.001712025 0.00088045676 0.001331107 -0.0005595804 0.00084096007 -0.0009776133 0.0013333794 -0.001933811 -0.0010158346 0.0019290519 0.0014206895 0.0012061042 -0.0009922629 -0.0007490172 -0.00079110265 0.0002360919 -0.00017066533 0.001262106 -8.545804e-05 -0.00024335238 0.0015002575 0.0018053248 0.0006108731 -0.0006671429 -0.00037472777 -0.001108847 0.00019024173 -0.0014127904 -0.00024255586 0.0016976278 0.0019849834 -0.0019306737 0.00015634531 -0.0016891516 0.000453213 0.00086196465 -0.0010826602 -0.0010571026 -0.00061742566 0.001610222 -5.99504e-05 -0.0016777499 -0.0013488897 0.00024461164 0.00025650417 -0.00041603204 -0.00021331187 0.0015986781 0.00025067735 0.0013070146 -0.0015540054 -0.00084934686 0.00023819134 0.00060079293 0.0015508907 -0.0010439511 -0.0010455332 -8.3047664e-05 0.00054303533 0.0011118895 0.0003082105 -0.00014499598 4.6492787e-05 -0.0015487254 0.00022159191 0.0010332819 0.00051822234 -0.0016251181 0.0013462163 0.0009039929 -0.0014208325 0.0012468433 -0.00020341773 -0.00037089107 0.0015171007 0.0013921496 -0.0008730071 0.00033544912 0.0015148374 0.0015547869 -0.0007839048 0.00037191878 -0.0009643538 0.0017633205 0.0019755994 0.00055592717 -0.0019469422 -0.0009316349 -0.0011814078 -0.0013063294 -0.0017299956 0.00091455225 0.000996625 0.0018498588 -0.00091139367 -0.00048851373 -0.0012164128 -0.000108431326 0.0008314268 0.0007429521 -0.0003952334 0.0010523298 -0.00034128595 0.0006758135 -0.0013913241 0.0017765996 0.0016623696 0.0018761205 -0.0010098494 0.00044201105 -0.0007016392 -0.00072415115 -0.00048107223 0.0016839711 -0.0015159026 0.0013297126 -0.000104914885 0.0013961771 -0.001503764 0.00065884995 0.0001899798 0.00036421698 0.0019353104 -0.0009902435 -0.001443509 3.1307805e-05 0.0012733527 -0.0009893836 -0.001978565 0.00023021712 -0.001107378 -0.00011185976 -0.00096412736 -0.000210408 0.0006170871 -0.000402731 -7.435179e-05 -0.0014530199 0.0004330806 -0.0014767414 -0.0007386273 0.00022460124 -0.0016245345 -0.0018526865 -0.0011051436 -0.0019694846 0.0012004587 0.00078408094 9.706337e-05 0.0007891224 0.000530774 -0.00018158217 0.001479211 -0.00014145498 0.0010667634 -0.0008018041 0.0018602805 -0.00027428323 -0.000740058 0.0016379289 0.00014290842 0.00095885573 -0.0016562287 -0.0019222286 -0.0015257018 0.00090082246 0.0016497255 -0.0019882384 -0.001496234 -0.0013916728 0.0010534816 0.0016661237 0.000118476106 0.0012830382 0.00084740133 -0.000112629845 -4.9338327e-05 -0.00012095098 -0.0017947245 0.001905526 -0.0013163434 -0.00084660726 -0.0015912245 0.0005003442 -0.0007453599 -0.00075589994 0.00037929113 6.7195855e-05 0.00018858025 -0.0013948341 -0.0016782287 0.001253831 -0.0018993753 -0.0012717452 -2.3843255e-05 0.00029796618 -0.0005024035 -0.0017018106 -0.00042557123 -0.0005495632 0.00029564183 0.0012809171 0.0014216395 0.0011754052 -0.00022902829 0.0004665251 -0.00082204654 -0.00017418386 -0.0016926854 -0.0007767249 0.0012204896 -0.0013519225 -0.00066810823 0.0014184171 0.0004615048 0.00071202335 0.0003030952 0.0018226709 -0.00064713263 -0.000157809 0.0010150115 0.0011603569 -0.00028893398 -1.6616192e-05 0.0004207464 -0.0002701442 0.0017351122 -0.0003406403 -0.00084138114 -0.0012978851 -0.0017876454 -0.0008173423 -0.0019915514 -0.0008635896 6.529922e-05 0.0008030995 -0.00033132464 -0.00025419495 0.0005788023 0.001066003 -0.0018361979 -0.00045952015 0.00013243756 -0.0006858574 -0.0016140679 -0.0009021569 0.0019721033 -0.0017382914 0.001972133 0.00020832662 -0.00021438906 -0.0008607984 -0.00028812676 -7.821445e-05 -0.0019421271 -0.0008827859 -0.00027137424 0.0013514503 -0.0013061675 -0.0016563123 -0.0001782017 0.001247328 -0.00045236165 -0.00028523593 -0.0017617968 -0.0015691522 -3.883685e-05 0.0012799881 0.0015337064 0.0016220857 0.0012936348 0.0009935943 0.0014707115 -0.0015164001 6.3234475e-06 0.0016505036 -0.001745635 0.0009816433 -0.0014436761 0.0012632357 -0.000511457 0.0014389057 0.0003283345 -0.0016745845 0.0012774663 0.0016975752 0.0013827884 -0.0012047661 0.00038993056 -0.0008845015 -0.00072730135 -0.0009379833 -0.0006003482 -0.0014276938 -0.0018207749 -0.0011966333 -0.0004439283 -0.0003826347 -0.00061955885 -0.00084248814 -0.0011822114 0.0016438228 -0.0008829081 -0.0014257387 -0.0015418387 0.0003564835 -0.0011229613 -0.0010148853 -0.001321508 0.0011279953 -0.0009032646 0.00094947405 -0.001484758 0.0011849583 -0.00058993814 -0.0018279096 -0.0006773983 0.0015382764 -0.00076089625 -0.00137456 0.00079282233 0.00073313736 0.0013043021 0.00041779992 -0.0003716438 0.0019578126 0.0002308446 -0.00030312967 0.0014406943 0.00015453203 0.00054397224 -0.001185307 -0.0007788928 0.00083847204 0.0009889319 0.0015259497 0.0004703526 0.0014987029 0.0018371488
