408 500
Athens 0.030317988 -0.031195361 0.03141148 0.028586742 0.028707001 -0.030885717 -0.030265177 0.030295862 -0.03133715 -0.029498676 -0.03340769 0.029318491 0.03237824 0.0313593 0.03154897 0.030954327 -0.030098157 -0.030092746 -0.033066485 0.033191863 -0.033281643 -0.026609218 -0.034173153 -0.030270007 0.032198664 0.033219643 0.029336683 0.034444913 -0.0329436 -0.02347688 0.031026164 -0.03136491 0.030659838 0.03349305 -0.023366438 0.024903268 0.030873036 0.032543663 -0.033510413 0.033152007 -0.029677585 0.028881205 0.031427275 0.025984455 -0.027669625 0.03189739 -0.03150171 0.024485392 -0.028655501 0.032208644 -0.03043682 -0.032345068 -0.030502647 -0.03416218 -0.026192877 -0.029329227 0.031090342 -0.028673148 0.029826965 0.029674524 0.03226763 -0.029063907 0.031376537 -0.032937404 0.032698188 0.0339665 0.030910546 0.029042555 0.033422485 -0.029783223 -0.028029487 -0.029841471 0.032054268 -0.029254831 0.0329191 -0.029727068 -0.030209245 0.0337545 -0.03085191 -0.031698734 0.03369764 0.031425245 0.030154502 0.03117775 -0.030222923 0.030916067 0.03294619 0.03183869 -0.02933875 -0.030455248 0.032580383 0.030995002 0.026546178 -0.029731976 0.028381363 0.023644576 0.029814947 -0.030225432 0.029616144 0.029712042 -0.032904048 -0.029644022 0.030623356 0.03122582 0.032530583 -0.023720242 0.03386795 0.032820236 0.029422544 -0.03194247 0.029825421 -0.029664671 -0.03247118 0.03368461 -0.031772774 -0.033270437 -0.02987987 -0.033248838 0.032839272 -0.031517766 -0.032045517 -0.026773807 -0.029932357 -0.03269602 0.022955153 -0.033178695 0.029511679 0.032547798 0.026584748 -0.03126339 -0.030201586 0.026873674 0.033618208 -0.03215402 0.031416208 -0.031479184 -0.03162325 0.028006278 0.03314066 -0.031689726 -0.029735655 -0.02436011 -0.033449814 -0.032913525 0.031846937 0.026161686 -0.028799998 0.03282505 0.029014237 0.017165834 -0.030797891 -0.029754639 0.032786746 -0.0303753 0.032072883 -0.030074647 0.032504406 -0.03027408 0.032540582 -0.027454127 0.033042178 -0.032546077 -0.030698827 -0.031447336 0.031612284 0.032496054 0.029352475 0.032384295 -0.032762773 -0.0290088 0.03154586 0.031115081 0.030767899 0.03004823 0.03228139 0.033458363 0.0285026 0.032572 -0.02807459 -0.033341747 -0.03227183 -0.029681437 -0.030758297 0.033956587 -0.03365571 0.027840195 -0.029113134 -0.028146079 -0.03293631 0.03299685 -0.03365776 -0.032919824 0.022458 -0.030221824 0.03055975 0.029482866 0.032054808 0.032841917 -0.026044624 0.03089157 0.030330025 -0.028574985 -0.027487468 -0.03365167 0.03150775 0.019600911 -0.025827432 -0.029305996 0.029866597 0.030796142 -0.03242892 0.03087599 -0.030612292 -0.03271146 -0.034315273 0.03283358 0.02939695 0.029228687 0.016509753 -0.030484574 0.03257284 0.030264203 -0.030475825 0.030628707 -0.029523028 0.032436974 -0.03116028 -0.006657959 -0.027505415 0.0293162 -0.03381376 -0.028940449 0.030612478 0.0322466 -0.029930236 0.02785543 0.031908266 -0.029797439 -0.031684943 -0.031480107 -0.031405326 0.032165922 0.029667502 -0.03230816 -0.03190446 -0.031751994 -0.032629084 0.034016177 0.029107738 -0.03244327 0.03240349 0.03386815 -0.02932898 0.029559316 0.034223467 -0.029786564 0.03159306 -0.033112846 0.028365767 0.032790195 -0.031697817 -0.033503376 -0.032301344 0.02919319 -0.032111593 -0.03287821 -0.030096669 0.03240194 0.033837307 0.029713238 -0.032228194 0.03154854 0.03439805 0.026645971 -0.031787142 -0.028025039 -0.03274271 0.03000264 0.029864857 0.03243744 0.025069004 -0.029388916 -0.033574063 0.032025076 0.029846668 -0.03112327 -0.030523665 -0.031504605 0.025749248 -0.0307604 0.032332912 0.026845174 -0.03058822 0.033456154 -0.031214062 0.03313715 0.032188203 -0.030082008 0.03123123 -0.0338193 -0.03147227 0.02263488 -0.027341004 -0.027931778 -0.030592646 -0.030520685 0.03425007 0.028811581 0.033241544 0.03164702 -0.030023139 0.033316795 -0.03254934 -0.033270735 0.032741286 0.033166632 -0.03131774 -0.031020407 -0.02997143 -0.030807303 -0.032914124 0.03150071 -0.029949356 0.02845318 0.01466491 0.030221686 -0.03183794 0.032816466 -0.028268473 0.019968215 -0.025916273 0.032920074 0.031143775 -0.034117717 0.027785059 0.02908418 -0.029396882 -0.033171866 0.029647978 -0.031133521 -0.031922027 -0.032227803 0.030109474 0.033116188 0.02953258 0.031396806 0.032467872 0.02875544 -0.029552214 -0.028057633 -0.032659255 -0.032834806 0.030843096 -0.029729543 -0.031106414 -0.03155108 -0.028281307 0.031225577 0.029265182 0.02945844 0.03229254 0.030894723 -0.028225377 -0.030812861 -0.033067096 -0.025147589 -0.025490733 0.018584184 -0.03163641 -0.032031033 0.03306169 -0.009311576 -0.030311242 0.033445068 -0.03309275 -0.031510044 0.03417262 0.029512236 -0.029665269 -0.032176003 -0.009331354 -0.030434608 0.030216463 -0.03311491 0.03044051 0.03304872 0.031212086 -0.031400207 -0.030538872 -0.031927712 -0.0285691 -0.032180827 -0.03072376 0.03157481 -0.03279632 0.03281963 0.02394283 0.03085982 0.028025923 -0.030482208 -0.030498298 -0.030453186 0.034437895 -0.03243062 0.021610098 0.03068466 0.029948995 0.030202178 0.026274618 -0.030747024 0.022234365 0.03259969 -0.029071487 0.029627841 -0.033436317 0.029860802 0.03220439 -0.033355635 -0.03129344 0.027566832 0.03130102 0.029674934 -0.026623644 -0.026840825 0.03136029 -0.03039709 -0.031702533 0.02989456 -0.030598378 -0.032309964 0.025197703 -0.03322498 -0.03222948 -0.0315032 -0.031791475 0.032991037 -0.03232139 -0.02913051 0.030211562 0.03199516 -0.030378403 0.029754777 0.02788444 -0.032079265 -0.03289941 -0.033792175 0.028828228 -0.032421768 -0.030488089 -0.03194602 -0.03116636 0.033351004 -0.0289629 0.034593213 -0.032499433 -0.029764215 0.03426092 -0.025992718 -0.027297297 -0.029299665 0.033197545 0.033061877 -0.025737293 0.028340535 0.027330512 0.033039037 -0.02982605 -0.031988643 -0.027564455 0.029847411 -0.030633364 -0.029812176 0.03175095 -0.033923306 0.029524386 -0.03039167 0.034001123 -0.033768255 -0.0286961 0.031392537 -0.032773763 -0.030730736 0.032674477 -0.03181608 -0.033435605 -0.03237529 0.032101154 0.032669272 0.03285485 0.029826632 0.032798726 -0.03151671 0.029902983 0.026581557 0.029881315 -0.031606402 -0.020215472 -0.031877596 0.030524904 0.034002192
Greece 0.035454154 -0.03627906 0.034209978 0.03898302 0.033218488 -0.03646074 -0.038072392 0.03235827 -0.036698487 -0.033270463 -0.028540846 0.035241768 0.035904866 0.036530413 0.03077013 0.033462904 -0.03376961 -0.03271427 -0.033170898 0.03543551 -0.030190615 -0.03332713 -0.029836003 -0.034250524 0.028428445 0.03603424 0.033413365 0.029788505 -0.0315048 -0.031669255 0.03817712 -0.031881824 0.028782781 0.032926273 -0.033067606 0.03841347 0.036254145 0.037117444 -0.033231284 0.032327842 -0.03191071 0.03299502 0.033124756 0.029725969 -0.031060304 0.034973156 -0.033820946 0.027553855 -0.03176301 0.035112884 -0.03309188 -0.033038877 -0.03421289 -0.031482898 -0.034039367 -0.035614327 0.034459244 -0.037955657 0.034726273 0.031641893 0.030824037 -0.036421027 0.03023292 -0.031559713 0.037312545 0.036331404 0.029975986 0.028751073 0.034046747 -0.03773187 -0.034784697 -0.03554497 0.03255014 -0.036149044 0.035607934 -0.035862155 -0.03457932 0.035353117 -0.033149447 -0.036634136 0.036394812 0.034020036 0.03346121 0.034295216 -0.03151981 0.03929906 0.033677746 0.036787193 -0.025449328 -0.031771395 0.037088476 0.037697736 0.03136296 -0.029717518 0.03395967 0.026485862 0.038486745 -0.03721923 0.03518033 0.037458565 -0.034428813 -0.03383467 0.032164786 0.028958255 0.031016413 -0.035866562 0.035777546 0.03386122 0.037800323 -0.035385866 0.030132538 -0.036296863 -0.02997771 0.033783037 -0.03363289 -0.033291858 -0.036439974 -0.03447252 0.03073619 -0.029113756 -0.036179915 -0.02940171 -0.032282926 -0.03491279 0.033427533 -0.03329498 0.037248146 0.034846134 0.026228495 -0.03812484 -0.035889253 0.037107743 0.03430581 -0.03354453 0.034059584 -0.032083467 -0.031569846 0.03721476 0.033184484 -0.030716028 -0.037148494 -0.023348194 -0.036721416 -0.03088004 0.032788236 0.033590272 -0.032573402 0.03435036 0.029335607 0.020889297 -0.032607134 -0.037344392 0.03367361 -0.03268356 0.032240584 -0.034596004 0.037100606 -0.034195673 0.033137243 -0.03417526 0.03652118 -0.030844549 -0.035326105 -0.0361998 0.036969934 0.033669412 0.027270654 0.033195697 -0.03630444 -0.036304582 0.035493106 0.033024948 0.037575044 0.031283014 0.035675157 0.035395797 0.033661004 0.035843417 -0.036304988 -0.035316892 -0.03201475 -0.032828007 -0.031811934 0.031248659 -0.03702032 0.03277957 -0.032287043 -0.034799553 -0.03406729 0.032598328 -0.03648127 -0.036794417 0.035016038 -0.03285952 0.032682497 0.0312083 0.035985988 0.034863662 -0.034570765 0.033891737 0.03655855 -0.035345886 -0.03648841 -0.033486716 0.030662017 0.029326847 -0.03495929 -0.033960734 0.031488944 0.03673623 -0.03879094 0.034111395 -0.03396095 -0.032106366 -0.032655712 0.03809577 0.035221506 0.034215227 0.022803783 -0.033296406 0.03492389 0.037897613 -0.035759766 0.034129422 -0.033346366 0.03916926 -0.03651111 -0.017629087 -0.03645158 0.038659442 -0.03164188 -0.033137877 0.03267343 0.036355272 -0.03235457 0.034717865 0.037196476 -0.032518376 -0.03604635 -0.034753747 -0.03240069 0.036153436 0.037378155 -0.034168925 -0.03133732 -0.031688545 -0.032173034 0.031490188 0.035093762 -0.03875142 0.034937836 0.03250059 -0.033109307 0.037144464 0.031442393 -0.035376903 0.035445612 -0.036135495 0.03750981 0.036185637 -0.03321598 -0.0327345 -0.03886529 0.034515668 -0.038582414 -0.03107025 -0.03351038 0.03417132 0.033873416 0.034118973 -0.03071529 0.033846248 0.03442093 0.032101907 -0.03910272 -0.03688928 -0.033734985 0.034682836 0.038613327 0.034525644 0.025823727 -0.035848446 -0.034769822 0.03668701 0.038912572 -0.036819387 -0.032816123 -0.037156425 0.028775036 -0.031894997 0.034210864 0.036738716 -0.03713766 0.036069017 -0.036717463 0.031397797 0.033264626 -0.03750015 0.034802433 -0.033263013 -0.036654364 0.020111304 -0.034811553 -0.030214576 -0.03436518 -0.036054917 0.03422439 0.03714167 0.038725484 0.033815134 -0.030841758 0.033081725 -0.03371963 -0.031589773 0.036064778 0.03532625 -0.036726486 -0.037153248 -0.03703874 -0.03519809 -0.03864928 0.034778822 -0.032109812 0.032177523 0.027473362 0.037926525 -0.034994017 0.03318779 -0.03467849 0.02923097 -0.03688034 0.035533145 0.03664368 -0.03739411 0.029080156 0.032845642 -0.03441496 -0.035167336 0.03418836 -0.03594208 -0.03471723 -0.03002501 0.03169765 0.031488158 0.03409918 0.035097558 0.03533784 0.03417247 -0.034388356 -0.037034873 -0.03509759 -0.036142994 0.029851984 -0.03503568 -0.03676076 -0.035387117 -0.03680674 0.03307315 0.034216378 0.03466142 0.033343725 0.036296643 -0.029353023 -0.0318588 -0.035954982 -0.028619517 -0.033705927 0.024778701 -0.035130743 -0.034367852 0.031110732 -0.020384286 -0.034726687 0.03227824 -0.031057464 -0.035557352 0.033789042 0.030612228 -0.03580063 -0.036925714 0.0060632084 -0.037355904 0.037666623 -0.03373435 0.029077275 0.032110285 0.033408385 -0.034670405 -0.03752008 -0.03178818 -0.03783012 -0.036983263 -0.034384955 0.03006059 -0.036023207 0.03523593 0.033690374 0.03226815 0.032908328 -0.033017214 -0.037548523 -0.035203114 0.03619638 -0.03606407 0.026453719 0.03475397 0.03495761 0.038618866 0.03494401 -0.03422497 0.033493124 0.037245795 -0.031907428 0.036758255 -0.035234585 0.035078168 0.035162646 -0.036753427 -0.029542703 0.032248244 0.037116684 0.02945353 -0.037245728 -0.03901549 0.03618535 -0.036889046 -0.03450922 0.029329663 -0.03449688 -0.03448578 0.026518982 -0.03614437 -0.031140003 -0.03735521 -0.03281587 0.033196114 -0.03422391 -0.03230089 0.034017213 0.038341325 -0.033133708 0.036491513 0.03215098 -0.032543384 -0.03205446 -0.03651195 0.03649671 -0.035161287 -0.033950586 -0.034975577 -0.033551008 0.035478443 -0.03371201 0.03607501 -0.03668459 -0.03699813 0.036259472 -0.02947588 -0.030034207 -0.03354263 0.037173312 0.036187325 -0.038247615 0.033260178 0.032658592 0.034760155 -0.032488048 -0.03405069 -0.028863395 0.030179996 -0.028944135 -0.0358494 0.036628556 -0.03343858 0.031443838 -0.020982854 0.034360215 -0.03475783 -0.036758333 0.03560815 -0.031981833 -0.03837381 0.029785817 -0.032927364 -0.03521998 -0.03190412 0.03679841 0.033639286 0.034470446 0.02888069 0.035478722 -0.037794735 0.033153605 0.038679287 0.036030784 -0.03601498 -0.032936856 -0.03437918 0.03354558 0.031520728
Baghdad 0.031354077 -0.03119372 0.029344872 0.030862978 0.032256775 -0.03264186 -0.03204173 0.03243027 -0.032020826 -0.030797387 -0.034041077 0.030040698 0.033257492 0.028440665 0.028624551 0.031877752 -0.030098008 -0.031759948 -0.03205006 0.034278437 -0.03207949 -0.027594974 -0.031566627 -0.031467937 0.031729724 0.029465381 0.027142985 0.032746304 -0.033450197 -0.028115809 0.030836398 -0.026755285 0.031677388 0.033102535 -0.02575403 0.02768683 0.029093897 0.031441744 -0.031900227 0.03190262 -0.030864457 0.032445494 0.028573584 0.028688 -0.027567018 0.028475799 -0.032100424 0.029737756 -0.03485775 0.031360514 -0.03173257 -0.034555405 -0.02957762 -0.033708867 -0.027552536 -0.030133467 0.029049447 -0.025952742 0.03078089 0.028142875 0.02966881 -0.030667882 0.03161912 -0.034343 0.03369688 0.033820044 0.03306887 0.029649338 0.03328023 -0.03229112 -0.032788914 -0.030656438 0.02819782 -0.03136098 0.033860963 -0.026248982 -0.032460995 0.030271273 -0.030395363 -0.032057356 0.034874294 0.028376523 0.031494744 0.030368311 -0.03165488 0.032495826 0.032170627 0.028749663 -0.03122613 -0.029966047 0.03142969 0.0326162 0.029924806 -0.030113 0.031109814 0.020314153 0.02950138 -0.030991443 0.030470632 0.032320928 -0.033543177 -0.032022547 0.032150995 0.030585732 0.033251613 -0.025089987 0.030945074 0.033928916 0.02729819 -0.03098993 0.03209423 -0.031760048 -0.033999987 0.03067596 -0.031087521 -0.034907304 -0.027808568 -0.032795843 0.029322747 -0.03363881 -0.032613423 -0.03135227 -0.031711265 -0.030643737 0.025280347 -0.030022122 0.027075538 0.03338066 0.032526743 -0.033162754 -0.03299493 0.029672517 0.032315508 -0.030760923 0.0326781 -0.031968344 -0.033201937 0.03101331 0.031026825 -0.034697592 -0.032976028 -0.028569771 -0.032825205 -0.03493453 0.030205093 0.026218863 -0.029522294 0.033183597 0.0303209 0.029651567 -0.03147717 -0.02904485 0.03353776 -0.02887027 0.032720212 -0.030926578 0.03399971 -0.031513713 0.034813922 -0.029085398 0.03342013 -0.03385825 -0.032516357 -0.03143775 0.030704094 0.033818647 0.030560255 0.031021219 -0.031531025 -0.031552404 0.02892469 0.031282447 0.02754088 0.030924024 0.03291894 0.03426968 0.028868338 0.03191201 -0.032082565 -0.029020745 -0.03084386 -0.031720094 -0.026583642 0.033338882 -0.030747702 0.028471155 -0.032199968 -0.028574748 -0.034509927 0.028662669 -0.031906743 -0.033733286 0.026991215 -0.031315267 0.029691732 0.031783063 0.028164014 0.02872765 -0.028941266 0.029187175 0.031343516 -0.03233798 -0.02854024 -0.032811612 0.035010915 0.027122308 -0.027043466 -0.026536994 0.03352793 0.031599004 -0.03278152 0.031213932 -0.030024977 -0.02844466 -0.032676715 0.031581063 0.032498874 0.02820749 0.022571852 -0.028461527 0.03301409 0.02909607 -0.031590752 0.033173673 -0.031398356 0.032237865 -0.03259668 -0.0255563 -0.02904476 0.031561024 -0.03335713 -0.03158041 0.028689675 0.03440078 -0.03164585 0.028993303 0.03156218 -0.030753484 -0.030175794 -0.030527126 -0.031853747 0.031422466 0.027879518 -0.031038333 -0.03221388 -0.031899817 -0.03286804 0.03377543 0.032143388 -0.033592932 0.03124636 0.031814337 -0.026347429 0.028695825 0.03141338 -0.029965254 0.031884816 -0.032206096 0.026798563 0.03428632 -0.029098073 -0.030504717 -0.030371109 0.032393463 -0.031578664 -0.031253595 -0.030396072 0.029874168 0.032444924 0.027946247 -0.029175527 0.030502468 0.031562936 0.030410161 -0.032553203 -0.03141816 -0.034039684 0.029961606 0.02989582 0.034121167 0.03029598 -0.030038912 -0.033569667 0.031693075 0.028315822 -0.03210163 -0.032819804 -0.03002203 0.023289002 -0.0307892 0.033775423 0.028573764 -0.030209014 0.030611055 -0.03142024 0.033578347 0.033970904 -0.030639432 0.031632137 -0.03223017 -0.032633036 0.02529541 -0.033368837 -0.027779682 -0.031523798 -0.029403921 0.032998066 0.031412665 0.034121763 0.02745718 -0.033222143 0.029157866 -0.033462904 -0.03169681 0.03153399 0.034657322 -0.031462453 -0.03199915 -0.03021327 -0.031652506 -0.03400534 0.033690564 -0.026159966 0.027555672 0.024265556 0.031103063 -0.033487745 0.032180004 -0.029230095 0.025890006 -0.0302436 0.030457862 0.031572737 -0.03374213 0.026898699 0.031642415 -0.031145576 -0.03130146 0.030951573 -0.031893104 -0.031022342 -0.030065188 0.030813023 0.031920567 0.034298968 0.03214973 0.033341378 0.02968362 -0.028553128 -0.028831443 -0.030211624 -0.032876413 0.03237948 -0.027289638 -0.03159843 -0.032121174 -0.028795818 0.029192181 0.031501696 0.028679973 0.033144347 0.027853753 -0.026988676 -0.030882325 -0.033407282 -0.027579851 -0.030033529 0.031395208 -0.029509513 -0.02994896 0.033207625 -0.025212996 -0.029314768 0.03183431 -0.031524487 -0.031862188 0.03337599 0.02911301 -0.02899682 -0.032729402 0.0024048665 -0.031037979 0.030149488 -0.033206247 0.031048851 0.031055726 0.031364303 -0.028610473 -0.03034755 -0.03089928 -0.029358538 -0.03309577 -0.032109424 0.02896573 -0.035206866 0.03341081 0.029455258 0.032280773 0.028589683 -0.033029456 -0.028191356 -0.031055469 0.033104204 -0.031772256 0.020257402 0.029646667 0.031790923 0.030122733 0.03096795 -0.031944692 0.026822923 0.0323896 -0.027758874 0.030776413 -0.033701845 0.029740307 0.030804256 -0.03164635 -0.034036286 0.02677754 0.031240374 0.03484079 -0.030858412 -0.031691685 0.031429414 -0.03247865 -0.032653857 0.029207077 -0.03116383 -0.02911757 0.02781026 -0.034125585 -0.03233091 -0.029209195 -0.031984653 0.033114094 -0.032206282 -0.02941698 0.03139703 0.03165855 -0.03209029 0.02882637 0.025810586 -0.029386492 -0.033584513 -0.032792483 0.031603 -0.03312209 -0.031076068 -0.030017912 -0.0333803 0.032053947 -0.030524462 0.031912178 -0.034439184 -0.027594993 0.030475067 -0.030433513 -0.03233371 -0.03216227 0.031963192 0.03330486 -0.02714215 0.02910358 0.024467012 0.03035504 -0.031031515 -0.03034333 -0.027058829 0.029366393 -0.027188841 -0.03037388 0.029589884 -0.034538973 0.032000225 -0.03296323 0.032839872 -0.033091553 -0.031399045 0.0330358 -0.030750325 -0.03130803 0.0327579 -0.029841024 -0.033854093 -0.03176606 0.03439527 0.034051925 0.03228953 0.032932997 0.032243267 -0.031851307 0.028855292 0.028981417 0.0308567 -0.032368816 -0.027241271 -0.032396954 0.033451796 0.03016329
Iraq 0.032572072 -0.03128321 0.029318964 0.036830854 0.025696198 -0.03380323 -0.02990235 0.02725201 -0.035577618 -0.031005682 -0.033819675 0.03129575 0.03386607 0.0343404 0.031937946 0.032531776 -0.026683465 -0.035208806 -0.03190734 0.033229217 -0.035083856 -0.03518214 -0.034127474 -0.034440637 0.034447543 0.034543917 0.033122145 0.028966647 -0.03371012 -0.026783673 0.033221725 -0.031421863 0.029643979 0.03356488 -0.02662539 0.03047709 0.033759825 0.034235634 -0.032020263 0.03199257 -0.03215025 0.03692798 0.035437398 0.030978683 -0.033913076 0.028111933 -0.03482513 0.030314667 -0.03403227 0.030544566 -0.03382537 -0.035092305 -0.03465743 -0.03181263 -0.025971675 -0.029799722 0.032159343 -0.031198751 0.03640908 0.032339748 0.03539876 -0.027999226 0.030880693 -0.034055162 0.03476219 0.034453306 0.028796926 0.030204399 0.031030916 -0.033999465 -0.030966174 -0.03029776 0.028857745 -0.032187346 0.03202583 -0.03446357 -0.028397175 0.034527726 -0.033085078 -0.034055747 0.03568414 0.026617402 0.02983794 0.03197926 -0.033949923 0.035167173 0.03316389 0.029524364 -0.029705232 -0.030064981 0.02822267 0.03683434 0.03243265 -0.03180972 0.02933663 0.02585575 0.037353694 -0.033562366 0.03225872 0.034752365 -0.032353766 -0.033780087 0.028391294 0.031705152 0.029854843 -0.027853232 0.038031712 0.035214733 0.0335247 -0.030401986 0.032445747 -0.035292797 -0.034962125 0.031150173 -0.029772202 -0.035092138 -0.03535049 -0.03034279 0.028825624 -0.033843618 -0.031346146 -0.024608016 -0.03223349 -0.03437813 0.027636478 -0.031326838 0.032743827 0.03249485 0.028501593 -0.034893017 -0.031068917 0.03610543 0.032203417 -0.03704417 0.02564564 -0.033097003 -0.034819633 0.02498959 0.033163935 -0.03075761 -0.036082994 -0.024126468 -0.034061544 -0.036367595 0.029089982 0.029008025 -0.03356783 0.029541383 0.03577674 0.020924794 -0.034975223 -0.033009328 0.033088807 -0.02981882 0.034133527 -0.032671142 0.033013884 -0.03210428 0.032206766 -0.030977452 0.034745846 -0.03181884 -0.029169265 -0.031268578 0.036119025 0.031448 0.036044683 0.03275487 -0.029471418 -0.037228093 0.031050215 0.036282048 0.03356592 0.029829169 0.030354405 0.036242403 0.03000199 0.036882825 -0.029021602 -0.027296597 -0.03208711 -0.037590098 -0.031360418 0.03218951 -0.034445018 0.034258116 -0.0325205 -0.03199797 -0.036062025 0.031138977 -0.034500815 -0.030191256 0.028100278 -0.033232056 0.02839963 0.033882063 0.03294692 0.03203215 -0.03313656 0.030545997 0.032221757 -0.035060342 -0.034328915 -0.034160182 0.031853534 0.026292278 -0.01951038 -0.030770076 0.034193523 0.028802732 -0.035523232 0.03479527 -0.033878002 -0.032165095 -0.03420514 0.036214523 0.03482461 0.03202991 0.02324652 -0.034253307 0.03378888 0.03258908 -0.034746736 0.03578134 -0.03684491 0.030239213 -0.034676474 -0.019979067 -0.036612738 0.037799146 -0.0347896 -0.03485279 0.03306155 0.03490874 -0.032156117 0.03175681 0.034657527 -0.028444128 -0.035077173 -0.030922538 -0.025781233 0.03181417 0.03236267 -0.03464241 -0.031569816 -0.03559138 -0.030346327 0.031932898 0.03384206 -0.034813724 0.032439485 0.028285682 -0.031639755 0.035354994 0.032931622 -0.031841103 0.035012964 -0.03537205 0.03114453 0.032411292 -0.034553435 -0.032383975 -0.03335912 0.037211835 -0.03349649 -0.03111832 -0.032911193 0.031733632 0.034148686 0.035103627 -0.031246496 0.036068186 0.030440457 0.030443178 -0.035518266 -0.03469224 -0.033742983 0.03255596 0.03284337 0.035628 0.029099192 -0.033250544 -0.036071166 0.036030285 0.0343409 -0.03284157 -0.035258997 -0.028530871 0.027096147 -0.02490113 0.034107663 0.026809411 -0.033411674 0.032763936 -0.032901887 0.035393327 0.03497328 -0.035843603 0.037397377 -0.03302102 -0.03297326 0.01966414 -0.03257117 -0.03083919 -0.0332219 -0.031239025 0.033071436 0.032170303 0.03540942 0.030284237 -0.03651556 0.03241299 -0.035052165 -0.028776763 0.029772092 0.034866877 -0.034396548 -0.031508543 -0.03463551 -0.033501174 -0.03375351 0.033166792 -0.031660013 0.028873418 0.025779024 0.033543944 -0.030833276 0.032862104 -0.03276727 0.022963166 -0.03435049 0.03244355 0.0366109 -0.03314697 0.028074281 0.03209043 -0.03571187 -0.034643438 0.03036261 -0.029256783 -0.03469337 -0.033069123 0.031841576 0.03514094 0.028426474 0.033234816 0.033140883 0.03164772 -0.03526577 -0.03565238 -0.035427965 -0.033922713 0.029888855 -0.031104913 -0.030477524 -0.033425502 -0.029663334 0.032769807 0.03768854 0.030581718 0.03576398 0.02975674 -0.029881835 -0.032231756 -0.033954702 -0.027231203 -0.02980696 0.030695777 -0.032795247 -0.029753445 0.03126364 -0.009503594 -0.031171674 0.032927644 -0.03131566 -0.032424632 0.03522033 0.028750965 -0.032776214 -0.038336877 -0.003096323 -0.03530273 0.02676648 -0.03363281 0.034238745 0.03666745 0.031637058 -0.029348152 -0.03284891 -0.034255773 -0.032679714 -0.031863123 -0.031183058 0.033620853 -0.032862753 0.033222873 0.032631256 0.025614776 0.02891704 -0.032181475 -0.033025794 -0.03261077 0.031503778 -0.032594137 0.028128315 0.030297639 0.03397935 0.035854355 0.02893665 -0.032326322 0.03180326 0.034732535 -0.032767724 0.03210665 -0.034149855 0.032157343 0.03582695 -0.02980322 -0.033312164 0.030650655 0.03410975 0.03262403 -0.03039846 -0.03185714 0.033614244 -0.03202771 -0.034913704 0.032616343 -0.0335555 -0.03587845 0.0288142 -0.02955448 -0.034799498 -0.032944065 -0.030410288 0.032372072 -0.033964235 -0.034670442 0.028971985 0.03518986 -0.03586676 0.032100745 0.03627383 -0.03500751 -0.03777764 -0.037021246 0.03407241 -0.032542367 -0.03252359 -0.03414816 -0.032680087 0.036987863 -0.03382467 0.029541327 -0.03248829 -0.03358681 0.034203127 -0.029135004 -0.029034019 -0.03625808 0.036401886 0.03496637 -0.035162 0.037528377 0.033191506 0.032046307 -0.032698505 -0.035057485 -0.0297376 0.03145423 -0.03215139 -0.03402293 0.031018963 -0.037510745 0.03413051 -0.02498286 0.036446117 -0.030117724 -0.027954968 0.033881187 -0.032040816 -0.035438355 0.036006954 -0.033256497 -0.035702653 -0.030588469 0.03634055 0.037810605 0.03206671 0.033373557 0.033664647 -0.03372064 0.03079266 0.03414982 0.030533668 -0.033136223 -0.024895262 -0.03379169 0.035345837 0.032783467
Bangkok 0.023514628 -0.021033088 0.025620917 0.027597843 0.027571214 -0.028279621 -0.026045237 0.02432021 -0.02403401 -0.0259465 -0.028710976 0.028058227 0.02788283 0.02628588 0.025655586 0.025947591 -0.023192624 -0.025400447 -0.022795463 0.025933836 -0.029139973 -0.028967006 -0.02690448 -0.027229995 0.029128155 0.028557438 0.028696254 0.025644466 -0.028683718 -0.022512425 0.028564664 -0.021776797 0.022295093 0.028666433 -0.021759074 0.02641896 0.026539413 0.02505508 -0.029083606 0.025658064 -0.029343728 0.026196824 0.027615936 0.028605813 -0.025609018 0.023393884 -0.026647381 0.0229195 -0.028203003 0.023442041 -0.028160661 -0.025556391 -0.027738333 -0.028122514 -0.02019971 -0.0257845 0.022535471 -0.025163159 0.02646927 0.023093037 0.026888246 -0.023877077 0.024775041 -0.023525836 0.027671816 0.026514923 0.021899704 0.026153183 0.029473243 -0.028779745 -0.025500696 -0.026615389 0.02351601 -0.026054723 0.023043294 -0.025040908 -0.02719526 0.0279219 -0.024873966 -0.028538836 0.025460837 0.025452297 0.025311995 0.026167603 -0.02946303 0.022849288 0.025466308 0.025406586 -0.022853842 -0.02910648 0.023041308 0.027511967 0.024887338 -0.027479246 0.022146387 0.02167163 0.027630758 -0.024992807 0.028394315 0.029211756 -0.027874814 -0.029305125 0.0274687 0.025934283 0.027843034 -0.023740346 0.027442709 0.027922073 0.026680266 -0.027024345 0.029081045 -0.028820314 -0.026026448 0.02751332 -0.02523917 -0.023749333 -0.028872008 -0.021687979 0.022597367 -0.022792753 -0.023590146 -0.021836804 -0.02587716 -0.029110538 0.028294355 -0.024493834 0.028021684 0.027758403 0.027307399 -0.026875712 -0.029508788 0.029824847 0.029367154 -0.027032962 0.024900952 -0.021701226 -0.027542233 0.022693472 0.02683454 -0.022421787 -0.026921667 -0.02506825 -0.024868494 -0.027223116 0.028349403 0.024764232 -0.024189848 0.024521152 0.025689688 0.01180261 -0.026211517 -0.025087269 0.02754719 -0.027871765 0.026077518 -0.025514547 0.024443699 -0.026200384 0.028590538 -0.025582677 0.029257145 -0.025866503 -0.027683754 -0.028847408 0.029077908 0.027755186 0.02652622 0.02348609 -0.029187402 -0.026427526 0.028913582 0.028628431 0.029098257 0.027440963 0.028929273 0.026207095 0.025683353 0.027493736 -0.027128171 -0.02404458 -0.02605494 -0.025750814 -0.026907235 0.025198292 -0.025500968 0.029037567 -0.023830302 -0.02890995 -0.027283084 0.027524706 -0.026487904 -0.025355877 0.02849455 -0.025574941 0.023749592 0.02734706 0.026693858 0.024473926 -0.024960259 0.021713644 0.02805211 -0.027279312 -0.026143424 -0.02302048 0.02257897 0.0231667 -0.010619485 -0.02633474 0.026660295 0.025138993 -0.024361763 0.028692806 -0.029108303 -0.029391684 -0.025043445 0.029251799 0.028457182 0.026914509 0.008651538 -0.02789693 0.022383286 0.028535496 -0.027423944 0.029072216 -0.027269714 0.022026537 -0.029023156 -0.013452938 -0.025478015 0.027297033 -0.024090026 -0.026271323 0.028534593 0.02767508 -0.027580786 0.02784843 0.025248768 -0.021324715 -0.024102435 -0.025038583 -0.025383085 0.026491154 0.026984263 -0.025113849 -0.022796232 -0.02639727 -0.023614394 0.025442084 0.028864792 -0.026592754 0.028785206 0.025556954 -0.024050336 0.029404758 0.023901837 -0.027723806 0.02301323 -0.025930498 0.027927576 0.025929017 -0.026863286 -0.027202487 -0.026269404 0.025152234 -0.026136471 -0.028669253 -0.027438747 0.025245182 0.025365053 0.029586287 -0.02099713 0.027643612 0.024595631 0.02943691 -0.02914507 -0.022779943 -0.026883096 0.02300808 0.02893956 0.028749764 0.024110693 -0.028101088 -0.026808726 0.026657857 0.02786474 -0.028183602 -0.027787656 -0.026646577 0.026733488 -0.022120247 0.025362581 0.024293792 -0.028498407 0.026071558 -0.025594246 0.027284866 0.026933309 -0.021900984 0.025991965 -0.027374892 -0.025889011 0.022054553 -0.027088864 -0.026378121 -0.026222082 -0.025702752 0.02877633 0.02453252 0.027077183 0.022941057 -0.02600844 0.0295368 -0.028831845 -0.02485694 0.025563134 0.026418218 -0.028528804 -0.027288325 -0.029002925 -0.026876364 -0.025566408 0.029491663 -0.027496874 0.027048608 0.023557972 0.023271475 -0.025323343 0.026936812 -0.024929194 0.020249544 -0.024361677 0.028462626 0.028829351 -0.024928117 0.029042393 0.028462376 -0.02705141 -0.02661194 0.023347488 -0.02481707 -0.025147375 -0.026064105 0.025497973 0.025355455 0.026964692 0.02590307 0.025106313 0.029631065 -0.021855311 -0.028604275 -0.025118897 -0.02551507 0.025120687 -0.025904449 -0.027272657 -0.029202972 -0.02619897 0.025976913 0.023299284 0.025031524 0.026277173 0.028342627 -0.022497231 -0.02103187 -0.028318703 -0.02161359 -0.026394013 0.024525104 -0.027580768 -0.023280611 0.026704395 -0.0013003396 -0.026492855 0.027906258 -0.026717296 -0.022581797 0.023942243 0.023929244 -0.028059527 -0.028944258 0.0048008035 -0.0283432 0.027316233 -0.027304253 0.027425813 0.027361767 0.025616301 -0.025541991 -0.02754995 -0.028171115 -0.028394893 -0.02319294 -0.028077265 0.02576566 -0.025302323 0.027884314 0.022317978 0.024565084 0.026430184 -0.026425298 -0.027206622 -0.026567606 0.027302325 -0.027078994 0.016014287 0.02581941 0.024320476 0.02880343 0.026002072 -0.028729947 0.02714109 0.026609963 -0.02806618 0.028392997 -0.02654763 0.024380662 0.024890853 -0.025171578 -0.022593364 0.02824594 0.024854189 0.029064022 -0.02790768 -0.02593908 0.02644523 -0.025554 -0.02702176 0.027327122 -0.028515378 -0.02589678 0.028863342 -0.026956448 -0.02326931 -0.025908012 -0.021410557 0.022928275 -0.027109034 -0.026508864 0.024236146 0.024156587 -0.027821533 0.027548466 0.028216569 -0.029245447 -0.029152803 -0.029433751 0.02163209 -0.02828679 -0.029116651 -0.027868934 -0.027864967 0.028004397 -0.026455821 0.023286426 -0.027065806 -0.028240113 0.023933074 -0.028424889 -0.028455107 -0.02657949 0.027668912 0.023608102 -0.023270784 0.027659966 0.02578499 0.022051644 -0.026196038 -0.027622992 -0.028629957 0.02790707 -0.028641697 -0.025115138 0.029656382 -0.028932678 0.026074521 -0.014703305 0.024679428 -0.021882534 -0.024911938 0.022820337 -0.026788706 -0.02891071 0.028846476 -0.023368822 -0.027203351 -0.024905603 0.0241991 0.0272679 0.028495872 0.022959627 0.029118499 -0.028489027 0.026152903 0.02857974 0.027399626 -0.02915925 -0.019769505 -0.026604187 0.02799475 0.02592281
Thailand 0.038836867 -0.033163037 0.040725593 0.041255217 0.02539725 -0.03947948 -0.030482754 0.029030552 -0.038005985 -0.028482169 -0.02721467 0.02901863 0.033142015 0.04136688 0.035824627 0.036036354 -0.038140625 -0.027853906 -0.0390099 0.030625073 -0.039585955 -0.037509087 -0.032611094 -0.037856996 0.029157588 0.041021336 0.038865946 0.032235328 -0.027718507 -0.012861313 0.035590883 -0.031094529 0.020959493 0.03825589 -0.035924975 0.037354548 0.040973067 0.038331475 -0.041065365 0.034088835 -0.0266503 0.03292173 0.040283244 0.0302938 -0.035409693 0.039153874 -0.039311603 0.016265076 -0.028094117 0.030851992 -0.039751444 -0.030541059 -0.031241106 -0.03123788 -0.034207493 -0.038579363 0.03780486 -0.04084776 0.03846526 0.035771668 0.040775377 -0.032460287 0.027047304 -0.03376745 0.031461604 0.039317902 0.026171666 0.026152538 0.030263262 -0.031337325 -0.029811155 -0.036641307 0.038456418 -0.038191795 0.027896846 -0.038132347 -0.031580564 0.040414166 -0.04102574 -0.04180501 0.033198964 0.040570665 0.029282803 0.029191619 -0.037873924 0.036790702 0.031605795 0.035757683 -0.04012395 -0.033843543 0.033952907 0.031079683 0.02748898 -0.02755193 0.025541812 0.038778357 0.040114854 -0.04187473 0.029823547 0.0315104 -0.04071767 -0.027825903 0.028615803 0.03744797 0.028055804 -0.038896445 0.032265477 0.04164834 0.04133175 -0.042647358 0.027503645 -0.038096014 -0.035638098 0.029712986 -0.040778276 -0.030339872 -0.041853566 -0.03964919 0.03564671 -0.03750549 -0.042327005 -0.03467147 -0.039646707 -0.036610946 0.037461944 -0.04170318 0.040889177 0.034600914 0.02094715 -0.035029102 -0.030753637 0.038631264 0.029731875 -0.037940636 0.02925739 -0.036600947 -0.03966554 0.02954868 0.041904725 -0.0393906 -0.038736153 -0.024304908 -0.040587656 -0.0389511 0.033404883 0.038408823 -0.03859489 0.040144186 0.040045906 0.0031825101 -0.036174312 -0.041372325 0.038622085 -0.04040362 0.032627568 -0.03753204 0.035582397 -0.03748901 0.03103741 -0.030320084 0.031623345 -0.027813705 -0.030154726 -0.035445165 0.040962704 0.02733078 0.026150025 0.036913592 -0.03408012 -0.028488522 0.04214558 0.040521517 0.036279254 0.039615825 0.027871778 0.037434973 0.039298046 0.04167407 -0.030987363 -0.036723517 -0.027595082 -0.025892245 -0.04032701 0.028863886 -0.039704416 0.036084414 -0.038209733 -0.03902894 -0.034431502 0.032474864 -0.04149327 -0.03216684 0.025213316 -0.031509705 0.03638668 0.034541484 0.04223661 0.04011606 -0.040316 0.035756875 0.041488294 -0.027564889 -0.03949261 -0.0401174 0.032568667 0.022858098 -0.0042079515 -0.040803667 0.028502848 0.036201827 -0.039849315 0.038838718 -0.039113022 -0.042426925 -0.035431422 0.042694636 0.032753326 0.026673023 0.02715791 -0.032797668 0.04026096 0.038426813 -0.03072656 0.03131654 -0.030471211 0.039472707 -0.033005036 -0.014001561 -0.034847327 0.041690446 -0.038383003 -0.028112141 0.04059473 0.0406357 -0.0346332 0.04109817 0.03421266 -0.025131617 -0.041035816 -0.031152163 -0.029362902 0.03981272 0.041071396 -0.038280927 -0.040186398 -0.03683139 -0.025061235 0.03279523 0.03149511 -0.03533595 0.039462056 0.0393546 -0.03812761 0.04197872 0.039651092 -0.03916192 0.03557404 -0.0402963 0.038399767 0.034209017 -0.04132037 -0.03375099 -0.03149595 0.03418605 -0.04183379 -0.035186626 -0.038784947 0.040282976 0.040257994 0.039723843 -0.028255137 0.0394975 0.041201875 0.030205993 -0.042553466 -0.027807875 -0.03152376 0.039255366 0.041327875 0.03001203 0.035328716 -0.04204363 -0.0418705 0.040328413 0.035386514 -0.03331564 -0.0294242 -0.03162234 0.029488513 -0.034400478 0.037501026 0.02448184 -0.04210243 0.04107703 -0.030945873 0.029485866 0.03450284 -0.03716056 0.039556015 -0.03326541 -0.04211767 0.025207281 -0.030910417 -0.039086107 -0.039486203 -0.035444517 0.041323885 0.033503707 0.04023636 0.039746713 -0.036927953 0.039164633 -0.040117297 -0.036477085 0.035969395 0.040635917 -0.039887387 -0.03125519 -0.032453373 -0.030289331 -0.034179572 0.030723102 -0.03969832 0.027437197 0.0360773 0.042066023 -0.030285517 0.039745446 -0.03900403 0.031397425 -0.036877446 0.034551665 0.04172157 -0.035632785 0.038755927 0.026631948 -0.029574795 -0.042196605 0.02914504 -0.039432693 -0.04051412 -0.037350837 0.03668162 0.039571356 0.02922872 0.03998355 0.038393717 0.028190406 -0.037604842 -0.040385835 -0.034921996 -0.041259672 0.027915675 -0.04043333 -0.03407927 -0.029622786 -0.03997493 0.03280906 0.03274356 0.040828884 0.040426496 0.040726278 -0.039349712 -0.039214958 -0.031205177 -0.034942735 -0.040627427 0.03839546 -0.04170552 -0.03423904 0.02999507 -0.0050499905 -0.029663473 0.03945975 -0.03149438 -0.03924822 0.031307157 0.03712433 -0.034953468 -0.037957195 -0.03603686 -0.03220125 0.042287126 -0.027760858 0.036296405 0.03870368 0.027768407 -0.041513175 -0.041322395 -0.038862016 -0.03878377 -0.031461604 -0.032658856 0.04084236 -0.03333746 0.040568866 0.0344265 0.02904304 0.037291862 -0.036241107 -0.04250501 -0.03965674 0.04152365 -0.041612476 0.039606523 0.04011751 0.042055696 0.038249902 0.030863533 -0.02901459 0.039525203 0.040712483 -0.034044705 0.03338988 -0.038452484 0.03931073 0.03107603 -0.032535553 -0.03577642 0.03976544 0.032103177 0.028602352 -0.030021863 -0.029589722 0.035330776 -0.04098415 -0.028393691 0.0297585 -0.034957647 -0.039450686 0.037561864 -0.03058788 -0.038914386 -0.035845596 -0.040179662 0.03339092 -0.038960338 -0.03941345 0.033641417 0.03329774 -0.03884997 0.03237439 0.036986534 -0.03872781 -0.029407427 -0.042427626 0.042598408 -0.033719968 -0.032763064 -0.041457936 -0.037827518 0.040524174 -0.039555695 0.041836265 -0.033177856 -0.04212917 0.039250214 -0.021448363 -0.025198221 -0.029889707 0.04122285 0.03296293 -0.040496837 0.040611923 0.041525614 0.036693666 -0.025721183 -0.040401887 -0.026189307 0.026596835 -0.04020803 -0.029583506 0.02853326 -0.032758586 0.025633048 0.0046705035 0.03602257 -0.02761217 -0.033697497 0.03029267 -0.02482238 -0.035320498 0.028697064 -0.038828768 -0.04108489 -0.036487795 0.032986008 0.036745217 0.040639635 0.030996887 0.038362306 -0.04105007 0.0335617 0.033347014 0.030478911 -0.030112792 -0.037102204 -0.032517638 0.038963087 0.03748028
Beijing 0.031599198 -0.035474535 0.031179251 0.034524407 0.035569344 -0.036516845 -0.033093985 0.030206721 -0.036904354 -0.03430578 -0.03390203 0.033627965 0.03686089 0.03360138 0.03567917 0.035409186 -0.02945741 -0.0319843 -0.0341154 0.032508824 -0.03719186 -0.03223652 -0.037582666 -0.031800978 0.03375602 0.03580431 0.035058625 0.031759813 -0.036693737 -0.02537238 0.034756348 -0.035584003 0.031308938 0.037592188 -0.03563405 0.028678905 0.033142097 0.03507644 -0.036274944 0.036395743 -0.034879334 0.034986563 0.03664824 0.0349323 -0.033587147 0.0329653 -0.037436295 0.026007546 -0.033445768 0.030905098 -0.037110735 -0.03689471 -0.030802688 -0.035614405 -0.029953916 -0.031853084 0.036918372 -0.03260049 0.033773188 0.032634467 0.03764307 -0.03353163 0.03548993 -0.036954574 0.037542753 0.035106838 0.035533786 0.036932237 0.03668852 -0.036126863 -0.03024421 -0.033652186 0.03635197 -0.032356385 0.03521362 -0.033732757 -0.03028955 0.03846786 -0.036786325 -0.03534482 0.034874775 0.035610683 0.03166902 0.03579656 -0.036705755 0.031087736 0.036476966 0.033042032 -0.033715352 -0.029894704 0.032429915 0.039430175 0.028595658 -0.033208948 0.031704407 0.028384352 0.03623418 -0.03175649 0.030620398 0.032350395 -0.03875049 -0.032438215 0.03388485 0.032740008 0.032738738 -0.034843247 0.033432253 0.03798656 0.03413761 -0.03493115 0.030107513 -0.03532374 -0.03708518 0.03986558 -0.035849858 -0.03863433 -0.0367366 -0.03751439 0.031251375 -0.03516609 -0.034300487 -0.039360043 -0.035586588 -0.030465141 0.035003025 -0.036093332 0.035825163 0.033838212 0.03134452 -0.035689846 -0.033302464 0.034618556 0.036439635 -0.037335087 0.03034177 -0.03883799 -0.039270893 0.032923393 0.03623398 -0.032864243 -0.03376421 -0.029638335 -0.03331574 -0.036886845 0.033584207 0.03381968 -0.035530433 0.032621868 0.0404401 0.022770662 -0.030559937 -0.03734703 0.038303033 -0.035754163 0.03348115 -0.03330565 0.034089297 -0.037167512 0.038420774 -0.031793073 0.03946673 -0.033652697 -0.029305506 -0.036153905 0.039173037 0.0348505 0.028406922 0.03614817 -0.03369674 -0.03284314 0.034728803 0.035126276 0.034015235 0.032452393 0.036297105 0.033927333 0.028828913 0.036435004 -0.03319722 -0.035520833 -0.039958257 -0.036053702 -0.037192553 0.034952167 -0.035344113 0.03584797 -0.030521663 -0.028103797 -0.034787074 0.03729703 -0.036902133 -0.036591917 0.032089185 -0.03477155 0.035473406 0.03799848 0.037592318 0.039304804 -0.036013834 0.037907846 0.03592837 -0.03285054 -0.03299136 -0.03929799 0.03198259 0.029765997 -0.022425674 -0.034674637 0.03513071 0.032517843 -0.038349137 0.032208122 -0.03481974 -0.033945266 -0.037056442 0.03503208 0.03429243 0.032236043 0.031523924 -0.036013804 0.032171972 0.033782415 -0.02737708 0.037901036 -0.03671545 0.03309747 -0.039309733 -0.014935454 -0.034525674 0.03684441 -0.038774524 -0.032212365 0.033410598 0.036049783 -0.032962188 0.03553102 0.036520477 -0.03298257 -0.03932732 -0.038144942 -0.030623622 0.03453475 0.03536334 -0.037509467 -0.03281813 -0.032938447 -0.037325516 0.035096865 0.031886 -0.036058333 0.03582965 0.037279 -0.036406394 0.034596447 0.039982393 -0.034728803 0.036982328 -0.034994308 0.032387156 0.032783456 -0.03577648 -0.036169335 -0.03204408 0.033446778 -0.037018504 -0.03694243 -0.035457272 0.040734436 0.03639491 0.034669414 -0.034977745 0.0336816 0.03427059 0.033572827 -0.037272237 -0.03523305 -0.03210975 0.03267379 0.039469056 0.036670282 0.02969066 -0.03511445 -0.037164632 0.033530273 0.034759518 -0.02992903 -0.035007026 -0.03150363 0.03356711 -0.03419984 0.03567312 0.027261764 -0.03570664 0.035509937 -0.03421699 0.03862931 0.035315074 -0.036562484 0.036448758 -0.035007898 -0.035638873 0.036425844 -0.031120604 -0.03648465 -0.032593712 -0.034462355 0.03729165 0.03048577 0.038313963 0.03408449 -0.032217346 0.033390593 -0.039675657 -0.032968324 0.034221984 0.03529763 -0.034485515 -0.035602923 -0.037432108 -0.030615577 -0.032955352 0.033612974 -0.036602803 0.03173084 0.032751743 0.034872804 -0.03139436 0.036453508 -0.03388256 0.028969046 -0.031989828 0.03485645 0.036512926 -0.035381395 0.03296019 0.028988536 -0.036753807 -0.037980366 0.035597604 -0.031366948 -0.037336897 -0.0375477 0.035091132 0.03914419 0.030876394 0.035705063 0.03500841 0.03250599 -0.03848914 -0.0347526 -0.038277447 -0.035036024 0.03044604 -0.036528725 -0.03217176 -0.03386518 -0.03127838 0.035692524 0.03456356 0.033866722 0.038027108 0.030204361 -0.037399456 -0.033552065 -0.034874234 -0.036331125 -0.028342497 0.038221624 -0.03627266 -0.030712202 0.03529702 -0.00677306 -0.03626157 0.035058584 -0.034789782 -0.03347865 0.035917923 0.03174211 -0.036902998 -0.039231617 -0.021219773 -0.03890437 0.033533756 -0.03594759 0.034320112 0.035937868 0.029673483 -0.035361048 -0.03719159 -0.035177376 -0.032906502 -0.03354547 -0.03246376 0.034055192 -0.034441955 0.03786081 0.03145665 0.032107063 0.037115753 -0.035455827 -0.033488896 -0.03195715 0.034691308 -0.03527029 0.031613853 0.03222412 0.03568713 0.03666017 0.029889094 -0.032833356 0.031703375 0.036979284 -0.036840566 0.03592183 -0.037035313 0.037597112 0.033846248 -0.033241138 -0.038146175 0.031431586 0.030569661 0.032166332 -0.032458812 -0.031026144 0.031273287 -0.033421714 -0.03434122 0.036563378 -0.033035457 -0.03469204 0.031981736 -0.03334565 -0.036526173 -0.037334114 -0.037436403 0.038228393 -0.038192663 -0.03612253 0.034388304 0.035303257 -0.035469107 0.035891213 0.03600333 -0.037515435 -0.037477788 -0.03847721 0.037036195 -0.036307454 -0.036449127 -0.038378116 -0.034962684 0.038831703 -0.033704046 0.034321927 -0.036484916 -0.038049046 0.0349196 -0.030069264 -0.032733154 -0.03568481 0.034812476 0.036005575 -0.034604624 0.03802471 0.035715368 0.035457753 -0.034601703 -0.035840165 -0.030421296 0.03520177 -0.034692105 -0.03967072 0.03537263 -0.037560616 0.03548588 -0.029786916 0.033463027 -0.0324264 -0.034196895 0.033519063 -0.03915346 -0.03552268 0.032919433 -0.040589683 -0.03663037 -0.036322095 0.037842397 0.03400987 0.03466381 0.034779575 0.03521247 -0.03465347 0.033130582 0.03226628 0.03578654 -0.038531553 -0.029155897 -0.03609523 0.035378985 0.036915116
China 0.031975545 -0.029587522 0.02349932 0.02673403 0.03378739 -0.02729632 -0.029666891 0.032663763 -0.030282563 -0.031149479 -0.023432799 0.02196588 0.03186649 0.025794962 0.028388245 0.03543281 -0.03358703 -0.03243434 -0.033442795 0.034605842 -0.029482134 -0.027204165 -0.030318111 -0.0328553 0.024009226 0.030890698 0.025113497 0.026357587 -0.03155799 -0.019895623 0.030740837 -0.03094426 0.03067423 0.02678176 -0.02107073 0.023532936 0.028236777 0.03172742 -0.031827264 0.030953802 -0.032826558 0.030876502 0.024059612 0.023927966 -0.02717445 0.031834226 -0.029197013 0.02342664 -0.024498902 0.031043254 -0.031403143 -0.031364948 -0.032297574 -0.031032221 -0.029042728 -0.03356888 0.035537515 -0.02538668 0.02857978 0.029961446 0.02661229 -0.032194514 0.03119376 -0.032103583 0.034153283 0.032323122 0.03297716 0.03120347 0.03304911 -0.028697185 -0.023441492 -0.030984843 0.02977103 -0.030609472 0.033079997 -0.03001436 -0.033512823 0.031921875 -0.030669834 -0.029777141 0.03514872 0.03180148 0.027772984 0.036113817 -0.024894025 0.030485943 0.03304193 0.027603295 -0.016945712 -0.026156576 0.031813633 0.031145783 0.022656024 -0.034445323 0.031269893 0.029710544 0.0303313 -0.03356445 0.027644414 0.031478375 -0.034760054 -0.025807919 0.03471281 0.027335675 0.02917345 -0.025680237 0.0298316 0.034434743 0.02454974 -0.025543403 0.03202379 -0.022674058 -0.03166516 0.026058743 -0.029068612 -0.03135571 -0.026687782 -0.031035421 0.026292752 -0.030142413 -0.027403355 -0.02894791 -0.0320494 -0.030667508 0.020156235 -0.030891743 0.032170955 0.033103727 0.019025441 -0.0313176 -0.032068912 0.0228894 0.034503188 -0.025783202 0.03537806 -0.034238525 -0.032015644 0.026922703 0.030080587 -0.02665513 -0.03325054 -0.027076792 -0.031404737 -0.033992864 0.025450232 0.02745344 -0.02433807 0.02803935 0.024219232 0.01953419 -0.026504088 -0.033069327 0.030299462 -0.026572248 0.033596218 -0.025452344 0.034370128 -0.030279025 0.034646995 -0.025392704 0.03487428 -0.03409499 -0.032775935 -0.025464125 0.026119767 0.031968404 0.028057624 0.031724636 -0.035043057 -0.031731058 0.02940536 0.027043536 0.03247774 0.030044248 0.035041682 0.03426458 0.025047945 0.027704861 -0.031606313 -0.031859767 -0.03365007 -0.02787838 -0.028453086 0.033937067 -0.031400803 0.031557404 -0.03309642 -0.024370475 -0.030325528 0.025135428 -0.03246857 -0.029342249 0.02207225 -0.03004319 0.029038472 0.031857077 0.03259587 0.029246382 -0.030291248 0.03442967 0.03403029 -0.022176377 -0.023729984 -0.03441706 0.029288515 0.018976422 -0.025537683 -0.02362104 0.034747254 0.03407193 -0.033364993 0.03370537 -0.030750765 -0.0263954 -0.03440311 0.027554683 0.030339394 0.030544242 0.016989214 -0.031103302 0.026685953 0.031377636 -0.030703655 0.024498943 -0.030733552 0.02671149 -0.03434183 -0.0111898845 -0.027948651 0.03164157 -0.033132013 -0.03329974 0.030806957 0.032423813 -0.03032243 0.028256519 0.02687086 -0.03352381 -0.02804536 -0.03314826 -0.020552788 0.029567748 0.02235948 -0.0329062 -0.027287345 -0.03336446 -0.03056667 0.033159338 0.033000756 -0.032911085 0.035183236 0.034237806 -0.031132353 0.024487944 0.030382436 -0.033893038 0.03227428 -0.03210761 0.029133024 0.03375612 -0.02444374 -0.030022051 -0.029526943 0.033198345 -0.025209317 -0.032737136 -0.03443358 0.034489356 0.034969594 0.023350442 -0.029919075 0.02473772 0.0328215 0.025193144 -0.028648835 -0.03010466 -0.034004774 0.02923251 0.032857463 0.03221653 0.021885607 -0.031347483 -0.02877765 0.02605501 0.029063012 -0.03148519 -0.032074712 -0.032646634 0.021718314 -0.02756321 0.033216905 0.03141655 -0.023174519 0.028881272 -0.031137504 0.025419194 0.032003425 -0.032822195 0.026145281 -0.033246223 -0.034709115 0.010540292 -0.032920938 -0.03228394 -0.03180584 -0.0310729 0.03398886 0.026532639 0.033413325 0.03202221 -0.026949162 0.027911771 -0.030146327 -0.03140453 0.032524068 0.034903053 -0.025280004 -0.032389276 -0.03076957 -0.032537542 -0.03209757 0.027216364 -0.03020591 0.033606373 0.026361722 0.031128542 -0.03467725 0.033911146 -0.024614979 0.024736809 -0.024543257 0.031445686 0.028266389 -0.0323167 0.022092149 0.027459132 -0.03143729 -0.0323258 0.033194356 -0.03149392 -0.029056672 -0.02835363 0.03293241 0.03276886 0.03335359 0.032346595 0.03180017 0.02430167 -0.029105276 -0.021607375 -0.033698622 -0.031582292 0.020357635 -0.027480762 -0.02976038 -0.02837955 -0.027755693 0.02941331 0.027580895 0.024326613 0.025271736 0.031481028 -0.024304887 -0.023004716 -0.03204778 -0.018321058 -0.027048552 0.020829996 -0.029764712 -0.032094892 0.03370034 -0.02370409 -0.030753132 0.033166923 -0.025089752 -0.027934572 0.033952538 0.025382916 -0.029498877 -0.034552604 -0.019882275 -0.024983373 0.026285041 -0.033168778 0.021384375 0.028175442 0.025039168 -0.026450787 -0.029827148 -0.02529159 -0.026948096 -0.02481844 -0.029987399 0.02906578 -0.031954918 0.035347227 0.030579276 0.03241619 0.03440277 -0.03211604 -0.022699933 -0.03329574 0.033684168 -0.030289385 0.024081245 0.026946872 0.03121457 0.030732997 0.023740202 -0.027244043 0.02736174 0.032707125 -0.032233413 0.0341023 -0.031726144 0.028706733 0.030972289 -0.032829538 -0.023207592 0.023720799 0.03375996 0.030576576 -0.031876773 -0.029018315 0.031048074 -0.02567266 -0.02775252 0.027276749 -0.031951904 -0.02827308 0.021307174 -0.034856647 -0.024009004 -0.022717778 -0.0352027 0.026855143 -0.032027386 -0.03266243 0.020298313 0.030505655 -0.033694312 0.029630734 0.022633739 -0.03129794 -0.03488284 -0.033142444 0.028629025 -0.034830365 -0.031999417 -0.03296493 -0.034663305 0.028959228 -0.031065667 0.031296406 -0.030865053 -0.030754698 0.031441398 -0.028848426 -0.0339014 -0.030525137 0.032946136 0.033794403 -0.02920206 0.025222285 0.024462288 0.03248486 -0.03250513 -0.023097144 -0.031573452 0.034166414 -0.02219111 -0.028885128 0.025434596 -0.0321131 0.03152245 -0.02661161 0.026690498 -0.03060934 -0.027366733 0.028254483 -0.031448618 -0.031237252 0.031301215 -0.034554392 -0.031184813 -0.031698328 0.032646548 0.034767535 0.02698348 0.02199444 0.02814494 -0.026339525 0.025350038 0.027516404 0.032345627 -0.032395933 -0.02090854 -0.034480494 0.030411152 0.032028023
Berlin 0.028217632 -0.021509036 0.024365898 0.026646396 0.02349519 -0.0298101 -0.02478221 0.021146907 -0.029969122 -0.022838581 -0.029390471 0.023335278 0.027214736 0.021761045 0.02399396 0.025299931 -0.019179929 -0.027038144 -0.026402986 0.02893776 -0.031059999 -0.02912075 -0.027702635 -0.028007895 0.023649286 0.026181987 0.024361206 0.023712955 -0.03297527 -0.021341491 0.029366056 -0.018960023 0.023787323 0.030503646 -0.02023599 0.02213143 0.022508074 0.026964689 -0.02784479 0.025887052 -0.027268134 0.027472125 0.025083907 0.024618119 -0.02447914 0.017645394 -0.02545567 0.027824625 -0.029911116 0.01925542 -0.02499767 -0.030202668 -0.02725961 -0.024502208 -0.012852511 -0.020931195 0.021806061 -0.024610218 0.026507448 0.023036584 0.026334073 -0.021197328 0.024580263 -0.026279178 0.030756695 0.025370505 0.027063344 0.024485793 0.02634722 -0.023541477 -0.02222107 -0.025573144 0.020610426 -0.026045298 0.026082806 -0.023422748 -0.026260475 0.028878856 -0.024016986 -0.027961476 0.03068445 0.019480716 0.026382318 0.024012838 -0.028433472 0.025908185 0.03152808 0.02361338 -0.01873024 -0.02467753 0.019788492 0.02827078 0.021100488 -0.022810604 0.021950582 0.02048672 0.030668149 -0.029932735 0.026601179 0.03182777 -0.027210081 -0.029512323 0.027576754 0.025650168 0.02535891 -0.021328216 0.024410438 0.031134235 0.02153289 -0.022340566 0.027679335 -0.027535511 -0.030298376 0.024612078 -0.025210388 -0.028185414 -0.0258641 -0.027436132 0.023348443 -0.02731079 -0.025887048 -0.024758553 -0.026579993 -0.029499218 0.022372114 -0.020419242 0.02170994 0.02788933 0.02691035 -0.030419316 -0.021945463 0.02809472 0.027024888 -0.031361368 0.019672224 -0.02454063 -0.030436594 0.01878632 0.02757221 -0.027859168 -0.02636259 -0.0058036563 -0.022806717 -0.030626375 0.023439206 0.018633174 -0.027863603 0.024397586 0.027699469 -0.007456459 -0.029401597 -0.02377412 0.02949168 -0.022280058 0.02492225 -0.024688043 0.02639438 -0.02406004 0.027180443 -0.023431493 0.029168516 -0.02874585 -0.028894344 -0.02580981 0.03015351 0.021628765 0.024580467 0.025379552 -0.023775764 -0.029715626 0.023803711 0.028554829 0.023876494 0.025318194 0.028550297 0.030441156 0.02163901 0.030144535 -0.026433844 -0.019527717 -0.029300667 -0.027332762 -0.025482116 0.024975378 -0.023821076 0.029897846 -0.02085054 -0.022115648 -0.032618113 0.027009428 -0.027030636 -0.021465309 0.024723768 -0.024035204 0.020740703 0.03211317 0.024099035 0.020545589 -0.019465845 0.02026301 0.030463813 -0.02607334 -0.027115561 -0.025944851 0.025197819 0.020727469 -0.015433531 -0.021541707 0.03111297 0.019651916 -0.027458483 0.02836358 -0.030384732 -0.025057754 -0.02870838 0.028454503 0.026451005 0.025749288 0.017985815 -0.026846614 0.02050977 0.019772384 -0.027540514 0.027045669 -0.030597156 0.022853443 -0.032339122 -0.012357464 -0.025433332 0.032700118 -0.025968129 -0.024659717 0.024638126 0.03188969 -0.0276022 0.028900007 0.02288747 -0.018418098 -0.023632048 -0.023391584 -0.024415802 0.0274404 0.02411597 -0.027517352 -0.022702063 -0.025909936 -0.024967888 0.023618035 0.026100231 -0.028349042 0.021411935 0.024544297 -0.026791029 0.027944697 0.02441253 -0.028184306 0.031436205 -0.028789395 0.024620371 0.029936638 -0.023226708 -0.023937138 -0.022872267 0.032016236 -0.02562539 -0.024509156 -0.024407469 0.023287594 0.025155544 0.022494463 -0.020962374 0.029490754 0.022594132 0.027120696 -0.027191954 -0.026600877 -0.026924418 0.021996493 0.026290119 0.03262314 0.022745948 -0.026435187 -0.028877221 0.026752897 0.024974117 -0.02723904 -0.030188935 -0.0228536 0.023368385 -0.020761624 0.026312958 0.026180936 -0.02643801 0.02602829 -0.02408853 0.031275164 0.030159928 -0.023469413 0.024416545 -0.024156848 -0.023969077 0.020650648 -0.025502698 -0.018149342 -0.02813042 -0.027212335 0.02359905 0.024183095 0.032358866 0.023837691 -0.026002668 0.027639333 -0.03029345 -0.021568865 0.024721522 0.031418953 -0.028667958 -0.02958192 -0.02701865 -0.03079683 -0.028248662 0.026703311 -0.02501364 0.024346197 0.018495215 0.024719208 -0.026001912 0.029850645 -0.027110633 0.01904783 -0.024280734 0.025598008 0.029323868 -0.029126624 0.021695353 0.026984049 -0.028189763 -0.027379042 0.022108285 -0.024103682 -0.0265349 -0.026245434 0.022636028 0.026930556 0.024896126 0.02842979 0.022072507 0.029876644 -0.025135204 -0.02684818 -0.0270871 -0.027951203 0.027052196 -0.020586593 -0.022000056 -0.024866205 -0.027557239 0.020215198 0.031195339 0.02385144 0.026007572 0.025750073 -0.022412896 -0.026518332 -0.028200598 -0.026850931 -0.023723593 0.02292808 -0.023851147 -0.021566058 0.027777998 -0.0028606732 -0.02301854 0.028624143 -0.028015425 -0.027141735 0.0250816 0.021764444 -0.022592977 -0.031082692 -0.0034573819 -0.025564792 0.02006385 -0.02906517 0.02931936 0.028447257 0.024802467 -0.024581842 -0.028605426 -0.025664967 -0.024027059 -0.023534473 -0.027238159 0.025116602 -0.025629912 0.030849043 0.025837818 0.026031999 0.025002534 -0.02716743 -0.026233498 -0.02787453 0.026514508 -0.028757565 0.024011537 0.023414278 0.023047984 0.022158993 0.024635345 -0.026231399 0.02145726 0.029324427 -0.02509628 0.028916389 -0.024208296 0.027589926 0.027577503 -0.02560336 -0.026692884 0.019307803 0.027119549 0.02700834 -0.022678835 -0.023295224 0.030988647 -0.028439244 -0.030341588 0.019041317 -0.029133216 -0.027991625 0.021191007 -0.022409076 -0.026553182 -0.02371602 -0.02119389 0.022870986 -0.02286346 -0.024797453 0.023810035 0.027973127 -0.02797796 0.025207095 0.024735298 -0.02370827 -0.030262262 -0.030178571 0.025774168 -0.02931474 -0.027413405 -0.029375112 -0.030565482 0.030052997 -0.022986745 0.020120027 -0.030184891 -0.028148081 0.022848362 -0.01925739 -0.022854976 -0.026075311 0.028286584 0.025505107 -0.028260926 0.026685748 0.024750026 0.022205353 -0.022709968 -0.022342874 -0.028231828 0.022644667 -0.020458503 -0.02335338 0.027463831 -0.030449701 0.02501532 -0.0275534 0.029809367 -0.02520193 -0.018085629 0.02554989 -0.027279975 -0.022664772 0.030361854 -0.023187624 -0.026653899 -0.031387962 0.028775789 0.028434386 0.025620598 0.025887063 0.02964286 -0.028217208 0.0205917 0.027686853 0.024842786 -0.032003332 -0.021356901 -0.027588274 0.029151924 0.028101964
Germany 0.025621066 -0.03174715 0.032293025 0.024504403 0.030324945 -0.029003628 -0.024241684 0.03110301 -0.025060296 -0.02969127 -0.02379636 0.02953783 0.033719342 0.027276458 0.019902108 0.030860027 -0.031238161 -0.032548092 -0.027883783 0.03301774 -0.028863102 -0.028075298 -0.024458926 -0.0301557 0.02166903 0.02847146 0.031037351 0.028105086 -0.031836018 -0.027410813 0.02924346 -0.025852941 0.027586037 0.02740681 -0.031058874 0.02737517 0.031646974 0.027910091 -0.03112828 0.032141764 -0.032580476 0.027495071 0.024998488 0.03185759 -0.022116818 0.031187959 -0.021803237 0.022981416 -0.029093077 0.025844255 -0.026897678 -0.02453437 -0.026944358 -0.031538032 -0.027567698 -0.031887542 0.02673455 -0.022052534 0.020385042 0.022633787 0.020871239 -0.02857545 0.028348666 -0.025203291 0.030643957 0.03306167 0.025678273 0.03322595 0.027103443 -0.03208534 -0.029721355 -0.03252884 0.02988304 -0.030334258 0.029290989 -0.024023015 -0.029282985 0.03081524 -0.031045506 -0.02985997 0.032883286 0.0320728 0.030277036 0.0271038 -0.03035263 0.025008308 0.025270907 0.020729389 -0.024784187 -0.031827223 0.031914182 0.022476427 0.02760019 -0.031503294 0.031005533 0.030081358 0.025446365 -0.03169825 0.028918294 0.029494029 -0.033141263 -0.021794908 0.0319014 0.03052847 0.031563506 -0.03128074 0.02674296 0.03269713 0.027535612 -0.030329354 0.028058942 -0.028036332 -0.023268625 0.02990198 -0.032612447 -0.031765416 -0.024941755 -0.03166908 0.023691721 -0.023447026 -0.028182985 -0.026969694 -0.025914343 -0.027761117 0.02716105 -0.031558294 0.02943437 0.03210866 0.031806443 -0.025184302 -0.029342089 0.02670775 0.031128218 -0.028361425 0.03085074 -0.033008695 -0.03234955 0.02749166 0.03290763 -0.022856925 -0.031341545 -0.027157081 -0.032999165 -0.0314355 0.033126384 0.029493708 -0.02257404 0.031486887 0.023426263 0.02941651 -0.024869446 -0.029578999 0.031527292 -0.02809983 0.025993945 -0.032268055 0.032054733 -0.022685675 0.033092525 -0.029663943 0.032633536 -0.03230688 -0.03180806 -0.030166306 0.025471918 0.03249829 0.020026889 0.031189369 -0.03287889 -0.02749944 0.03182907 0.032457493 0.025834125 0.02778351 0.029461006 0.029624162 0.033303477 0.029277474 -0.025264865 -0.0323872 -0.028545469 -0.022291992 -0.03019994 0.0313844 -0.030313784 0.031708185 -0.030651337 -0.030394519 -0.032043416 0.03123192 -0.019938404 -0.032867085 0.031979825 -0.03275751 0.031760044 0.030684723 0.032766793 0.028964467 -0.02761961 0.022448288 0.033370446 -0.0232074 -0.023726266 -0.033087164 0.03247148 0.029547308 -0.02450152 -0.033310916 0.031958126 0.032892942 -0.024741778 0.032013744 -0.03244494 -0.027986025 -0.031618755 0.02443014 0.028817678 0.021395862 0.014778187 -0.030291153 0.02978344 0.02920725 -0.03160034 0.03091174 -0.03056509 0.025901051 -0.033344325 -0.025553161 -0.028574465 0.029601295 -0.030924983 -0.03238829 0.030814871 0.03206833 -0.023134515 0.0317356 0.023034537 -0.030650988 -0.02378871 -0.030019533 -0.028564109 0.02881459 0.025312971 -0.032831684 -0.031432122 -0.024384242 -0.024050225 0.031617768 0.031078827 -0.026979651 0.03166842 0.026494619 -0.024014093 0.026453936 0.032381635 -0.032579947 0.021560056 -0.02595128 0.020643247 0.029238213 -0.022051644 -0.03051434 -0.02337552 0.028162697 -0.02218088 -0.032870665 -0.029823523 0.030199412 0.03248548 0.029577915 -0.031574816 0.030767605 0.028686823 0.027432688 -0.027527835 -0.02285746 -0.031804997 0.03147986 0.026497208 0.024931919 0.022276592 -0.020659154 -0.02689935 0.027016368 0.02273155 -0.028866064 -0.03141696 -0.029394804 0.03033796 -0.027542863 0.029294526 0.022815866 -0.026898885 0.027886748 -0.032096263 0.024714781 0.032292437 -0.026314901 0.024782762 -0.026707413 -0.03215781 0.030470792 -0.03006922 -0.030144924 -0.030178297 -0.03284021 0.031017946 0.024929076 0.02906789 0.02620214 -0.032299846 0.023068018 -0.032312572 -0.031130737 0.031677563 0.030321294 -0.02378619 -0.031471707 -0.028268447 -0.031509195 -0.029324356 0.03220499 -0.023725795 0.030389251 0.026984649 0.024977228 -0.028305596 0.03225396 -0.026582843 0.025642842 -0.02223479 0.033562694 0.026246425 -0.031583827 0.030194629 0.030662432 -0.02854654 -0.025191542 0.03209863 -0.031028861 -0.024591599 -0.032560173 0.027494792 0.029442303 0.033261307 0.029415105 0.033476036 0.030760957 -0.022618072 -0.021699049 -0.03058132 -0.0243826 0.03125677 -0.031636015 -0.030490993 -0.025660997 -0.028393311 0.031122644 0.023327867 0.024745055 0.0251738 0.030719724 -0.032481693 -0.030632539 -0.026628383 -0.022729771 -0.027364587 0.030640278 -0.03294812 -0.032502804 0.030321563 -0.022320267 -0.021365069 0.031366147 -0.02826122 -0.030578146 0.03192929 0.03134537 -0.022481067 -0.02814123 -0.022576666 -0.02543042 0.03254648 -0.026492715 0.026623653 0.024873443 0.030222407 -0.032268643 -0.025632124 -0.021544887 -0.03101491 -0.025067918 -0.03236924 0.027552431 -0.032634035 0.0329062 0.019208696 0.030983511 0.029536445 -0.031188928 -0.025541654 -0.03333594 0.026597936 -0.032744847 0.026118794 0.03255758 0.031181324 0.029324282 0.031766925 -0.032246325 0.0200154 0.02994036 -0.030267287 0.028455038 -0.033193436 0.031609368 0.020739622 -0.020482156 -0.031166514 0.03266622 0.032463368 0.03230036 -0.028317519 -0.022453431 0.031270802 -0.027090708 -0.027122201 0.022343542 -0.03233932 -0.026947297 0.032066025 -0.027923116 -0.028799793 -0.024696987 -0.028724134 0.029516121 -0.032015447 -0.031609204 0.020597778 0.02462403 -0.028464984 0.0326718 0.030101852 -0.03198721 -0.03139364 -0.027225263 0.021668699 -0.033145882 -0.032138508 -0.021923697 -0.023087956 0.027985554 -0.021225752 0.029063325 -0.028151033 -0.023833418 0.01980165 -0.032158848 -0.028525352 -0.026842166 0.033515833 0.02926873 -0.024009854 0.02617853 0.025637168 0.020684443 -0.02728898 -0.02508324 -0.029010475 0.025031557 -0.030297248 -0.027110131 0.023495572 -0.030687226 0.03323714 -0.013698375 0.03136431 -0.02695452 -0.029138967 0.027196886 -0.028518576 -0.028145466 0.031885434 -0.029872369 -0.025975801 -0.028111905 0.032100838 0.030969199 0.03153224 0.022319585 0.027376154 -0.027080832 0.032932572 0.025219535 0.022316119 -0.03282628 -0.031077094 -0.031584147 0.03217027 0.030272327
Bern 0.03291536 -0.03421011 0.02451778 0.030826695 0.03297146 -0.033074547 -0.03197248 0.02969991 -0.035754487 -0.026400212 -0.027065651 0.033107817 0.03106176 0.024537446 0.03299025 0.033533387 -0.029423982 -0.028361445 -0.025429107 0.03085016 -0.03148527 -0.03431387 -0.03318287 -0.032859165 0.02950324 0.03509132 0.035586964 0.031361446 -0.034521684 -0.027080614 0.032221116 -0.030652827 0.026321348 0.035447914 -0.029115597 0.02762893 0.034212437 0.03397024 -0.036319107 0.029076181 -0.033053447 0.033583 0.031114744 0.029162582 -0.031202804 0.032219306 -0.029756056 0.02673062 -0.033910405 0.027326737 -0.02660732 -0.03374143 -0.033240397 -0.029267127 -0.029093567 -0.023795618 0.026525231 -0.030771095 0.03108199 0.03174433 0.027383268 -0.027548041 0.028631864 -0.027502853 0.035687294 0.03210594 0.028144293 0.031656805 0.034120515 -0.031880558 -0.030339617 -0.03259578 0.031063309 -0.033656355 0.032829326 -0.03466164 -0.03316404 0.035133276 -0.027867706 -0.033400457 0.034409363 0.029789131 0.03425176 0.031670738 -0.030066337 0.031687595 0.033279583 0.032512322 -0.02054226 -0.03090082 0.029622627 0.033199213 0.021192042 -0.03484536 0.02953999 0.027555143 0.03582702 -0.036133606 0.035540417 0.0370949 -0.032057334 -0.032401286 0.03154813 0.02920169 0.031698547 -0.028215563 0.03668066 0.034300637 0.028786823 -0.027341437 0.031878605 -0.037166275 -0.031629242 0.031286955 -0.03000092 -0.029511878 -0.032898948 -0.026046718 0.026971987 -0.028925305 -0.029494606 -0.026432434 -0.029376373 -0.03404332 0.02979734 -0.028476462 0.033610698 0.033871155 0.030069688 -0.03228259 -0.030625552 0.03298766 0.031476215 -0.03215508 0.030090775 -0.029819144 -0.032782406 0.027826637 0.02549657 -0.029357193 -0.03104876 -0.01689119 -0.032067567 -0.033535305 0.033879194 0.033732828 -0.025057292 0.027381666 0.029828336 0.015014664 -0.035421617 -0.03455634 0.030520307 -0.031738833 0.028218081 -0.029857894 0.03088429 -0.027494535 0.032598853 -0.029452227 0.03578773 -0.031659972 -0.03577532 -0.031775013 0.036323823 0.027605785 0.029798271 0.02894294 -0.03451859 -0.033979684 0.0299351 0.032252364 0.0353355 0.032938726 0.033601835 0.03532025 0.031624842 0.03642599 -0.031212477 -0.032051828 -0.02903156 -0.030151716 -0.033766404 0.033390194 -0.03168572 0.032305356 -0.027220206 -0.03153549 -0.032906845 0.031803668 -0.030904276 -0.031055545 0.029384442 -0.02639286 0.029860416 0.030523269 0.03489174 0.03126603 -0.026730146 0.026423872 0.034833282 -0.030478958 -0.028930204 -0.03453457 0.027983699 0.032740608 -0.02805428 -0.0324915 0.031715497 0.032946132 -0.033250745 0.032029197 -0.034359835 -0.030421622 -0.032324776 0.031088267 0.034637105 0.036932457 0.012951634 -0.032446414 0.029104915 0.03522892 -0.032984573 0.031836975 -0.03342304 0.028027778 -0.036748786 -0.002907831 -0.029134467 0.035540953 -0.030894857 -0.027979383 0.03193691 0.035926297 -0.031310555 0.03284767 0.030466268 -0.025984392 -0.030494783 -0.02816099 -0.03290794 0.034660798 0.026383273 -0.032230906 -0.031277455 -0.035190783 -0.026244327 0.030762013 0.034563497 -0.034115635 0.03162668 0.033544835 -0.033587705 0.03290325 0.032595012 -0.034275033 0.033065278 -0.0324644 0.031744268 0.033200547 -0.028661663 -0.034048766 -0.030247806 0.03538265 -0.03168228 -0.031768415 -0.03255899 0.033708755 0.032449096 0.027645528 -0.025283698 0.03161868 0.034712207 0.028657801 -0.034845807 -0.032638907 -0.03282898 0.027964918 0.034230076 0.03151043 0.021335326 -0.03262863 -0.030160911 0.031493414 0.031539764 -0.035248928 -0.03162906 -0.036840912 0.030665612 -0.024716457 0.030951707 0.035442732 -0.030306045 0.03177143 -0.034042746 0.03503559 0.03054347 -0.025430001 0.02953409 -0.033460233 -0.030318309 0.016390448 -0.033466812 -0.02496417 -0.034401156 -0.03602093 0.030849043 0.029088633 0.035891235 0.03312273 -0.027392585 0.032408196 -0.033228233 -0.027851209 0.032460097 0.033419345 -0.030758042 -0.034778062 -0.03519562 -0.031387616 -0.03346031 0.029625585 -0.030093357 0.031916186 0.02637161 0.031306844 -0.029435137 0.032503836 -0.02945986 0.013821579 -0.031228537 0.03475896 0.03349942 -0.029238854 0.030495055 0.03377664 -0.033338826 -0.032585315 0.031581298 -0.030763581 -0.02896532 -0.03022222 0.024706189 0.03336483 0.033340536 0.034800917 0.029035032 0.029465297 -0.023957875 -0.03144718 -0.033990625 -0.03453024 0.031819254 -0.029404236 -0.029867746 -0.0343131 -0.033934668 0.024882842 0.03305672 0.02951685 0.031227978 0.03518129 -0.029682234 -0.028714186 -0.032293048 -0.018572219 -0.027447214 0.022207001 -0.034594085 -0.030382816 0.030902356 -0.01984589 -0.034395635 0.032613 -0.026345583 -0.03410111 0.029420473 0.032434084 -0.033401567 -0.034399383 -0.017803086 -0.033230714 0.028061686 -0.034429062 0.03403929 0.03551899 0.02994375 -0.032743666 -0.032385807 -0.028256888 -0.036388166 -0.028213955 -0.03350083 0.033531394 -0.028111627 0.037367065 0.02696103 0.030515138 0.032197557 -0.029304286 -0.028086752 -0.031082114 0.03184179 -0.032655027 0.025518565 0.03358702 0.028248819 0.030971939 0.025944637 -0.03400958 0.026959084 0.035189774 -0.034393914 0.033416495 -0.030464454 0.027905094 0.034790643 -0.034495123 -0.027657526 0.028556282 0.031519014 0.029572053 -0.03335279 -0.030221432 0.03147585 -0.030390207 -0.034984883 0.03296083 -0.03231605 -0.029385544 0.030523121 -0.02795633 -0.027901268 -0.033689078 -0.026039762 0.02956523 -0.029826103 -0.034331396 0.028901218 0.03547714 -0.031605996 0.031647734 0.03187296 -0.027633753 -0.03358497 -0.034555946 0.028917085 -0.03452444 -0.032477412 -0.034016784 -0.03190908 0.03490005 -0.02621968 0.028288793 -0.03413569 -0.03334899 0.025877833 -0.029785687 -0.029122056 -0.029577795 0.031152708 0.03241579 -0.03022866 0.030482754 0.028148042 0.028090507 -0.024564035 -0.030396372 -0.03119208 0.029007692 -0.03218064 -0.028567431 0.032275386 -0.035180736 0.031133031 -0.01697836 0.033171687 -0.029899055 -0.029023658 0.03255283 -0.033694133 -0.032488007 0.030515086 -0.029640522 -0.02763029 -0.03235625 0.031149149 0.032484684 0.027404519 0.019067435 0.034164704 -0.029798418 0.028284734 0.03589927 0.032461252 -0.031892054 -0.027831767 -0.030734608 0.030214084 0.030787569
Switzerland 0.037519757 -0.03529519 0.03829372 0.042580046 0.037952125 -0.040864654 -0.036158007 0.040216655 -0.04410782 -0.031793337 -0.035007942 0.03534762 0.03722776 0.034545593 0.038523722 0.043484077 -0.034318097 -0.04242388 -0.037756052 0.043568045 -0.044542726 -0.039917905 -0.037640236 -0.04184532 0.03692281 0.040847085 0.041231297 0.03235161 -0.03882609 -0.030368684 0.039090395 -0.037723944 0.032711606 0.042396348 -0.032487527 0.04068489 0.042451046 0.042086817 -0.041525822 0.039278265 -0.03361161 0.04033277 0.040224373 0.04257827 -0.036609698 0.031533852 -0.041736897 0.041472215 -0.04204674 0.03742664 -0.0401303 -0.04039283 -0.042648096 -0.03458218 -0.028601453 -0.04230443 0.033333674 -0.031065388 0.038237475 0.037322138 0.035829023 -0.033931263 0.033071212 -0.036062554 0.0431644 0.04157664 0.032212075 0.033950824 0.033851814 -0.04011535 -0.042594664 -0.039587915 0.02911335 -0.040344566 0.037313767 -0.035779655 -0.03776861 0.038401227 -0.04228965 -0.041163202 0.044454698 0.035527147 0.037301224 0.036033906 -0.04072309 0.037607536 0.03744079 0.039853826 -0.030924035 -0.038484853 0.034970816 0.043558095 0.02968561 -0.041157324 0.043155868 0.03723916 0.041773632 -0.044251453 0.042956788 0.043584168 -0.038501587 -0.041799743 0.0398496 0.040346745 0.037336726 -0.035352726 0.040854268 0.043580867 0.037693348 -0.034771122 0.03902666 -0.043710534 -0.042866845 0.033283945 -0.040955126 -0.036504183 -0.034910116 -0.041885242 0.036143538 -0.04093544 -0.03888058 -0.03211572 -0.038690537 -0.037329108 0.030039882 -0.037952397 0.036655754 0.04269538 0.037706524 -0.043772317 -0.04077196 0.04192295 0.042355202 -0.04068289 0.033595998 -0.037777312 -0.04266519 0.035068657 0.041811954 -0.040362194 -0.043536313 -0.025144802 -0.041358493 -0.042561978 0.04043354 0.030253684 -0.03982304 0.041321162 0.039111555 0.017085234 -0.041971758 -0.042676814 0.04293485 -0.038189 0.03695609 -0.042013828 0.03543635 -0.03960474 0.043839052 -0.040055487 0.039676577 -0.041940417 -0.04093697 -0.04139495 0.042575616 0.03876044 0.03826849 0.034955204 -0.034519758 -0.043922525 0.032688264 0.043661926 0.036167417 0.040766418 0.039514944 0.042334568 0.040052187 0.04142835 -0.041263036 -0.03418884 -0.04135048 -0.03687953 -0.0417169 0.043678585 -0.03965682 0.042374026 -0.03570796 -0.03983803 -0.04318062 0.04159398 -0.037887067 -0.042771026 0.03742556 -0.035295125 0.042986006 0.04448794 0.038279384 0.032390352 -0.033802055 0.03414626 0.042653926 -0.039251804 -0.040809814 -0.039982002 0.039786827 0.035698526 -0.029916711 -0.03609991 0.04392983 0.035583556 -0.036820732 0.04298407 -0.043011464 -0.03601699 -0.04138688 0.043667026 0.041692495 0.03503346 0.028100722 -0.03994613 0.039250754 0.037213273 -0.040594187 0.04108112 -0.04210104 0.03265912 -0.044163592 -0.016724246 -0.041273527 0.042149626 -0.039193284 -0.03620585 0.044167113 0.043567926 -0.037271876 0.042995818 0.037122164 -0.039203245 -0.041065976 -0.041228563 -0.042432733 0.04019399 0.04301651 -0.041850552 -0.03655024 -0.040776614 -0.041085046 0.03675613 0.04294458 -0.042257186 0.037439458 0.037118834 -0.034094326 0.04312781 0.03787756 -0.044683818 0.041867804 -0.0363024 0.035876364 0.043009855 -0.0299713 -0.0358589 -0.031899426 0.044030372 -0.035950292 -0.038696624 -0.037204757 0.03813074 0.03663888 0.040660366 -0.03323087 0.043382425 0.041009746 0.0371351 -0.043465108 -0.039945353 -0.042596668 0.035063777 0.038484167 0.042645175 0.039440148 -0.034605667 -0.039354783 0.032693118 0.03881656 -0.042350147 -0.04327018 -0.04210984 0.037105344 -0.037779447 0.039681874 0.040112026 -0.036522985 0.036233 -0.03255905 0.037947793 0.04354327 -0.03558099 0.03716107 -0.036505084 -0.0365892 0.02951069 -0.038908295 -0.03615367 -0.042578273 -0.04386428 0.037338972 0.03820744 0.042129304 0.031341176 -0.041057635 0.03323518 -0.040192455 -0.038912814 0.037326626 0.0440889 -0.043370448 -0.034648992 -0.038353823 -0.042673875 -0.03909158 0.04421564 -0.04124289 0.039206143 0.034606874 0.03454932 -0.039116174 0.042151812 -0.04211468 0.033578616 -0.041497197 0.040065303 0.04433006 -0.037800718 0.03805432 0.04296004 -0.041809596 -0.041616157 0.033798307 -0.038509693 -0.039387736 -0.03910807 0.033146698 0.041710917 0.040475603 0.039131828 0.037768386 0.04300738 -0.03378926 -0.03917402 -0.04008018 -0.0424518 0.040294368 -0.03651125 -0.03963397 -0.032649755 -0.043346554 0.035906292 0.043779302 0.041476212 0.04077267 0.039454028 -0.03894631 -0.036330905 -0.04411422 -0.03529362 -0.041022487 0.035370756 -0.043390185 -0.037604842 0.040470574 -0.0025033043 -0.03892577 0.04268448 -0.037949547 -0.041344658 0.041484907 0.028327387 -0.036512714 -0.043276023 -0.01808302 -0.036176436 0.037027784 -0.04135416 0.040177155 0.040444084 0.040498227 -0.03952956 -0.042623207 -0.043404106 -0.041257024 -0.035428483 -0.04274494 0.038392622 -0.03836354 0.04133879 0.0377098 0.039369363 0.03826856 -0.043996014 -0.03863853 -0.042518757 0.038562384 -0.043416988 0.024571149 0.040788192 0.04108996 0.03869422 0.03989037 -0.038102943 0.038366962 0.04392758 -0.0359472 0.038014468 -0.03775661 0.039959885 0.036432907 -0.039494697 -0.039413013 0.039375085 0.03931498 0.042904675 -0.03825915 -0.03578439 0.04370738 -0.041576054 -0.043900695 0.0349245 -0.041096896 -0.037565716 0.039039996 -0.03841811 -0.039562825 -0.038422994 -0.036468826 0.030419128 -0.03374429 -0.042309105 0.03638368 0.03881042 -0.04474314 0.039462812 0.040381804 -0.04041571 -0.043305624 -0.044317998 0.030717589 -0.04289641 -0.043200467 -0.04394972 -0.043573473 0.043548528 -0.03903018 0.036865678 -0.042346615 -0.040296957 0.033028074 -0.03457432 -0.032918066 -0.039812658 0.040755466 0.039238095 -0.041056704 0.04000255 0.036869485 0.03066434 -0.040429313 -0.038195115 -0.0406198 0.038406413 -0.035746116 -0.035830207 0.03792633 -0.04330423 0.037460167 -0.034127053 0.041141454 -0.03340867 -0.035976883 0.04055313 -0.036088016 -0.03853344 0.041139767 -0.041020002 -0.039205994 -0.037921518 0.04125841 0.043884933 0.041852232 0.038784727 0.04311053 -0.04064772 0.036437448 0.044485178 0.03886134 -0.042102553 -0.03320638 -0.039846648 0.043263223 0.041989416
Cairo 0.027306506 -0.025829354 0.029966457 0.028689554 0.027585197 -0.031017857 -0.026856257 0.02853594 -0.026995424 -0.025255674 -0.027475808 0.021969588 0.0299645 0.030082932 0.02999377 0.026644683 -0.030289585 -0.032271937 -0.024960933 0.028587913 -0.033038966 -0.031404376 -0.03153255 -0.03207356 0.028701292 0.03219817 0.031033184 0.027926078 -0.028284617 -0.020020798 0.031181613 -0.02563133 0.026548207 0.029507061 -0.019572176 0.023607427 0.029406598 0.030853083 -0.03008091 0.02946898 -0.024403876 0.032336283 0.029867023 0.03138741 -0.02710429 0.024523156 -0.028053861 0.0204376 -0.026105696 0.025501026 -0.029699044 -0.026488196 -0.03333534 -0.02919789 -0.023039823 -0.024629483 0.025792273 -0.023582302 0.024904033 0.028893484 0.03109048 -0.02120035 0.027864518 -0.028652037 0.030188717 0.03273005 0.027970646 0.02925054 0.026850743 -0.022635369 -0.031848587 -0.026909372 0.025338072 -0.029929554 0.022770349 -0.0253903 -0.029413423 0.029537594 -0.024722006 -0.031210337 0.0335444 0.025630515 0.03358528 0.024677048 -0.031142456 0.03261562 0.03144725 0.029355831 -0.025874589 -0.025918184 0.024399484 0.02732896 0.027587341 -0.03023463 0.02571317 0.022966499 0.030682756 -0.031408742 0.030901145 0.031450123 -0.033436112 -0.032361902 0.02864793 0.02788208 0.026822941 -0.018037276 0.030313872 0.03283813 0.025672134 -0.026188357 0.029311864 -0.027692763 -0.029955259 0.028555414 -0.027573077 -0.02873703 -0.028830236 -0.026938792 0.03473706 -0.027246619 -0.023535844 -0.024082957 -0.029506594 -0.030486654 0.023169624 -0.02701212 0.02899591 0.032538354 0.026323425 -0.026813656 -0.026496325 0.025197824 0.027116468 -0.0319643 0.030564293 -0.027493183 -0.03086498 0.021436652 0.03199879 -0.031895317 -0.032837354 -0.022483401 -0.030733373 -0.03165258 0.022954952 0.02475021 -0.030181145 0.026460564 0.027319629 0.025063155 -0.03228578 -0.032061182 0.031120913 -0.030319385 0.032245353 -0.027645333 0.031468645 -0.024626413 0.024891634 -0.024644794 0.02720167 -0.023013463 -0.023471361 -0.026604524 0.031870257 0.023530087 0.031889144 0.029488046 -0.028505621 -0.032150105 0.028499868 0.03264671 0.026850069 0.031995106 0.031241555 0.033230092 0.024691628 0.029211069 -0.025214775 -0.020126078 -0.031376436 -0.025412256 -0.030720443 0.029265268 -0.029051593 0.030270083 -0.030332742 -0.031920884 -0.032275036 0.030058311 -0.026728058 -0.022571698 0.0208784 -0.03194488 0.024402734 0.028771108 0.031010736 0.027545856 -0.024709834 0.024981393 0.032029375 -0.02302493 -0.027890045 -0.027557962 0.029221019 0.028459396 -0.021678956 -0.022979887 0.027748939 0.027809406 -0.030992553 0.03211396 -0.030727673 -0.028918494 -0.032736164 0.030840628 0.027430246 0.027581392 0.005843338 -0.031597547 0.029004617 0.029816335 -0.025968805 0.030463817 -0.031122984 0.020112084 -0.028484466 -0.012848706 -0.030089531 0.031916782 -0.031474672 -0.026748333 0.031113297 0.0330823 -0.023461329 0.027655588 0.02886564 -0.02297863 -0.029781107 -0.029606393 -0.023889577 0.030430848 0.024148809 -0.03001566 -0.029711472 -0.031978223 -0.01917795 0.0306128 0.02774376 -0.02740625 0.028491719 0.025805488 -0.026129574 0.029876562 0.03201658 -0.0288937 0.028838001 -0.029343177 0.029152403 0.028824903 -0.01863412 -0.026412224 -0.027411189 0.027714182 -0.0241741 -0.02787857 -0.028599348 0.027634123 0.031809796 0.029885968 -0.026509073 0.034989364 0.029861068 0.027904188 -0.02846039 -0.027796619 -0.029748483 0.025831988 0.028401578 0.029291151 0.025669556 -0.028047096 -0.030878574 0.028462747 0.028396303 -0.025359083 -0.028112162 -0.025855513 0.026855143 -0.025111731 0.03107409 0.023171633 -0.023385184 0.0261626 -0.026592638 0.031114062 0.02672805 -0.026591735 0.031125413 -0.027569082 -0.032162227 0.024364598 -0.029162588 -0.024410311 -0.03305228 -0.03122046 0.032987624 0.024130832 0.031981762 0.03002312 -0.03045668 0.029259477 -0.032654434 -0.030007545 0.024675233 0.026296297 -0.028233819 -0.027350256 -0.028678872 -0.032429997 -0.028492654 0.031147342 -0.022164876 0.02610781 0.020447195 0.023591213 -0.024784237 0.02805763 -0.030793421 0.021282729 -0.028912656 0.029662287 0.030482838 -0.031852424 0.022089304 0.028967163 -0.033299357 -0.028364053 0.023568032 -0.029193768 -0.023780419 -0.028804872 0.02830446 0.03062591 0.027074128 0.030740412 0.03234259 0.03271801 -0.025133811 -0.022145873 -0.02863291 -0.033760164 0.030080277 -0.028141668 -0.026888773 -0.028088322 -0.02995738 0.023588695 0.030341404 0.0230598 0.030532667 0.028463181 -0.025327656 -0.030407084 -0.03218179 -0.03014708 -0.024536148 0.024027001 -0.032593653 -0.030184975 0.021444587 -0.014275649 -0.026325248 0.029368086 -0.028841725 -0.03198112 0.032044034 0.026276704 -0.02730253 -0.032013144 -0.013245374 -0.026924755 0.026965557 -0.026280265 0.028244156 0.031195559 0.029756133 -0.024124995 -0.031427626 -0.026568437 -0.027438842 -0.025830194 -0.027814835 0.030924832 -0.026428 0.032009497 0.028528268 0.02578491 0.02989937 -0.03018738 -0.026300741 -0.03214723 0.02868774 -0.026642695 0.021300454 0.029989906 0.025862567 0.026070518 0.022780936 -0.030250868 0.029898118 0.029496673 -0.030797876 0.029709147 -0.02922338 0.026560334 0.029336467 -0.0219899 -0.027091574 0.02917873 0.024853654 0.027626619 -0.028471997 -0.018913545 0.029295975 -0.024341578 -0.03202676 0.023134151 -0.032181546 -0.025054744 0.029350184 -0.024216872 -0.032165162 -0.027001334 -0.023804976 0.031018857 -0.026344376 -0.02964463 0.027884776 0.032256983 -0.03390493 0.027342223 0.028020391 -0.029579066 -0.030014552 -0.030725772 0.026333034 -0.026697168 -0.027370455 -0.028264372 -0.030363685 0.03238753 -0.029426271 0.024170518 -0.030138712 -0.028982747 0.02670416 -0.025439644 -0.025058754 -0.026303371 0.03064185 0.028754067 -0.024028867 0.026634006 0.02710379 0.027153093 -0.026533201 -0.025797302 -0.03250781 0.025004487 -0.026934035 -0.025234345 0.026608868 -0.031151824 0.023418916 -0.022298506 0.03242628 -0.022620926 -0.026011508 0.03430554 -0.02597217 -0.026475986 0.031059558 -0.0318939 -0.030814296 -0.030107776 0.030178692 0.030607775 0.02744227 0.024673907 0.029698227 -0.027429555 0.02981499 0.026690545 0.02727378 -0.028621694 -0.028857237 -0.028730532 0.02836936 0.025888253
Egypt 0.030591873 -0.025796182 0.027268792 0.028899286 0.028084071 -0.027761856 -0.030316351 0.027253695 -0.02793167 -0.024287641 -0.019635363 0.026883587 0.02722275 0.029711379 0.026563568 0.02599374 -0.029676124 -0.030081255 -0.02898723 0.030046621 -0.026703032 -0.029721966 -0.024655536 -0.029591069 0.02694646 0.0287671 0.028832197 0.026991332 -0.028559105 -0.021869404 0.027756676 -0.022973875 0.022602882 0.026990237 -0.02604405 0.025741175 0.030559018 0.028520262 -0.02906251 0.028210469 -0.025330845 0.02992054 0.023894453 0.025410278 -0.026819307 0.028401429 -0.02550132 0.027354049 -0.024972659 0.026033565 -0.02853673 -0.0253216 -0.027462283 -0.027909137 -0.02981749 -0.026401902 0.027305236 -0.027424041 0.029379651 0.030514447 0.022515172 -0.022908952 0.020407783 -0.025113722 0.027396161 0.031828288 0.026506888 0.022339135 0.026806407 -0.029529663 -0.026570711 -0.0267624 0.024976676 -0.027770128 0.021586038 -0.024389762 -0.030517511 0.025987476 -0.02804479 -0.029171683 0.030479806 0.029341327 0.030324105 0.024260854 -0.028188655 0.030138522 0.025458368 0.028356059 -0.028328678 -0.026772061 0.027361346 0.02715881 0.023313107 -0.024941772 0.02765143 0.027310124 0.030188967 -0.03078982 0.028206743 0.031598076 -0.030599607 -0.02500787 0.026839139 0.025247877 0.024001844 -0.026111973 0.02670379 0.029338391 0.02964755 -0.025882812 0.029900398 -0.027583223 -0.02746052 0.023412384 -0.029452745 -0.02840359 -0.03085113 -0.022364292 0.024285857 -0.026866773 -0.025497176 -0.020512547 -0.029746495 -0.02964638 0.027840033 -0.02969941 0.029147187 0.027602507 0.020486204 -0.026297227 -0.028265925 0.028996706 0.020722942 -0.026412077 0.02754471 -0.031005455 -0.029391058 0.025525657 0.02911551 -0.025529807 -0.030712795 -0.025572976 -0.02862897 -0.026958717 0.030193431 0.025548475 -0.027095145 0.026758322 0.024811022 0.022177845 -0.027476866 -0.027965747 0.029283112 -0.030882917 0.027368762 -0.024639806 0.030965371 -0.02678169 0.029257916 -0.02467772 0.028113607 -0.02265813 -0.030419132 -0.025148049 0.03055014 0.025633872 0.023216147 0.024270121 -0.028248211 -0.027510392 0.026480801 0.029532751 0.028413638 0.028609145 0.024179861 0.031123616 0.027786804 0.028023781 -0.02884715 -0.025516855 -0.025723908 -0.023493905 -0.029763568 0.026872287 -0.030020162 0.029287344 -0.028675484 -0.030305244 -0.029180322 0.022059882 -0.028755352 -0.02811078 0.019444926 -0.02781218 0.024108758 0.026744526 0.030442815 0.025215039 -0.02645411 0.02735863 0.03126527 -0.022153705 -0.027574936 -0.02864914 0.027403148 0.024070086 -0.023634067 -0.02763659 0.026920049 0.03040023 -0.029221946 0.02810851 -0.029817512 -0.030249929 -0.026732884 0.028729307 0.029099707 0.02250388 0.017119633 -0.029896386 0.025939757 0.027818762 -0.02414872 0.026609287 -0.031108722 0.025262825 -0.029236197 -0.020206094 -0.027183095 0.030498885 -0.028119238 -0.027195374 0.029642068 0.028259138 -0.029720202 0.026124911 0.026242021 -0.023659639 -0.028640104 -0.025801022 -0.026197735 0.030231182 0.024135128 -0.029626882 -0.027927663 -0.028071333 -0.018538093 0.022291617 0.030538997 -0.026422417 0.029578093 0.028666299 -0.026014252 0.025416445 0.02339246 -0.027590964 0.028567407 -0.027762895 0.029546691 0.027430147 -0.02663703 -0.028044889 -0.030318797 0.026317524 -0.02739536 -0.026142221 -0.02952993 0.026842505 0.0284311 0.028429035 -0.028831528 0.03094148 0.029162394 0.02711444 -0.027711917 -0.023467714 -0.02733733 0.027680632 0.02897553 0.028096968 0.025740404 -0.029462207 -0.028955173 0.03069588 0.028156808 -0.029401276 -0.029338498 -0.028402327 0.02070657 -0.021606848 0.02917788 0.025474299 -0.025921607 0.029893281 -0.02911934 0.025592484 0.026636317 -0.028103298 0.02969556 -0.029508144 -0.025544452 0.021885302 -0.026706984 -0.022721738 -0.029310696 -0.028996967 0.030529121 0.02756832 0.029285148 0.028849885 -0.029123819 0.028373914 -0.030078592 -0.027412374 0.026961794 0.03084015 -0.027301155 -0.028836552 -0.03092733 -0.03045769 -0.029449824 0.028196845 -0.024627903 0.027188439 0.025800968 0.027451212 -0.027002791 0.027099537 -0.02870005 0.022478618 -0.028459005 0.02987632 0.028459765 -0.028628143 0.026622485 0.02211553 -0.028155694 -0.029446445 0.02584265 -0.029605187 -0.026519796 -0.028462976 0.029986667 0.030875288 0.028632937 0.029240713 0.029478222 0.025393156 -0.026568662 -0.027363023 -0.027510205 -0.026741289 0.024510333 -0.028195651 -0.029018551 -0.028183045 -0.030214433 0.023480274 0.027105866 0.023159694 0.028455062 0.0292586 -0.024101986 -0.031013265 -0.027815955 -0.02466852 -0.029414149 0.024083722 -0.024472775 -0.027531326 0.019550746 -0.021852322 -0.023001218 0.025938075 -0.024206571 -0.030339492 0.028687706 0.024533303 -0.029962385 -0.030627267 -0.014210187 -0.026308082 0.031928584 -0.024545148 0.024976492 0.023776809 0.026390115 -0.024617549 -0.031242464 -0.026709054 -0.029755699 -0.023882428 -0.028042603 0.028529972 -0.030063236 0.028104253 0.02067725 0.025752403 0.0276991 -0.026459055 -0.026515044 -0.030470872 0.027731847 -0.02867084 0.025817372 0.027264554 0.026762825 0.028524334 0.030388752 -0.023734013 0.029948287 0.029931035 -0.02621292 0.030268915 -0.026156576 0.027051222 0.027580602 -0.026378373 -0.02641043 0.027495097 0.02518323 0.027363371 -0.027597863 -0.028149778 0.029449262 -0.031184796 -0.023424104 0.020556234 -0.02882776 -0.025043316 0.027478233 -0.025682148 -0.029834507 -0.02435516 -0.025859065 0.025618983 -0.029863074 -0.027134486 0.020275945 0.029407786 -0.029453365 0.02629411 0.024043623 -0.030903997 -0.026677243 -0.027913036 0.025141263 -0.028045872 -0.02365532 -0.027270172 -0.028253702 0.027841534 -0.02820124 0.024722297 -0.027332405 -0.029687734 0.026027253 -0.0210605 -0.026935495 -0.026310882 0.028101634 0.027627276 -0.029671816 0.025320379 0.027732184 0.024729103 -0.024928965 -0.023484657 -0.021184696 0.022449711 -0.023945373 -0.025326712 0.02344604 -0.031246675 0.020573407 -0.023577837 0.027139835 -0.026128175 -0.025440697 0.025795786 -0.022616975 -0.026722562 0.027384447 -0.025991444 -0.03054582 -0.026869994 0.029578498 0.027378231 0.028094016 0.025400097 0.027362444 -0.029294347 0.024035431 0.024230413 0.02764883 -0.029492516 -0.021228842 -0.026526025 0.029221648 0.023503441
Canberra 0.031456277 -0.025079126 0.025134237 0.029373372 0.027241575 -0.026642695 -0.03071004 0.028046547 -0.032253813 -0.029213995 -0.024989173 0.024912864 0.030744113 0.024858631 0.02586762 0.030510737 -0.030352276 -0.030473873 -0.03272236 0.03305889 -0.03148889 -0.026968354 -0.027603239 -0.029935837 0.026540251 0.03205755 0.028541492 0.025401395 -0.030423896 -0.029535055 0.026192103 -0.029243467 0.027025865 0.029724838 -0.021992236 0.02645153 0.031343676 0.032613847 -0.03265791 0.031245925 -0.024626588 0.026001541 0.020550424 0.024024384 -0.022674961 0.028182464 -0.025396017 0.0278697 -0.025941592 0.028138975 -0.027245183 -0.03273838 -0.02986146 -0.029724592 -0.024684567 -0.03290572 0.028398834 -0.02569295 0.030173857 0.025938792 0.025198817 -0.026159717 0.027283436 -0.028536899 0.032473933 0.031588618 0.026919918 0.023028556 0.030481294 -0.029258998 -0.021897541 -0.030431362 0.027952775 -0.03235924 0.031425633 -0.027898513 -0.031204341 0.03196117 -0.031942714 -0.03086734 0.03030839 0.029504409 0.030445049 0.03038075 -0.023965415 0.029848227 0.02399903 0.027543377 -0.024695635 -0.026257964 0.030271968 0.030182905 0.023721984 -0.029339094 0.03282169 0.029417843 0.03118827 -0.030811636 0.029787587 0.03280733 -0.03210689 -0.026000887 0.029035745 0.027030498 0.02845266 -0.025900202 0.030107725 0.032402538 0.02781379 -0.02765057 0.026471507 -0.02887572 -0.030447526 0.025973681 -0.02555126 -0.03114346 -0.027469045 -0.028341297 0.028488893 -0.032894723 -0.028838359 -0.02410949 -0.028401142 -0.03023523 0.026430566 -0.032453336 0.028416831 0.030829057 0.028761543 -0.030451275 -0.030286234 0.0268186 0.02838255 -0.02753667 0.029893154 -0.032695282 -0.031444013 0.028005775 0.02851781 -0.027335154 -0.031454697 -0.025496973 -0.03268101 -0.031422403 0.028618097 0.024883097 -0.022219801 0.03113261 0.021672918 0.017019007 -0.027143521 -0.028562868 0.03186138 -0.026826302 0.026157469 -0.03088215 0.029834522 -0.028341604 0.031821974 -0.022009693 0.029022863 -0.029059315 -0.033489898 -0.024562668 0.02777617 0.03218617 0.023194402 0.028628098 -0.032658745 -0.028736068 0.0270219 0.031385295 0.032418095 0.027779097 0.029174251 0.032937203 0.030028693 0.031006413 -0.02910812 -0.029092498 -0.027144931 -0.022691011 -0.029259058 0.03291057 -0.028471563 0.031106906 -0.029557174 -0.02575148 -0.02768324 0.02651012 -0.031229336 -0.0324058 0.028303012 -0.026706466 0.02799534 0.032973457 0.0302475 0.028885197 -0.023600664 0.026791003 0.030874083 -0.022916358 -0.027114209 -0.03319718 0.03055933 0.02260288 -0.027878856 -0.02358803 0.030026333 0.03147318 -0.03386767 0.026336916 -0.03182995 -0.030547649 -0.030797657 0.029234925 0.02973875 0.030916063 0.018671587 -0.023326112 0.03157581 0.02686667 -0.03144776 0.023279225 -0.029809728 0.03312143 -0.032774974 -0.015487701 -0.02506362 0.030859908 -0.029978469 -0.029261606 0.026589094 0.032654233 -0.028795067 0.031574093 0.025273038 -0.029224781 -0.029280536 -0.028242774 -0.02903249 0.032105006 0.024298424 -0.033627637 -0.02871806 -0.030439686 -0.027910708 0.028585898 0.028127838 -0.033113383 0.031669505 0.033402074 -0.027928393 0.025365015 0.026249595 -0.031565215 0.028632265 -0.03064078 0.029673306 0.03381073 -0.0259999 -0.02716532 -0.026267147 0.030486517 -0.02539099 -0.029989857 -0.029924566 0.033831768 0.030159306 0.022423754 -0.029717606 0.02938138 0.02991327 0.021288326 -0.028859768 -0.027903728 -0.0273442 0.028962484 0.0279515 0.03010862 0.030024577 -0.026536072 -0.033450328 0.028728819 0.024062801 -0.030720038 -0.028486364 -0.032603864 0.028296432 -0.021342125 0.030991258 0.027630147 -0.027802682 0.028039513 -0.02966954 0.023126628 0.028854711 -0.026565276 0.023486968 -0.03379345 -0.03010788 0.019939737 -0.027540209 -0.026372405 -0.031664003 -0.032316383 0.03227907 0.021854615 0.03314201 0.03153386 -0.027577033 0.02561584 -0.03314945 -0.028565338 0.029799985 0.033251584 -0.025822653 -0.030885387 -0.02935598 -0.033753924 -0.030681487 0.030381704 -0.026837757 0.02756779 0.025450451 0.029210763 -0.028637212 0.032770615 -0.02399401 0.028539227 -0.017825188 0.031972133 0.02756568 -0.028982447 0.026266519 0.028154925 -0.031384822 -0.031361 0.030826427 -0.0320227 -0.030535022 -0.0323844 0.031788245 0.03355494 0.030552099 0.031189444 0.02703537 0.027303588 -0.023125088 -0.027546411 -0.031397164 -0.030445505 0.027491255 -0.030244522 -0.030944437 -0.0311194 -0.028522866 0.026643267 0.031516418 0.03016715 0.026216473 0.028130872 -0.022591576 -0.02611851 -0.029969564 -0.02121473 -0.028503668 0.023794215 -0.027022664 -0.03240403 0.03019115 -0.009210606 -0.026655981 0.033765864 -0.030841917 -0.030132141 0.03050458 0.022364909 -0.028584734 -0.03009462 -0.011896364 -0.026448846 0.026426882 -0.030457648 0.025840634 0.030797698 0.027876591 -0.028595839 -0.031736616 -0.024012467 -0.030690668 -0.028013885 -0.028776497 0.027513966 -0.030727943 0.030952828 0.022214435 0.029178744 0.026616242 -0.029740155 -0.02538393 -0.03244747 0.032794498 -0.0318519 0.020181 0.030949073 0.028650235 0.030964324 0.029811589 -0.028824935 0.026794769 0.030791705 -0.024073245 0.029488452 -0.030059773 0.02848028 0.030025834 -0.033938114 -0.024766492 0.023715345 0.03013504 0.028907718 -0.025143098 -0.027429895 0.030011475 -0.030271936 -0.032678496 0.025247695 -0.030967038 -0.026379064 0.02547148 -0.03130249 -0.03032057 -0.024108551 -0.03071563 0.02627867 -0.033124648 -0.033708844 0.019140301 0.031018179 -0.026699988 0.029611684 0.023737334 -0.02794628 -0.03179379 -0.032744877 0.026016628 -0.030254604 -0.030593911 -0.0316875 -0.030298509 0.032527458 -0.026648974 0.028261058 -0.031853285 -0.026001994 0.031824555 -0.026553521 -0.03070488 -0.024987485 0.029623464 0.02991859 -0.02549514 0.022933964 0.02006546 0.029396364 -0.027146103 -0.027855769 -0.024021622 0.028173663 -0.022735694 -0.023989145 0.029113445 -0.03239947 0.027785279 -0.017311623 0.02858319 -0.0321426 -0.027505627 0.028579388 -0.026045185 -0.033406883 0.032362603 -0.03155008 -0.027350916 -0.027257662 0.032474075 0.031478994 0.0282394 0.03106668 0.03275947 -0.0309744 0.028301448 0.025758505 0.02953009 -0.03014357 -0.02310747 -0.031527564 0.0303287 0.031164858
Australia 0.030290088 -0.026544 0.027465707 0.028792752 0.02944983 -0.032118335 -0.028964331 0.028148504 -0.02995497 -0.027321536 -0.030579304 0.025309855 0.027505402 0.027534245 0.031566437 0.030544188 -0.027109116 -0.0310106 -0.029041618 0.02687923 -0.03191412 -0.031275764 -0.027416667 -0.029749367 0.028987033 0.02969832 0.029447244 0.030799706 -0.02761123 -0.025437118 0.029604672 -0.028670216 0.030710388 0.028942132 -0.025257442 0.029239971 0.030704176 0.029328551 -0.029100507 0.028864617 -0.027261922 0.028492883 0.025997726 0.031244565 -0.027756633 0.024035193 -0.025987493 0.022106033 -0.029722255 0.03146309 -0.03069685 -0.029854307 -0.028378425 -0.030757017 -0.02654102 -0.025528705 0.032105125 -0.026113307 0.02641285 0.028545514 0.029266972 -0.02959596 0.030044043 -0.027163094 0.02971023 0.02742167 0.028441915 0.027608084 0.02911039 -0.029420286 -0.02795702 -0.027466182 0.024012348 -0.028916374 0.02910697 -0.029840022 -0.029013086 0.029528012 -0.024795346 -0.028310293 0.030360019 0.027941987 0.030153368 0.03137531 -0.032313615 0.03129514 0.027891373 0.031585105 -0.029890785 -0.030125465 0.026862608 0.029105805 0.029182184 -0.027489273 0.029905476 0.023996009 0.03089803 -0.02821681 0.032611776 0.0289336 -0.028026693 -0.029547561 0.029281314 0.027391555 0.028887711 -0.025567142 0.031064434 0.031845022 0.029056605 -0.029463025 0.030352123 -0.03016869 -0.031645037 0.029631933 -0.028994597 -0.028871171 -0.029815597 -0.029963765 0.028094634 -0.0266942 -0.026223298 -0.026493069 -0.031144159 -0.03156029 0.026481062 -0.029031515 0.031934865 0.030937446 0.029373659 -0.03131013 -0.031036105 0.03057514 0.027850162 -0.03119228 0.030543184 -0.029456574 -0.03119228 0.029265562 0.029165134 -0.02682534 -0.031101994 -0.026468607 -0.02962184 -0.028456386 0.025562758 0.029724699 -0.024925213 0.030628804 0.02583798 0.01878457 -0.03036685 -0.030319065 0.029832367 -0.026022248 0.028287752 -0.025899163 0.028698329 -0.02774761 0.029538313 -0.03221971 0.026778389 -0.028728385 -0.02803993 -0.028821453 0.029242473 0.027989058 0.03111173 0.031049239 -0.0295971 -0.030390494 0.029025018 0.030529728 0.026907234 0.028824704 0.030979246 0.028791133 0.027263029 0.02852033 -0.0311264 -0.026034988 -0.031422757 -0.027409563 -0.02798003 0.031657543 -0.028196877 0.030992912 -0.0283839 -0.032458227 -0.029848991 0.027423788 -0.029852923 -0.029899154 0.031043198 -0.028264198 0.028546132 0.027219627 0.031193804 0.028271766 -0.029585887 0.0300769 0.032055527 -0.030742174 -0.027124278 -0.028796948 0.030907767 0.02658939 -0.016927052 -0.030014679 0.029408986 0.02930841 -0.030679705 0.03096806 -0.027034035 -0.030546714 -0.029573768 0.030913029 0.030210834 0.02912567 0.0221189 -0.030932639 0.03012592 0.029748552 -0.031917807 0.029450081 -0.02681941 0.025990954 -0.027929828 -0.0068749655 -0.027956571 0.027014023 -0.030969303 -0.028115505 0.03009995 0.029375002 -0.02850249 0.028922714 0.028181512 -0.024781777 -0.030462483 -0.031167038 -0.030096143 0.027831992 0.029181544 -0.029730396 -0.028631125 -0.028735952 -0.031286553 0.028021984 0.027902989 -0.02776517 0.028303673 0.02698453 -0.026703332 0.030941054 0.027388167 -0.027616274 0.029524004 -0.0303561 0.031305294 0.030468365 -0.03156467 -0.025095101 -0.02959453 0.03006267 -0.024215482 -0.03147803 -0.03121996 0.028016746 0.027844395 0.028032454 -0.027297951 0.027969964 0.028055128 0.026679631 -0.030479897 -0.02588752 -0.029290665 0.025207086 0.030748624 0.030751865 0.030109359 -0.03114821 -0.030747285 0.027777016 0.028775845 -0.028792033 -0.028726446 -0.02981416 0.03119367 -0.026448928 0.029363127 0.028393647 -0.023636466 0.02892898 -0.029736212 0.031072019 0.029058395 -0.030965537 0.031698532 -0.030446062 -0.028722642 0.030368693 -0.030430611 -0.02423039 -0.030192906 -0.029332645 0.03026688 0.028967755 0.029821608 0.027255975 -0.03172853 0.029956955 -0.029564146 -0.027181678 0.030921316 0.029168677 -0.028480068 -0.027372774 -0.029250633 -0.030012595 -0.03184665 0.03140541 -0.03140925 0.032472253 0.024354994 0.027269673 -0.028982569 0.031478997 -0.023749892 0.021917874 -0.028160648 0.03153643 0.028998913 -0.029360535 0.026749877 0.030445078 -0.03141685 -0.028835231 0.027491996 -0.029912604 -0.027483722 -0.027160328 0.030039648 0.027232522 0.031299245 0.02604222 0.030122304 0.031023396 -0.030372892 -0.03015009 -0.029821102 -0.031800542 0.027886735 -0.026975041 -0.026669843 -0.030082902 -0.028537082 0.031731766 0.030613698 0.02416157 0.030119592 0.030531932 -0.027504947 -0.02942042 -0.029636137 -0.021038316 -0.030794306 0.028699622 -0.029679352 -0.029079275 0.028429933 -0.0054504992 -0.029951649 0.027672037 -0.026770463 -0.028615305 0.03049504 0.028677296 -0.030754896 -0.03151175 -0.00214979 -0.028025042 0.025969984 -0.02829257 0.02550478 0.023625767 0.03236866 -0.02688473 -0.02936471 -0.027337251 -0.027911827 -0.02620659 -0.027881442 0.027401648 -0.028006636 0.029965261 0.029108642 0.029579017 0.027551584 -0.028889105 -0.028178418 -0.028556118 0.02988661 -0.026165362 0.025911227 0.028927227 0.026261866 0.028502317 0.027201185 -0.030212548 0.03217785 0.029462688 -0.02798587 0.02721559 -0.030397352 0.031153373 0.029921234 -0.028084958 -0.031518526 0.029576907 0.03038672 0.030255625 -0.03192906 -0.029580113 0.030058077 -0.02446013 -0.03035066 0.031345 -0.03165171 -0.025743311 0.026660841 -0.02831652 -0.02612078 -0.024798153 -0.027220668 0.02919597 -0.027992792 -0.028672552 0.029031511 0.027552823 -0.03069622 0.0278217 0.029105227 -0.030342877 -0.03185028 -0.029163003 0.024154881 -0.030416928 -0.030968696 -0.030641716 -0.028376127 0.02803314 -0.030935267 0.027117547 -0.028857114 -0.03102261 0.025932968 -0.03176801 -0.030581554 -0.029602937 0.030128395 0.027460804 -0.030490486 0.030534178 0.02700166 0.027875306 -0.032004014 -0.024558391 -0.030736761 0.028764741 -0.028300976 -0.03049807 0.029956995 -0.029543046 0.029213434 -0.024732599 0.028056696 -0.027329225 -0.029614203 0.030419117 -0.026517482 -0.030074531 0.031735107 -0.030753022 -0.030328218 -0.025741026 0.02703726 0.028422164 0.03066501 0.028968235 0.02855548 -0.029389268 0.028270312 0.030608749 0.030365963 -0.028975671 -0.02796304 -0.02926917 0.03087386 0.026958255
